~o
<STREAMINFO> 1 39
<VECSIZE> 39<NULLD><MFCC_D_A_0><DIAGC>
~h "entrance_walking"
<BEGINHMM>
<NUMSTATES> 5
<STATE> 2
<MEAN> 39
 -8.300731e+00 1.611917e+00 5.343277e+00 2.013762e+00 -7.687841e-01 3.789232e+00 2.970754e+00 4.888731e-01 3.241335e+00 3.052261e+00 2.843725e+00 1.540392e+00 5.730436e+01 -5.200154e-03 4.044146e-03 4.984890e-03 7.573949e-04 -2.975397e-03 2.359981e-03 1.000969e-03 3.523971e-03 1.316031e-03 2.179745e-03 1.067691e-03 -4.434786e-03 -7.274102e-03 -2.825840e-04 -5.139309e-04 -2.870093e-04 1.186556e-03 2.211071e-05 -1.747267e-03 -4.730737e-04 -5.906387e-04 1.045169e-04 -5.294958e-04 -1.035435e-04 -5.467835e-04 5.210780e-04
<VARIANCE> 39
 3.133847e+00 5.700363e+00 5.457465e+00 9.620708e+00 1.165436e+01 1.389685e+01 1.290036e+01 1.172011e+01 1.328821e+01 1.212612e+01 1.182262e+01 1.129798e+01 5.842234e+00 1.779359e-01 3.197582e-01 4.699550e-01 6.754043e-01 8.594218e-01 1.128282e+00 1.199796e+00 1.205426e+00 1.381873e+00 1.254397e+00 1.288367e+00 1.102688e+00 2.507985e-01 3.237686e-02 6.379979e-02 9.746186e-02 1.391586e-01 1.793332e-01 2.363559e-01 2.500131e-01 2.547691e-01 2.987419e-01 2.664001e-01 2.772040e-01 2.315254e-01 4.188387e-02
<GCONST> 7.136384e+01
<STATE> 3
<MEAN> 39
 -9.130270e+00 3.382134e+00 3.601157e+00 1.479694e+00 7.009467e-01 -6.018382e-01 1.683093e+00 5.216122e-01 2.151355e+00 2.605584e+00 1.632337e+00 1.523462e+00 6.248113e+01 -1.565757e-02 -2.169662e-02 -1.084932e-02 -1.138596e-02 2.565735e-02 -1.756479e-02 7.346932e-03 1.029169e-02 1.134060e-02 4.001382e-03 -4.701016e-03 1.242264e-02 4.807787e-02 -1.879538e-03 -3.913948e-03 2.268534e-03 4.018900e-03 2.180431e-03 4.869837e-03 5.727784e-03 4.312079e-03 -3.002040e-03 -6.962867e-04 5.646864e-03 3.346092e-03 -9.770391e-04
<VARIANCE> 39
 1.568941e+01 1.114859e+01 1.256694e+01 1.889061e+01 1.602985e+01 2.277285e+01 1.747664e+01 1.565395e+01 1.649475e+01 1.726861e+01 1.363772e+01 1.147257e+01 2.016215e+01 1.057248e+00 9.098902e-01 1.056666e+00 1.348361e+00 1.258823e+00 1.857262e+00 1.619316e+00 1.512495e+00 1.580265e+00 1.537228e+00 1.386318e+00 1.282546e+00 1.287280e+00 1.618706e-01 1.704897e-01 2.148742e-01 2.582496e-01 2.517822e-01 3.538789e-01 3.303631e-01 3.113675e-01 3.265041e-01 3.118080e-01 2.860584e-01 2.747208e-01 2.224698e-01
<GCONST> 9.380219e+01
<STATE> 4
<MEAN> 39
 -1.171816e+01 2.442118e+00 3.924670e+00 3.083310e+00 3.709672e+00 3.132410e+00 5.224238e+00 2.817980e+00 3.660306e+00 4.290199e+00 3.264094e+00 1.623284e+00 6.079898e+01 -2.504975e-03 -7.181036e-03 -2.716693e-03 5.163590e-03 -1.266401e-02 -2.983860e-03 1.958271e-03 1.269713e-02 3.155858e-03 1.361683e-02 1.910395e-02 1.063647e-02 -6.567322e-03 2.266575e-03 -1.757719e-03 -5.044562e-03 -4.807039e-03 8.538582e-04 1.768591e-03 -2.025317e-03 -4.193805e-03 -4.978262e-03 2.306191e-04 -3.195048e-03 -1.809310e-03 2.850063e-03
<VARIANCE> 39
 5.295285e+00 5.150971e+00 7.740487e+00 1.142465e+01 1.176679e+01 1.314880e+01 1.350615e+01 1.299018e+01 1.256295e+01 1.261183e+01 1.109669e+01 1.356568e+01 9.458403e+00 3.088104e-01 4.448409e-01 6.978502e-01 8.755649e-01 1.060379e+00 1.205233e+00 1.327150e+00 1.271264e+00 1.215625e+00 1.373532e+00 1.246454e+00 1.257048e+00 3.772364e-01 6.080412e-02 9.237748e-02 1.462349e-01 1.715600e-01 2.216541e-01 2.452518e-01 2.733333e-01 2.681029e-01 2.540387e-01 2.930103e-01 2.642737e-01 2.700557e-01 7.367410e-02
<GCONST> 7.803965e+01
<TRANSP> 5
 0.000000e+00 1.000000e+00 0.000000e+00 0.000000e+00 0.000000e+00
 0.000000e+00 9.966691e-01 3.330905e-03 0.000000e+00 0.000000e+00
 0.000000e+00 0.000000e+00 9.925922e-01 7.407817e-03 0.000000e+00
 0.000000e+00 0.000000e+00 0.000000e+00 9.938183e-01 6.181720e-03
 0.000000e+00 0.000000e+00 0.000000e+00 0.000000e+00 0.000000e+00
<ENDHMM>
