~o
<STREAMINFO> 1 39
<VECSIZE> 39<NULLD><MFCC_D_A_0><DIAGC>
~h "entrance_close"
<BEGINHMM>
<NUMSTATES> 5
<STATE> 2
<MEAN> 39
 -4.795360e+00 3.228402e+00 5.080675e+00 -3.273405e-02 -1.251955e-01 2.616776e+00 4.275268e+00 3.003718e+00 3.403640e+00 3.778313e+00 1.834693e+00 2.043086e+00 6.520798e+01 4.639732e-02 2.281642e-02 2.044753e-02 -2.291476e-02 7.641851e-03 2.439520e-02 -1.958336e-02 -2.619152e-02 1.167565e-02 4.428369e-03 3.956322e-03 -1.074822e-02 6.626290e-04 1.073060e-02 -1.517462e-02 -1.019325e-02 -1.954851e-02 5.641703e-03 -5.086394e-03 -6.940432e-03 -2.950458e-03 -3.019407e-02 -1.047825e-02 6.729699e-03 -1.074033e-02 2.390807e-02
<VARIANCE> 39
 1.156525e+01 6.911953e+00 9.707119e+00 1.274790e+01 9.207903e+00 1.548650e+01 1.289489e+01 1.303797e+01 1.492277e+01 1.121208e+01 1.232913e+01 9.170999e+00 5.292559e+01 6.398514e-01 4.909893e-01 5.268832e-01 1.005879e+00 8.710001e-01 1.142928e+00 1.488876e+00 1.327309e+00 1.247461e+00 1.078902e+00 1.361061e+00 1.227619e+00 1.215636e+00 1.153721e-01 9.865569e-02 1.046856e-01 2.146672e-01 1.931115e-01 2.378836e-01 3.117951e-01 2.748111e-01 2.387116e-01 2.272449e-01 2.819112e-01 2.656913e-01 2.170517e-01
<GCONST> 8.382558e+01
<STATE> 3
<MEAN> 39
 -4.698025e+00 3.301806e+00 2.349338e+00 -1.109280e+00 3.859513e-01 1.092936e+00 2.650237e+00 9.848272e-01 2.151929e+00 1.892819e+00 8.232460e-01 3.931025e-01 7.502831e+01 7.665838e-02 4.035296e-02 3.569186e-02 2.484432e-02 4.236621e-02 4.005746e-03 -1.521744e-02 -8.144788e-04 1.545764e-02 -1.114877e-02 -6.684389e-03 4.288134e-03 5.545929e-02 -4.473343e-03 1.046489e-02 8.341216e-03 1.889794e-02 -4.855273e-04 1.216103e-02 1.130251e-02 1.455625e-02 2.890388e-02 4.395703e-03 7.103096e-03 9.532478e-03 -2.757996e-02
<VARIANCE> 39
 2.771386e+01 1.038872e+01 1.717786e+01 1.540855e+01 1.927444e+01 1.783423e+01 1.596950e+01 1.917974e+01 1.628692e+01 1.815827e+01 1.290133e+01 1.336823e+01 7.042788e+01 2.136555e+00 1.059071e+00 1.366504e+00 1.654860e+00 2.344892e+00 2.013344e+00 1.983496e+00 2.109580e+00 2.104794e+00 2.165920e+00 1.554471e+00 1.587687e+00 4.231781e+00 3.957559e-01 2.198928e-01 2.696062e-01 3.284588e-01 4.805269e-01 4.066547e-01 4.309740e-01 4.134241e-01 4.496543e-01 4.834466e-01 3.387145e-01 3.406351e-01 6.725771e-01
<GCONST> 1.057505e+02
<STATE> 4
<MEAN> 39
 -2.090513e+00 6.667695e+00 7.855315e+00 3.933962e+00 1.289292e+00 5.087503e+00 4.322499e+00 3.035758e+00 6.015289e+00 5.874014e+00 5.721515e+00 3.620909e+00 5.976545e+01 -1.269015e-01 -1.449825e-02 8.073304e-03 2.311074e-02 -9.954253e-03 2.419644e-02 1.188993e-02 1.943250e-02 -9.506956e-03 3.436389e-02 6.471633e-02 4.121905e-02 -7.403213e-02 -6.332983e-03 -2.642008e-03 -5.506034e-03 -6.712088e-03 -1.681908e-03 -7.614079e-03 -7.664104e-03 -7.587475e-03 -1.989754e-02 2.419529e-03 -5.098755e-03 -2.397979e-03 1.499473e-02
<VARIANCE> 39
 1.556294e+01 4.178379e+00 5.975674e+00 7.840108e+00 1.109700e+01 1.191562e+01 1.006638e+01 9.214920e+00 1.092380e+01 1.531744e+01 1.435401e+01 1.075417e+01 1.253569e+01 3.311962e-01 2.536664e-01 4.639980e-01 5.682511e-01 8.255331e-01 8.339161e-01 8.602085e-01 1.020151e+00 1.059872e+00 1.211754e+00 1.101344e+00 8.639417e-01 2.134643e-01 6.788357e-02 4.955301e-02 9.987006e-02 1.141187e-01 1.705097e-01 1.696573e-01 1.758666e-01 2.148836e-01 2.357560e-01 2.458619e-01 2.357759e-01 1.730838e-01 4.292120e-02
<GCONST> 6.996086e+01
<TRANSP> 5
 0.000000e+00 1.000000e+00 0.000000e+00 0.000000e+00 0.000000e+00
 0.000000e+00 9.837997e-01 1.620028e-02 0.000000e+00 0.000000e+00
 0.000000e+00 0.000000e+00 9.888370e-01 1.116302e-02 0.000000e+00
 0.000000e+00 0.000000e+00 0.000000e+00 9.866828e-01 1.331728e-02
 0.000000e+00 0.000000e+00 0.000000e+00 0.000000e+00 0.000000e+00
<ENDHMM>
