~o
<STREAMINFO> 1 39
<VECSIZE> 39<NULLD><MFCC_D_A_0><DIAGC>
~h "entrance_lock"
<BEGINHMM>
<NUMSTATES> 5
<STATE> 2
<MEAN> 39
 -8.193358e+00 3.801415e-01 4.301072e+00 -5.289055e-01 3.112216e+00 3.144994e+00 7.974612e+00 4.299906e+00 4.679969e+00 4.476063e+00 2.397887e+00 1.169201e+00 6.841342e+01 -7.322492e-02 -6.651903e-02 -6.097548e-02 -5.431110e-02 -4.066459e-02 -3.278594e-02 2.823242e-02 3.664275e-02 2.152151e-02 -5.505403e-03 -1.959203e-02 -1.906185e-02 2.061602e-01 3.451645e-03 -1.260872e-02 -1.016991e-02 -1.316337e-02 -1.918094e-02 -1.705063e-02 -1.438200e-02 -1.103901e-02 7.382551e-04 -1.089620e-02 -1.561217e-02 -5.811064e-03 1.900772e-02
<VARIANCE> 39
 3.063018e+01 3.823439e+01 1.861984e+01 2.715308e+01 1.376456e+01 2.513128e+01 2.071892e+01 1.968056e+01 1.720139e+01 1.713402e+01 1.423256e+01 1.150159e+01 5.213035e+01 1.843814e+00 1.513143e+00 1.170306e+00 1.321151e+00 1.348415e+00 1.822580e+00 1.808313e+00 1.568190e+00 1.664573e+00 1.929103e+00 1.390869e+00 1.216274e+00 2.840302e+00 3.550859e-01 2.371104e-01 2.134683e-01 2.470466e-01 2.414883e-01 3.612887e-01 3.517037e-01 3.192042e-01 3.327697e-01 3.862677e-01 2.888075e-01 2.518299e-01 4.720429e-01
<GCONST> 1.022367e+02
<STATE> 3
<MEAN> 39
 -1.067907e+01 -2.621246e+00 -9.780351e-02 -5.629524e+00 -2.759954e+00 -1.659893e-01 6.806663e+00 2.576088e+00 3.204532e+00 1.854962e+00 1.322317e-01 -2.074315e-01 7.455647e+01 1.229262e-01 1.286987e-01 4.605339e-02 -3.248798e-02 3.490717e-02 2.229718e-02 1.337902e-02 -5.117211e-02 -6.374462e-02 -6.297046e-02 -6.233561e-02 -4.353084e-03 -3.573901e-02 8.892577e-03 3.308983e-02 2.499992e-02 2.813356e-02 2.935092e-02 3.241219e-02 1.530634e-02 8.544111e-03 5.517779e-03 1.693744e-02 2.193401e-02 1.320398e-02 -5.769570e-02
<VARIANCE> 39
 2.627924e+01 2.640812e+01 2.005054e+01 1.315129e+01 2.536155e+01 2.113469e+01 2.200818e+01 2.014500e+01 2.039701e+01 1.941823e+01 1.586894e+01 1.266469e+01 6.684194e+01 1.576701e+00 9.312964e-01 1.014357e+00 1.287717e+00 1.550477e+00 1.527762e+00 1.739467e+00 1.741371e+00 1.645424e+00 1.569956e+00 1.590477e+00 1.232288e+00 2.637640e+00 2.778556e-01 1.564261e-01 1.825937e-01 2.477504e-01 3.100831e-01 3.121832e-01 3.558837e-01 3.501182e-01 3.312699e-01 3.152951e-01 3.248903e-01 2.506770e-01 4.111641e-01
<GCONST> 1.005688e+02
<STATE> 4
<MEAN> 39
 -6.575099e+00 2.686486e+00 5.077726e+00 1.726880e-01 1.048386e-01 2.792706e+00 6.031250e+00 2.610875e+00 3.590265e+00 3.012578e+00 2.074119e+00 5.794747e-01 6.374707e+01 1.100361e-02 1.196560e-02 3.513818e-02 8.049704e-02 -2.215484e-02 2.855551e-02 -4.317641e-02 1.864140e-02 1.696637e-02 2.999440e-02 3.502746e-02 -7.212982e-04 -1.603900e-01 -1.078471e-02 -1.148655e-02 -7.637833e-03 -1.266348e-02 -7.579605e-03 -1.328160e-02 -2.851055e-03 -2.829700e-03 2.433092e-04 1.565027e-03 3.557565e-04 -8.200935e-03 1.869913e-02
<VARIANCE> 39
 1.525750e+01 8.796447e+00 1.220707e+01 1.932124e+01 1.832972e+01 2.282951e+01 2.213800e+01 1.960380e+01 1.637988e+01 1.467686e+01 1.286919e+01 1.120288e+01 4.684499e+01 7.980472e-01 5.262312e-01 6.551483e-01 9.596971e-01 1.216275e+00 1.427710e+00 1.406299e+00 1.363301e+00 1.504816e+00 1.266106e+00 1.292986e+00 9.517664e-01 1.121488e+00 1.501545e-01 9.502532e-02 1.185835e-01 1.868282e-01 2.348847e-01 2.623960e-01 2.753965e-01 2.662259e-01 3.113594e-01 2.530558e-01 2.766391e-01 1.955178e-01 1.655177e-01
<GCONST> 8.857181e+01
<TRANSP> 5
 0.000000e+00 1.000000e+00 0.000000e+00 0.000000e+00 0.000000e+00
 0.000000e+00 9.836684e-01 1.633153e-02 0.000000e+00 0.000000e+00
 0.000000e+00 0.000000e+00 9.809498e-01 1.905021e-02 0.000000e+00
 0.000000e+00 0.000000e+00 0.000000e+00 9.852815e-01 1.471850e-02
 0.000000e+00 0.000000e+00 0.000000e+00 0.000000e+00 0.000000e+00
<ENDHMM>
