~o
<STREAMINFO> 1 39
<VECSIZE> 39<NULLD><MFCC_D_A_0><DIAGC>
~h "entrance_open"
<BEGINHMM>
<NUMSTATES> 5
<STATE> 2
<MEAN> 39
 -4.717509e+00 8.316429e-01 2.404174e+00 -8.878756e-01 -1.335618e+00 2.828857e-01 4.899063e+00 1.763840e+00 3.621483e+00 3.317286e+00 2.295111e+00 8.347821e-01 6.526115e+01 9.980878e-02 -2.334069e-02 -3.505364e-02 1.502978e-02 6.392016e-02 -1.311658e-02 -6.466850e-02 2.567019e-04 3.841136e-02 9.659634e-02 8.004513e-03 -3.213381e-02 6.258303e-03 9.609163e-03 1.290294e-02 2.396912e-03 2.662156e-02 1.211876e-02 2.284691e-02 4.746474e-03 1.886681e-02 1.785214e-02 8.058957e-03 -1.051159e-02 1.655714e-03 -2.303640e-02
<VARIANCE> 39
 1.678231e+01 1.116316e+01 1.848670e+01 2.460019e+01 1.817093e+01 2.412111e+01 1.870981e+01 2.117083e+01 2.200476e+01 1.986034e+01 1.325863e+01 1.218880e+01 3.692968e+01 1.256487e+00 1.196836e+00 1.585966e+00 1.639198e+00 1.424362e+00 1.487355e+00 1.616058e+00 1.842976e+00 2.518366e+00 2.015131e+00 1.741976e+00 1.229536e+00 4.572487e+00 2.494157e-01 2.416881e-01 2.575787e-01 2.782505e-01 2.902689e-01 2.518929e-01 3.095467e-01 3.633167e-01 5.027860e-01 4.053817e-01 3.762330e-01 2.538080e-01 9.996547e-01
<GCONST> 1.027954e+02
<STATE> 3
<MEAN> 39
 -2.362571e+00 1.231773e+00 2.190696e+00 3.096186e+00 1.609363e+00 3.407816e+00 3.330308e+00 3.347227e+00 5.794784e+00 6.722571e+00 1.637469e+00 -1.088721e+00 6.142721e+01 -2.642589e-01 7.387457e-02 1.458574e-01 1.192677e-01 5.781798e-02 2.544029e-01 1.490035e-01 -2.903106e-02 1.711243e-02 6.293396e-02 2.142115e-01 8.449237e-02 -1.095186e-01 -5.166836e-02 6.291057e-03 2.010646e-02 -1.162295e-02 -2.688369e-02 -6.322548e-02 -3.370774e-02 -5.563908e-02 -2.294307e-02 -3.870744e-02 2.214805e-02 -6.160797e-03 -3.929875e-04
<VARIANCE> 39
 9.740622e+00 4.636039e+00 7.457280e+00 5.962750e+00 8.516497e+00 1.308430e+01 8.640907e+00 1.210970e+01 1.580536e+01 2.229043e+01 1.366166e+01 1.153457e+01 3.480160e+01 4.527024e-01 5.332109e-01 8.074600e-01 4.743887e-01 8.257151e-01 1.159598e+00 8.172074e-01 1.632545e+00 1.961141e+00 2.882077e+00 1.872186e+00 1.184088e+00 4.702159e+00 1.081538e-01 1.040749e-01 1.606673e-01 8.154169e-02 1.697980e-01 2.126271e-01 1.375189e-01 2.993510e-01 3.911327e-01 6.253494e-01 4.573426e-01 2.307086e-01 9.726319e-01
<GCONST> 8.604195e+01
<STATE> 4
<MEAN> 39
 -6.554746e+00 1.838342e+00 2.040527e+00 -3.378648e-01 -4.467021e-01 1.387326e+00 3.996357e+00 3.671008e+00 5.181890e+00 4.596665e+00 2.435178e+00 3.379499e-02 6.261105e+01 -5.319680e-02 1.579277e-02 -6.271269e-02 -6.676717e-02 -5.161086e-02 -4.085024e-02 3.090263e-02 1.950122e-02 -2.912947e-02 -7.439532e-02 -3.106164e-02 1.458477e-02 -2.838778e-02 5.766392e-03 -4.341412e-03 -6.161882e-03 -1.407960e-02 5.069204e-03 1.467984e-02 8.469812e-03 3.564073e-03 -1.126368e-02 -7.905605e-04 -5.491490e-03 6.170874e-03 7.384224e-03
<VARIANCE> 39
 9.210649e+00 6.846737e+00 5.721934e+00 8.405821e+00 1.236143e+01 1.519108e+01 1.617353e+01 1.820466e+01 1.897993e+01 1.353045e+01 9.164685e+00 9.128972e+00 3.953050e+00 2.954714e-01 4.542903e-01 5.309976e-01 7.705197e-01 8.162102e-01 1.301915e+00 1.480492e+00 1.490996e+00 1.376738e+00 1.323614e+00 9.704711e-01 1.061303e+00 3.245676e-01 5.964237e-02 9.639695e-02 1.025621e-01 1.569027e-01 1.643697e-01 2.534077e-01 3.094884e-01 3.160225e-01 2.713761e-01 2.872131e-01 1.981677e-01 2.223855e-01 6.636718e-02
<GCONST> 7.624200e+01
<TRANSP> 5
 0.000000e+00 1.000000e+00 0.000000e+00 0.000000e+00 0.000000e+00
 0.000000e+00 9.766887e-01 2.331125e-02 0.000000e+00 0.000000e+00
 0.000000e+00 0.000000e+00 9.173447e-01 8.265531e-02 0.000000e+00
 0.000000e+00 0.000000e+00 0.000000e+00 9.838719e-01 1.612809e-02
 0.000000e+00 0.000000e+00 0.000000e+00 0.000000e+00 0.000000e+00
<ENDHMM>
