~o
<STREAMINFO> 1 39
<VECSIZE> 39<NULLD><MFCC_D_A_0><DIAGC>
~h "handWash"
<BEGINHMM>
<NUMSTATES> 5
<STATE> 2
<MEAN> 39
 -8.958856e+00 6.686667e+00 3.254787e+00 5.209388e+00 3.402394e-01 9.362239e-01 2.550944e+00 -1.800124e+00 8.981089e-02 3.970688e+00 2.024677e-01 3.154878e+00 6.903087e+01 -2.831667e-03 8.631995e-04 4.855440e-03 4.904862e-03 8.068787e-03 5.471293e-03 3.731810e-03 3.543553e-03 -3.296769e-04 -5.269175e-03 -1.901723e-04 1.402261e-03 1.071604e-02 -1.128245e-03 -3.104295e-03 -1.402797e-03 -1.330119e-05 4.827138e-04 -1.636525e-03 -2.937997e-04 -2.114330e-03 4.808434e-04 -1.256408e-03 -1.181837e-05 -1.235333e-03 3.372370e-03
<VARIANCE> 39
 1.553290e+01 1.456566e+01 1.568607e+01 2.281100e+01 2.626347e+01 5.863336e+01 2.500747e+01 5.212156e+01 1.979909e+01 1.644551e+01 3.077436e+01 1.502399e+01 2.702068e+02 8.996851e-01 1.021203e+00 1.416831e+00 1.320791e+00 1.567151e+00 1.991983e+00 2.006758e+00 2.273942e+00 1.873651e+00 1.850058e+00 1.565744e+00 1.590424e+00 8.803775e-01 1.948017e-01 2.069118e-01 2.992235e-01 2.763489e-01 3.261588e-01 4.169104e-01 4.323455e-01 4.841749e-01 3.857484e-01 3.890951e-01 3.266964e-01 3.457495e-01 1.831425e-01
<GCONST> 1.052010e+02
<STATE> 3
<MEAN> 39
 -1.371852e+01 3.794917e-01 2.863374e+00 1.966360e+00 6.590773e+00 3.818984e+00 8.590220e+00 4.995925e+00 4.721433e+00 -1.343079e-01 5.929711e+00 2.370340e+00 6.428269e+01 6.663684e-05 -3.051481e-04 -2.866629e-03 -2.789780e-03 2.564012e-04 2.164101e-03 1.737537e-03 1.262286e-03 -1.990465e-04 1.458503e-03 -5.293627e-05 -1.111691e-03 2.370522e-03 4.781485e-04 3.455873e-04 6.057459e-05 -1.945212e-04 2.311146e-04 -1.186084e-04 1.353549e-04 4.261633e-06 -2.674947e-04 5.777034e-05 2.752907e-04 -1.443517e-05 -3.945548e-04
<VARIANCE> 39
 2.512635e+01 2.276096e+01 2.398407e+01 3.123943e+01 1.915458e+01 3.682253e+01 2.676707e+01 3.010093e+01 2.321956e+01 2.370049e+01 1.531783e+01 1.790378e+01 8.871017e+01 7.221106e-01 9.576991e-01 1.854626e+00 1.907494e+00 1.972408e+00 2.184455e+00 2.337265e+00 2.313980e+00 2.080569e+00 1.932826e+00 1.626734e+00 1.569998e+00 5.783306e-01 1.489644e-01 1.998430e-01 3.960877e-01 4.040247e-01 4.211865e-01 4.549737e-01 4.924375e-01 4.858106e-01 4.362630e-01 4.085680e-01 3.440515e-01 3.324039e-01 1.135313e-01
<GCONST> 1.056326e+02
<STATE> 4
<MEAN> 39
 -3.022624e+01 1.224964e+01 -1.196784e+00 4.684354e+00 -1.308691e+01 1.088230e+01 6.932687e-01 -1.580311e+00 -6.252306e-01 -3.728220e+00 4.771603e+00 -5.639354e-01 1.817990e+01 2.332996e-03 1.140485e-03 -8.865587e-04 -2.962528e-03 -1.083049e-03 1.001180e-03 5.289796e-03 1.123256e-03 -5.239212e-03 8.011768e-04 3.868087e-03 -6.583895e-03 1.328978e-04 1.618786e-04 -4.616604e-04 3.500685e-04 1.754054e-05 -6.320308e-04 -1.101004e-03 4.377214e-04 9.930728e-04 1.412856e-04 -1.010742e-04 1.125181e-04 -1.750036e-03 1.268382e-05
<VARIANCE> 39
 1.997934e+00 1.461178e+00 2.850053e+00 2.073845e+00 4.223966e+00 3.196724e+00 4.194415e+00 4.114828e+00 4.642876e+00 3.980374e+00 4.004524e+00 3.830678e+00 1.261673e+01 5.384855e-02 1.103573e-01 3.055087e-01 2.159339e-01 2.769039e-01 3.441894e-01 4.241635e-01 4.416853e-01 5.253112e-01 4.392203e-01 4.447112e-01 4.184381e-01 2.784346e-02 1.011514e-02 2.169660e-02 6.133723e-02 4.290757e-02 5.726067e-02 6.930372e-02 8.174256e-02 8.957408e-02 1.034344e-01 8.868954e-02 8.939867e-02 8.609658e-02 5.283623e-03
<GCONST> 2.994774e+01
<TRANSP> 5
 0.000000e+00 1.000000e+00 0.000000e+00 0.000000e+00 0.000000e+00
 0.000000e+00 9.948139e-01 5.186069e-03 0.000000e+00 0.000000e+00
 0.000000e+00 0.000000e+00 9.991397e-01 8.603123e-04 0.000000e+00
 0.000000e+00 0.000000e+00 0.000000e+00 9.937845e-01 6.215450e-03
 0.000000e+00 0.000000e+00 0.000000e+00 0.000000e+00 0.000000e+00
<ENDHMM>
