~o
<STREAMINFO> 1 39
<VECSIZE> 39<NULLD><MFCC_D_A_0><DIAGC>
~h "outdoor"
<BEGINHMM>
<NUMSTATES> 5
<STATE> 2
<MEAN> 39
 -8.915708e+00 1.481078e+00 2.220848e+00 5.548416e-01 -1.225810e+00 1.113857e+00 1.727835e+00 8.739102e-02 3.133409e+00 2.703463e+00 2.786694e+00 1.260360e+00 6.103199e+01 -8.076804e-03 -1.550837e-02 2.040422e-02 1.222077e-02 -1.377888e-03 1.175214e-02 -8.424777e-04 -2.283637e-02 -1.215056e-02 -1.531020e-02 3.780707e-03 6.660815e-03 -1.152233e-02 -1.055893e-02 -8.696321e-03 -1.112283e-02 -4.933178e-03 -1.173347e-02 -3.836549e-03 2.665576e-03 -5.908980e-04 1.803211e-03 -2.037077e-03 5.439746e-03 4.675462e-04 1.519738e-02
<VARIANCE> 39
 5.366314e+00 5.352324e+00 7.374712e+00 7.874279e+00 9.671132e+00 1.264615e+01 1.452240e+01 1.351992e+01 1.270128e+01 1.424491e+01 1.228806e+01 9.660148e+00 7.250062e+00 3.998513e-01 5.249116e-01 5.852185e-01 7.783847e-01 9.552409e-01 1.291299e+00 1.437028e+00 1.559620e+00 1.399839e+00 1.329915e+00 1.354100e+00 1.005627e+00 3.560275e-01 7.182323e-02 9.858462e-02 1.203278e-01 1.754744e-01 2.089689e-01 2.772596e-01 2.973576e-01 3.364622e-01 2.921518e-01 2.758727e-01 2.898375e-01 2.048161e-01 7.109937e-02
<GCONST> 7.776080e+01
<STATE> 3
<MEAN> 39
 -8.259780e+00 -1.759537e+00 -1.298558e+00 -5.467346e+00 -6.231220e+00 -4.489374e+00 1.637933e+00 -5.542578e-01 2.657818e+00 1.577127e+00 1.508303e+00 -5.411209e-01 6.964463e+01 8.452847e-02 -2.510269e-02 -3.649987e-02 -9.937342e-02 -5.224144e-02 -8.104853e-02 -3.415442e-02 5.339616e-02 3.535049e-02 4.028236e-02 1.383690e-02 2.386835e-03 4.774604e-02 1.162671e-02 1.851071e-02 2.750694e-02 2.069516e-02 1.920061e-02 3.390100e-03 -7.887798e-03 7.931444e-03 3.452632e-03 7.906377e-03 5.547775e-04 2.267875e-03 -3.515397e-02
<VARIANCE> 39
 1.258611e+01 4.365519e+00 1.182491e+01 8.860674e+00 1.449525e+01 2.282977e+01 2.737951e+01 2.140091e+01 2.118747e+01 2.194687e+01 1.691734e+01 1.501435e+01 3.311501e+01 4.649031e-01 3.998635e-01 1.048655e+00 8.568428e-01 9.039476e-01 1.428099e+00 1.706830e+00 2.198340e+00 1.186166e+00 1.280613e+00 1.554714e+00 1.381087e+00 1.889013e+00 9.306274e-02 7.315736e-02 1.853598e-01 1.587043e-01 1.640255e-01 2.692494e-01 3.598834e-01 4.420303e-01 2.379669e-01 2.565007e-01 3.099891e-01 2.820173e-01 2.759257e-01
<GCONST> 8.930141e+01
<STATE> 4
<MEAN> 39
 -7.755501e+00 1.209934e+00 2.516585e+00 -1.254289e-01 -1.554019e+00 1.494668e+00 2.908015e+00 2.156447e+00 3.088253e+00 2.897352e+00 2.812934e+00 1.731700e+00 6.036565e+01 -1.852163e-02 1.106747e-02 1.329648e-02 4.025080e-02 2.460181e-02 2.590631e-02 2.153817e-02 1.278242e-02 5.585033e-03 2.121588e-03 -1.418318e-02 8.386646e-03 -1.874714e-02 1.831373e-03 6.916845e-04 -6.866874e-04 -2.261321e-03 -2.424206e-03 -3.758240e-03 -6.070188e-03 -1.015616e-02 2.637760e-03 9.063344e-04 -3.937662e-03 -1.622754e-03 5.195461e-03
<VARIANCE> 39
 1.055664e+01 6.298153e+00 7.841916e+00 8.854191e+00 1.164479e+01 1.296997e+01 1.376274e+01 1.486695e+01 1.457339e+01 1.490092e+01 1.285031e+01 1.131203e+01 5.356243e+00 3.087911e-01 3.821437e-01 5.226281e-01 7.224201e-01 9.430628e-01 1.072847e+00 1.199657e+00 1.373195e+00 1.426873e+00 1.366098e+00 1.324579e+00 1.153149e+00 1.988179e-01 5.608912e-02 7.295015e-02 9.860245e-02 1.489646e-01 1.906871e-01 2.254791e-01 2.455047e-01 2.766410e-01 2.955443e-01 2.914887e-01 2.824925e-01 2.331235e-01 3.236175e-02
<GCONST> 7.520839e+01
<TRANSP> 5
 0.000000e+00 1.000000e+00 0.000000e+00 0.000000e+00 0.000000e+00
 0.000000e+00 9.862323e-01 1.376767e-02 0.000000e+00 0.000000e+00
 0.000000e+00 0.000000e+00 9.790515e-01 2.094852e-02 0.000000e+00
 0.000000e+00 0.000000e+00 0.000000e+00 9.931709e-01 6.829179e-03
 0.000000e+00 0.000000e+00 0.000000e+00 0.000000e+00 0.000000e+00
<ENDHMM>
