~o
<STREAMINFO> 1 39
<VECSIZE> 39<NULLD><MFCC_D_A_0><DIAGC>
~h "shoes_on"
<BEGINHMM>
<NUMSTATES> 5
<STATE> 2
<MEAN> 39
 -1.201959e+01 1.828993e+00 3.392808e+00 -2.555352e-01 -2.737319e-02 6.290774e-01 3.019983e+00 1.853796e+00 3.471547e+00 4.936043e+00 3.262048e+00 2.863716e+00 6.218196e+01 -4.384378e-03 -5.329677e-03 3.105181e-03 -1.210424e-02 3.463937e-03 4.916028e-02 9.517196e-03 -2.985562e-02 -4.104206e-02 -1.240180e-02 -1.793769e-02 -1.403386e-02 -2.223036e-02 7.487484e-03 -2.632468e-03 -1.154518e-03 -3.333674e-03 -6.931568e-03 -9.710670e-03 -3.305796e-03 -5.046118e-03 -2.619398e-03 -1.001709e-02 -1.313523e-03 1.340788e-03 9.055620e-03
<VARIANCE> 39
 7.001217e+00 3.514397e+00 8.523834e+00 1.530884e+01 1.594238e+01 1.706292e+01 1.881941e+01 1.428284e+01 1.509121e+01 1.541142e+01 1.242146e+01 1.133204e+01 1.058219e+01 5.962987e-01 4.020838e-01 7.679894e-01 1.130586e+00 1.590991e+00 1.585976e+00 1.737101e+00 1.650553e+00 1.894428e+00 1.590602e+00 1.430156e+00 1.144550e+00 4.617863e-01 1.264125e-01 8.805058e-02 1.524681e-01 2.179566e-01 3.407997e-01 3.518092e-01 4.021527e-01 3.532374e-01 4.043359e-01 3.577897e-01 3.019970e-01 2.314419e-01 8.872300e-02
<GCONST> 8.594814e+01
<STATE> 3
<MEAN> 39
 -8.702722e+00 1.275597e+00 1.992841e+00 -2.320921e+00 -2.705303e+00 -2.579571e+00 -3.849790e-01 2.465028e-01 9.293130e-01 7.332048e-01 1.402917e+00 1.689123e+00 6.543545e+01 5.626961e-02 -7.495878e-03 -3.892478e-02 -9.670534e-02 -7.783163e-02 -7.808974e-02 -8.249440e-02 -4.371705e-02 1.967153e-02 6.385834e-03 2.722919e-02 -2.019889e-02 1.084479e-01 -3.126727e-02 8.431586e-03 3.156898e-02 4.786818e-02 3.290176e-02 2.398359e-02 3.247064e-02 3.210794e-02 1.703340e-02 2.267455e-02 -5.542023e-03 -1.127053e-02 -4.555420e-02
<VARIANCE> 39
 1.752212e+01 1.042390e+01 1.738066e+01 2.920959e+01 2.742039e+01 2.464396e+01 2.144112e+01 1.661411e+01 1.628413e+01 2.028004e+01 1.630948e+01 1.005040e+01 3.602631e+01 1.402430e+00 1.080742e+00 1.561795e+00 2.295215e+00 1.974226e+00 2.266054e+00 1.944553e+00 1.756616e+00 1.530039e+00 1.639294e+00 1.302377e+00 1.181127e+00 2.795706e+00 2.470699e-01 2.081873e-01 3.031807e-01 4.401613e-01 3.117012e-01 3.839156e-01 3.421590e-01 3.318104e-01 2.872919e-01 3.017975e-01 2.610933e-01 2.574593e-01 5.073466e-01
<GCONST> 1.016831e+02
<STATE> 4
<MEAN> 39
 -1.121083e+01 1.842809e+00 3.536738e+00 2.603490e-01 -3.017834e-01 5.470094e-02 2.145806e+00 9.725250e-01 2.628523e+00 3.171557e+00 2.987124e+00 2.393606e+00 6.189792e+01 -4.419181e-03 -3.356537e-03 6.253561e-03 1.919302e-02 8.113203e-03 8.581615e-03 1.802121e-02 2.780557e-03 -3.379615e-03 1.827986e-03 2.255250e-03 3.433248e-03 -1.660525e-02 2.695656e-03 3.087194e-04 -5.298128e-03 -6.070495e-03 -4.449958e-03 -3.925553e-03 -5.514965e-03 -3.664264e-03 -1.102657e-03 -3.258908e-03 1.541992e-03 3.674648e-04 7.620192e-03
<VARIANCE> 39
 8.669009e+00 4.072210e+00 7.857012e+00 1.243167e+01 1.356076e+01 1.756152e+01 1.481816e+01 1.563891e+01 1.522817e+01 1.252233e+01 1.146420e+01 1.025640e+01 1.519369e+01 5.206335e-01 3.830078e-01 6.640615e-01 1.046117e+00 1.135394e+00 1.475350e+00 1.485457e+00 1.510815e+00 1.660435e+00 1.343038e+00 1.364722e+00 1.172886e+00 1.021393e+00 9.726189e-02 7.949604e-02 1.313601e-01 1.999405e-01 2.228458e-01 2.925780e-01 3.106906e-01 3.093682e-01 3.525861e-01 2.841723e-01 2.906429e-01 2.491091e-01 1.815462e-01
<GCONST> 8.391428e+01
<TRANSP> 5
 0.000000e+00 1.000000e+00 0.000000e+00 0.000000e+00 0.000000e+00
 0.000000e+00 9.898955e-01 1.010447e-02 0.000000e+00 0.000000e+00
 0.000000e+00 0.000000e+00 9.794013e-01 2.059870e-02 0.000000e+00
 0.000000e+00 0.000000e+00 0.000000e+00 9.963369e-01 3.663177e-03
 0.000000e+00 0.000000e+00 0.000000e+00 0.000000e+00 0.000000e+00
<ENDHMM>
