~o
<STREAMINFO> 1 39
<VECSIZE> 39<NULLD><MFCC_D_A_0><DIAGC>
~h "shoes_off"
<BEGINHMM>
<NUMSTATES> 5
<STATE> 2
<MEAN> 39
 -1.206516e+01 3.400803e+00 5.073158e+00 7.823336e-01 1.775424e+00 2.366655e+00 3.859623e+00 3.358274e+00 5.841381e+00 6.854358e+00 4.914639e+00 3.230495e+00 6.510994e+01 -4.421623e-02 -5.084907e-02 -8.104150e-02 -1.014609e-02 3.491828e-03 -1.415187e-02 4.436610e-02 3.590202e-02 3.228203e-02 -8.294136e-03 2.213151e-02 6.288014e-02 -4.006841e-02 6.642866e-03 -1.786598e-03 -6.821968e-03 1.673794e-03 -7.582536e-03 -5.542714e-03 -9.068169e-03 -3.150549e-03 -1.671964e-02 -1.519489e-02 6.239437e-03 1.722024e-03 3.655016e-03
<VARIANCE> 39
 5.282720e+00 7.508314e+00 9.520000e+00 1.471696e+01 1.219872e+01 1.019215e+01 1.630624e+01 1.195041e+01 1.124741e+01 1.410436e+01 1.313095e+01 1.259676e+01 9.008144e+00 1.709792e-01 5.991544e-01 8.555139e-01 1.170432e+00 8.352141e-01 1.160498e+00 1.195844e+00 1.100710e+00 1.244813e+00 1.798320e+00 1.361282e+00 1.110045e+00 4.138968e-01 3.328826e-02 1.465730e-01 1.758367e-01 2.177759e-01 1.558203e-01 2.565762e-01 2.575134e-01 2.055016e-01 2.560842e-01 3.627588e-01 2.629877e-01 2.270226e-01 8.262985e-02
<GCONST> 7.863983e+01
<STATE> 3
<MEAN> 39
 -1.229361e+01 6.590236e-01 2.475423e+00 1.966603e-01 1.841197e+00 1.863850e-01 3.237941e+00 1.977232e+00 3.742175e+00 3.125379e+00 3.407762e+00 1.791787e+00 6.522198e+01 4.262559e-02 3.538153e-02 4.346325e-02 4.884460e-02 2.917290e-02 1.719854e-02 5.255090e-02 2.474315e-02 -6.249848e-03 -2.531249e-02 2.155079e-04 -1.044756e-02 -1.310732e-02 -1.516218e-03 1.213368e-02 6.911646e-03 1.581199e-02 1.021149e-02 3.789586e-03 9.360115e-03 1.357468e-03 1.077509e-02 1.796297e-02 2.391078e-03 1.055085e-03 -1.944879e-02
<VARIANCE> 39
 1.303678e+01 1.669534e+01 1.487641e+01 1.472145e+01 1.254447e+01 1.677404e+01 1.807116e+01 1.807828e+01 1.351009e+01 1.803860e+01 1.295387e+01 9.751619e+00 2.492724e+01 6.955251e-01 1.367804e+00 1.489080e+00 1.157613e+00 1.152871e+00 1.608177e+00 1.495364e+00 2.009220e+00 1.368832e+00 2.132225e+00 1.745616e+00 1.275473e+00 1.869857e+00 1.112884e-01 2.277037e-01 3.009703e-01 2.241743e-01 2.464551e-01 3.270305e-01 2.917256e-01 4.233788e-01 2.724120e-01 4.478298e-01 3.871779e-01 2.750685e-01 3.587643e-01
<GCONST> 9.549800e+01
<STATE> 4
<MEAN> 39
 -1.060463e+01 2.384070e+00 5.901424e+00 3.916653e+00 1.964419e+00 2.573219e+00 4.120895e+00 2.544680e+00 4.134428e+00 2.720874e+00 2.210186e+00 2.482229e+00 5.913105e+01 -1.594566e-02 -2.764214e-02 -9.190560e-03 -1.656927e-03 -5.123516e-04 1.093006e-02 -3.125218e-02 -1.932721e-02 4.842082e-03 -1.075769e-02 8.807682e-04 -2.887329e-03 -2.077874e-02 -1.005225e-04 1.976103e-03 -4.976966e-03 -6.122054e-03 8.077170e-04 2.106498e-03 -3.047392e-03 4.691274e-03 -1.680578e-03 -2.858620e-03 7.574728e-03 5.921089e-03 4.727221e-03
<VARIANCE> 39
 5.412117e+00 5.776393e+00 7.848310e+00 8.442511e+00 1.068768e+01 1.545121e+01 1.563734e+01 1.206031e+01 1.227310e+01 1.384655e+01 1.342074e+01 9.784077e+00 6.024285e+00 3.391906e-01 4.255106e-01 8.145068e-01 7.174074e-01 8.760780e-01 1.656044e+00 1.601885e+00 1.495842e+00 1.480374e+00 1.324019e+00 1.177278e+00 1.059271e+00 3.273470e-01 6.013562e-02 9.072212e-02 1.663540e-01 1.458051e-01 1.786940e-01 3.537732e-01 3.345932e-01 3.313828e-01 3.231669e-01 2.670654e-01 2.366630e-01 2.262479e-01 5.597755e-02
<GCONST> 7.786781e+01
<TRANSP> 5
 0.000000e+00 1.000000e+00 0.000000e+00 0.000000e+00 0.000000e+00
 0.000000e+00 9.910597e-01 8.940319e-03 0.000000e+00 0.000000e+00
 0.000000e+00 0.000000e+00 9.930829e-01 6.917080e-03 0.000000e+00
 0.000000e+00 0.000000e+00 0.000000e+00 9.961327e-01 3.867313e-03
 0.000000e+00 0.000000e+00 0.000000e+00 0.000000e+00 0.000000e+00
<ENDHMM>
