~o
<STREAMINFO> 1 39
<VECSIZE> 39<NULLD><MFCC_D_A_0><DIAGC>
~h "shower"
<BEGINHMM>
<NUMSTATES> 5
<STATE> 2
<MEAN> 39
 -1.493288e+01 1.746916e+00 -5.858395e-01 4.599627e+00 7.355502e+00 4.648240e+00 3.719484e+00 4.137168e-01 4.258528e+00 -7.371076e-01 8.203650e+00 1.429194e+00 6.733965e+01 -4.822015e-01 -6.105489e-01 -3.142031e-01 -1.984551e-01 4.864665e-01 3.775429e-01 4.600161e-02 -5.137046e-01 -8.472344e-02 3.342379e-01 2.567297e-01 1.156651e-01 1.200356e+00 2.299376e-02 -3.778572e-02 4.861523e-02 -2.054973e-02 -6.186623e-02 -7.041386e-02 -5.769765e-03 9.037316e-02 -5.780795e-02 -2.237596e-02 -2.381196e-02 2.538456e-02 -6.369660e-02
<VARIANCE> 39
 1.283678e+01 2.619061e+01 1.479452e+01 1.154588e+01 2.966952e+01 1.798409e+01 1.723388e+01 2.346459e+01 2.131591e+01 2.324392e+01 1.732766e+01 1.390662e+01 6.387370e+01 9.372699e-01 1.820441e+00 1.772685e+00 1.765280e+00 1.972082e+00 1.751774e+00 2.199005e+00 2.226722e+00 2.026840e+00 2.038084e+00 1.960949e+00 1.550900e+00 2.779049e+00 1.625695e-01 3.060387e-01 3.516103e-01 4.062187e-01 3.165768e-01 2.926471e-01 4.186502e-01 4.337144e-01 4.156993e-01 4.084969e-01 3.122414e-01 2.732601e-01 3.777813e-01
<GCONST> 1.045811e+02
<STATE> 3
<MEAN> 39
 -1.801154e+01 -6.975405e+00 -4.169449e+00 -2.319103e-01 1.037137e+01 9.413653e+00 5.317105e+00 -6.091993e+00 -1.695438e+00 2.232540e+00 1.170277e+01 4.437593e+00 8.014188e+01 5.195988e-03 2.740648e-03 -3.148053e-03 -1.167316e-02 -1.143071e-02 9.530889e-03 4.816172e-03 -3.274333e-03 -5.149918e-03 6.918386e-04 -2.259523e-03 5.091952e-04 -3.228208e-04 1.092253e-03 3.470589e-03 1.048045e-03 8.363223e-04 -7.342321e-04 4.874625e-05 1.811891e-03 2.573414e-03 6.640199e-04 -1.317379e-03 -4.365120e-04 -1.232874e-03 -2.065863e-03
<VARIANCE> 39
 1.480790e+00 3.528227e+00 4.145432e+00 7.057441e+00 9.312811e+00 1.038738e+01 1.058824e+01 1.180478e+01 1.164349e+01 1.088512e+01 9.614362e+00 9.662176e+00 4.285643e+00 1.408849e-01 2.821543e-01 4.770863e-01 7.050201e-01 1.028748e+00 1.116752e+00 1.185971e+00 1.308707e+00 1.246389e+00 1.188397e+00 1.102591e+00 1.027597e+00 4.879166e-02 2.947975e-02 6.046951e-02 1.015914e-01 1.495944e-01 2.152861e-01 2.375697e-01 2.546481e-01 2.818122e-01 2.616040e-01 2.470195e-01 2.342260e-01 2.125031e-01 1.005751e-02
<GCONST> 6.423434e+01
<STATE> 4
<MEAN> 39
 -1.817179e+01 -3.247851e+00 -6.640130e-01 4.823949e-01 9.434844e+00 8.168659e+00 6.154731e+00 -3.551929e+00 -9.517456e-01 -5.988975e-01 9.419568e+00 4.544995e+00 7.120958e+01 1.781270e-02 -1.655329e-02 1.794185e-02 1.020526e-02 -6.536835e-02 -1.346777e-02 4.908951e-03 5.147201e-02 1.363261e-02 -2.288036e-03 -1.324972e-02 -8.148676e-03 -4.415864e-02 -3.404337e-03 -6.034314e-03 -9.106277e-03 4.297365e-03 -9.549403e-04 9.453271e-03 2.999713e-03 -6.610306e-03 7.103621e-03 5.387398e-03 3.511611e-03 1.001508e-03 4.189777e-03
<VARIANCE> 39
 4.166374e+00 4.017853e+00 6.477156e+00 7.491690e+00 1.212392e+01 1.533711e+01 1.181681e+01 2.715000e+01 2.052375e+01 1.446649e+01 1.248626e+01 1.292793e+01 2.961138e+00 2.407089e-01 4.258354e-01 6.822708e-01 8.343431e-01 1.174947e+00 1.390848e+00 1.511903e+00 1.890526e+00 1.663571e+00 1.409271e+00 1.095695e+00 1.291197e+00 1.337301e-01 4.818401e-02 8.882084e-02 1.351900e-01 1.751512e-01 2.419654e-01 2.816281e-01 3.264948e-01 3.892002e-01 3.384029e-01 2.952494e-01 2.155423e-01 2.633094e-01 2.378729e-02
<GCONST> 7.626629e+01
<TRANSP> 5
 0.000000e+00 1.000000e+00 0.000000e+00 0.000000e+00 0.000000e+00
 0.000000e+00 9.055668e-01 9.443323e-02 0.000000e+00 0.000000e+00
 0.000000e+00 0.000000e+00 9.967296e-01 3.270409e-03 0.000000e+00
 0.000000e+00 0.000000e+00 0.000000e+00 9.833182e-01 1.668184e-02
 0.000000e+00 0.000000e+00 0.000000e+00 0.000000e+00 0.000000e+00
<ENDHMM>
