~o
<STREAMINFO> 1 39
<VECSIZE> 39<NULLD><MFCC_D_A_0><DIAGC>
~h "silence"
<BEGINHMM>
<NUMSTATES> 5
<STATE> 2
<MEAN> 39
 -3.163867e+01 1.252628e+01 -3.904726e+00 2.978566e+00 -9.694871e+00 1.138961e+01 -3.902430e+00 5.330504e-01 -2.411346e-01 -2.356308e+00 2.541995e+00 -7.384242e-01 2.064337e+01 -2.717980e-04 -3.457852e-05 -3.182600e-04 -6.538789e-04 8.660904e-04 7.170867e-04 -3.292890e-03 5.491089e-03 2.712413e-03 -1.911748e-03 -2.506659e-03 -2.873212e-03 -2.442712e-03 -9.638741e-04 -9.865671e-04 -1.507494e-03 -5.259071e-04 -8.694054e-04 -8.631336e-04 1.343833e-03 -1.635353e-04 -1.236161e-03 -1.167608e-03 1.774416e-04 -3.703792e-04 -3.242950e-04
<VARIANCE> 39
 1.038029e+01 1.709927e+00 1.696814e+01 8.007554e+00 2.558928e+01 5.415140e+00 4.460619e+01 1.283272e+01 4.450834e+00 8.368928e+00 1.299681e+01 3.152584e+00 2.035762e+01 9.722040e-02 9.038754e-02 2.068381e-01 1.724965e-01 2.596397e-01 3.348947e-01 3.555639e-01 3.874132e-01 4.563120e-01 3.925979e-01 3.657547e-01 3.290155e-01 3.913779e-02 1.868478e-02 1.726371e-02 4.076078e-02 3.375661e-02 5.427681e-02 6.553762e-02 7.150809e-02 7.741333e-02 9.405199e-02 7.841682e-02 7.449805e-02 6.618273e-02 7.301550e-03
<GCONST> 4.091581e+01
<STATE> 3
<MEAN> 39
 -1.059552e+01 4.611682e+00 -2.348990e+00 -1.842155e+00 -6.127358e+00 -3.763507e+00 -5.017598e+00 -2.919560e+00 -2.025151e+00 -1.242601e+00 -8.079366e-01 -5.500019e-01 4.723958e+01 1.388467e-03 -4.904328e-03 -1.224269e-03 4.786824e-03 -6.541412e-03 -2.452896e-03 5.096531e-03 6.630749e-03 -1.064826e-02 -1.954843e-03 1.955227e-03 -2.488150e-03 -3.090605e-03 5.247837e-04 -3.316716e-04 1.024275e-03 1.484823e-03 2.688953e-04 3.189968e-03 1.752880e-03 -4.616929e-03 -4.792921e-03 4.011337e-04 2.038715e-03 1.964712e-03 1.275423e-03
<VARIANCE> 39
 3.794459e+00 4.465857e+00 5.336231e+00 8.753536e+00 1.014015e+01 1.087014e+01 1.231400e+01 1.270888e+01 1.324966e+01 1.297742e+01 1.103956e+01 8.713953e+00 2.148936e+00 1.448339e-01 2.923221e-01 4.504076e-01 6.038807e-01 8.093002e-01 9.354584e-01 1.229226e+00 1.278306e+00 1.321540e+00 1.394735e+00 1.230735e+00 9.169148e-01 8.264839e-02 2.897586e-02 5.681728e-02 9.209448e-02 1.223080e-01 1.656651e-01 1.926305e-01 2.601776e-01 2.653764e-01 2.679881e-01 2.924277e-01 2.545635e-01 1.817865e-01 1.574585e-02
<GCONST> 6.575033e+01
<STATE> 4
<MEAN> 39
 -1.050700e+01 6.008833e+00 1.421004e+00 6.581350e+00 1.034069e+00 4.227748e+00 3.956540e-01 2.085062e+00 8.767914e-01 1.740606e+00 1.711977e+00 1.585788e+00 4.755669e+01 8.407259e-03 -2.612753e-03 -5.020676e-03 -1.154038e-02 -4.376060e-03 -1.048193e-03 -2.099374e-04 8.296788e-04 -8.979137e-03 1.172862e-03 4.230147e-03 3.627989e-03 1.193869e-02 3.426134e-04 1.980635e-04 -4.502627e-04 -1.103890e-03 -9.714462e-04 -2.022509e-03 -1.813487e-03 -2.507706e-04 8.602040e-05 3.408848e-03 -1.493511e-04 7.719181e-04 4.203879e-04
<VARIANCE> 39
 6.796045e+00 9.922799e+00 2.913067e+01 1.127396e+01 2.815682e+01 1.983308e+01 2.993251e+01 1.822407e+01 2.001234e+01 1.634544e+01 1.293338e+01 1.116282e+01 8.983090e+01 2.408281e-01 4.473639e-01 9.666247e-01 7.341822e-01 1.004712e+00 1.280876e+00 1.395834e+00 1.429893e+00 1.335361e+00 1.295666e+00 1.228710e+00 1.111967e+00 3.864160e-01 4.490060e-02 9.119642e-02 2.017049e-01 1.490939e-01 2.036632e-01 2.383965e-01 2.739904e-01 2.845103e-01 2.684427e-01 2.622933e-01 2.518730e-01 2.324384e-01 7.019684e-02
<GCONST> 8.512519e+01
<TRANSP> 5
 0.000000e+00 1.000000e+00 0.000000e+00 0.000000e+00 0.000000e+00
 0.000000e+00 9.887315e-01 1.126852e-02 0.000000e+00 0.000000e+00
 0.000000e+00 0.000000e+00 9.914161e-01 8.583929e-03 0.000000e+00
 0.000000e+00 0.000000e+00 0.000000e+00 9.927104e-01 7.289662e-03
 0.000000e+00 0.000000e+00 0.000000e+00 0.000000e+00 0.000000e+00
<ENDHMM>
