~o
<STREAMINFO> 1 39
<VECSIZE> 39<NULLD><MFCC_D_A_0><DIAGC>
~h "ugai"
<BEGINHMM>
<NUMSTATES> 5
<STATE> 2
<MEAN> 39
 4.491322e+00 -2.255522e+01 -5.891181e+00 -7.663523e+00 -9.590189e+00 1.531413e+01 -1.173090e+00 -2.775691e+00 -5.092175e-01 -5.484184e+00 3.857730e+00 1.843449e+00 4.977096e+01 1.046512e-02 -7.339233e-02 1.923634e-02 1.001294e-02 -1.127164e-02 5.569130e-02 2.122196e-02 -4.704942e-03 1.094013e-02 -6.892626e-03 -2.140490e-03 5.525960e-03 5.374766e-02 -1.692076e-02 5.435864e-03 1.463490e-03 8.559435e-03 7.043066e-03 -9.114029e-04 8.228427e-03 1.786037e-03 -2.058478e-04 4.724020e-03 -3.906777e-03 -2.146615e-03 -1.987800e-02
<VARIANCE> 39
 1.644848e+01 8.479630e+01 4.355207e+01 3.464009e+01 5.444896e+01 8.412738e+01 4.085531e+01 4.252075e+01 2.492364e+01 2.613024e+01 2.084024e+01 1.740879e+01 4.018731e+01 1.031058e+00 5.416692e+00 3.960870e+00 3.004834e+00 5.386144e+00 5.179143e+00 3.815518e+00 4.040458e+00 2.634410e+00 2.600912e+00 2.171276e+00 1.771795e+00 2.105671e+00 1.831672e-01 9.512187e-01 7.669085e-01 5.993687e-01 1.095954e+00 9.778991e-01 7.432083e-01 8.110802e-01 5.373556e-01 5.248201e-01 4.456367e-01 3.612531e-01 3.745949e-01
<GCONST> 1.254341e+02
<STATE> 3
<MEAN> 39
 3.224069e+00 -2.081583e+01 -1.476100e+00 -4.203900e+00 -9.117191e+00 1.909314e+01 1.637871e+00 -4.834095e+00 -1.298398e+00 -3.700491e+00 4.846243e+00 2.378472e+00 4.768220e+01 -6.737263e-02 1.465758e-01 -5.115727e-02 7.808277e-03 5.300790e-02 -1.014965e-01 -1.638642e-02 1.967963e-02 -3.148059e-02 1.869654e-02 5.905385e-03 -1.264224e-02 -1.471903e-01 -8.679552e-03 8.111481e-03 -5.768321e-03 -9.849340e-03 6.861115e-03 -1.674616e-02 -7.707554e-03 1.576347e-02 -2.144769e-03 -1.069620e-02 -3.762946e-03 -1.271072e-03 -5.945565e-03
<VARIANCE> 39
 1.348825e+01 3.410183e+01 4.733594e+01 2.771831e+01 4.003481e+01 5.616474e+01 3.084287e+01 3.356349e+01 2.372737e+01 2.530072e+01 1.874720e+01 1.673083e+01 1.942893e+01 6.853464e-01 2.811068e+00 4.033467e+00 2.441076e+00 4.220459e+00 4.728731e+00 2.705904e+00 3.693282e+00 2.316383e+00 2.461813e+00 1.884996e+00 1.634982e+00 1.149253e+00 1.287274e-01 5.174893e-01 7.991647e-01 5.079648e-01 8.902640e-01 9.463084e-01 5.533800e-01 7.872452e-01 4.667465e-01 5.218404e-01 3.835470e-01 3.417968e-01 1.947865e-01
<GCONST> 1.163118e+02
<STATE> 4
<MEAN> 39
 -7.146120e+00 -1.022893e+00 -1.032449e+01 -1.331202e+01 -4.985575e+00 7.190251e-01 -6.026819e+00 -7.949259e+00 -4.426395e+00 3.997713e-01 4.636702e+00 4.300402e+00 5.925457e+01 -1.336649e-02 5.883607e-03 1.481834e-03 1.002181e-03 1.244321e-02 4.064645e-03 6.006538e-03 7.431922e-03 2.395826e-03 4.916640e-03 4.843690e-03 3.997600e-03 -1.370541e-02 -1.562677e-03 -2.418121e-03 3.209059e-03 3.551551e-03 -2.796171e-03 -1.011654e-03 8.788367e-04 5.821432e-04 1.881428e-03 2.543183e-04 -6.078422e-04 -6.358490e-04 -7.127893e-04
<VARIANCE> 39
 1.140042e+01 1.334879e+01 1.619261e+01 2.524164e+01 2.388578e+01 3.082447e+01 2.986068e+01 3.189978e+01 3.171871e+01 2.199139e+01 2.522559e+01 1.685786e+01 1.068097e+01 6.257652e-01 8.674586e-01 1.175026e+00 1.434979e+00 1.891895e+00 2.918920e+00 2.526008e+00 2.311251e+00 2.384250e+00 1.848826e+00 2.078567e+00 1.568313e+00 2.387041e-01 1.152260e-01 1.587756e-01 2.101179e-01 2.804237e-01 3.655117e-01 5.988616e-01 5.256618e-01 4.645673e-01 4.742579e-01 3.704782e-01 4.116547e-01 3.140516e-01 3.630679e-02
<GCONST> 9.889997e+01
<TRANSP> 5
 0.000000e+00 1.000000e+00 0.000000e+00 0.000000e+00 0.000000e+00
 0.000000e+00 9.943365e-01 5.663448e-03 0.000000e+00 0.000000e+00
 0.000000e+00 0.000000e+00 9.839795e-01 1.602050e-02 0.000000e+00
 0.000000e+00 0.000000e+00 0.000000e+00 9.915003e-01 8.499760e-03
 0.000000e+00 0.000000e+00 0.000000e+00 0.000000e+00 0.000000e+00
<ENDHMM>
