~o
<STREAMINFO> 1 39
<VECSIZE> 39<NULLD><MFCC_D_A_0><DIAGC>
~h "waterstream"
<BEGINHMM>
<NUMSTATES> 5
<STATE> 2
<MEAN> 39
 -1.656144e+01 3.497945e-01 4.720063e+00 4.429925e+00 2.646313e-01 -1.008992e+01 1.272265e+00 5.461395e+00 7.634556e-01 -1.464387e-01 6.611991e-01 6.391423e-01 5.948597e+01 -1.545375e-02 -3.101517e-02 -1.054149e-02 -4.843932e-02 -1.296837e-02 -6.066213e-02 1.611700e-02 -2.548247e-02 -2.093853e-02 2.841713e-04 -5.002525e-02 -1.523572e-02 7.374828e-02 -4.979454e-03 4.594239e-03 4.529197e-03 5.678294e-03 7.178392e-03 1.878426e-02 3.111995e-03 5.852747e-03 2.382424e-02 1.433286e-03 7.413144e-03 4.618607e-03 -1.673411e-03
<VARIANCE> 39
 2.778237e+01 1.283212e+01 1.744545e+01 5.003110e+01 6.264480e+01 1.095222e+02 3.095038e+01 4.632868e+01 2.443110e+01 5.209782e+01 4.547640e+01 2.466600e+01 6.273941e+01 6.692795e-01 7.625387e-01 1.066864e+00 2.128556e+00 2.365597e+00 2.529691e+00 2.373896e+00 2.875992e+00 2.275078e+00 1.752685e+00 2.166532e+00 1.736807e+00 5.467434e-01 1.267797e-01 1.580831e-01 1.909129e-01 4.256435e-01 4.803511e-01 4.750247e-01 4.454152e-01 5.784115e-01 4.993429e-01 3.498079e-01 4.435942e-01 3.391388e-01 9.971905e-02
<GCONST> 1.095015e+02
<STATE> 3
<MEAN> 39
 -1.228387e+01 8.831786e+00 5.207446e+00 4.157120e+00 2.120372e-01 -3.210511e+00 6.724345e-01 -2.503198e+00 -6.642791e-01 1.884042e+00 -2.684601e+00 3.530479e+00 7.337675e+01 -1.600918e-03 -8.328599e-04 -2.387826e-03 -5.626694e-04 7.344123e-04 -6.025532e-03 9.652511e-04 -6.665447e-03 3.570277e-03 -1.456236e-03 -2.362348e-03 -2.235132e-03 -2.327686e-03 -9.109689e-04 9.663877e-04 7.225474e-04 1.728865e-03 1.313751e-03 2.484367e-03 1.576797e-03 2.152076e-03 3.095506e-03 -1.040686e-03 2.128566e-03 1.276533e-04 -2.129753e-03
<VARIANCE> 39
 1.250773e+01 1.090781e+01 1.456702e+01 1.709883e+01 1.752263e+01 2.000295e+01 2.006764e+01 2.215317e+01 1.927105e+01 1.930693e+01 1.583786e+01 1.531355e+01 1.866999e+01 9.215199e-01 1.197166e+00 1.637731e+00 1.803882e+00 2.070389e+00 2.306444e+00 2.405066e+00 2.535403e+00 2.115639e+00 2.184679e+00 1.698263e+00 1.587021e+00 9.902334e-01 2.003711e-01 2.438980e-01 3.539816e-01 3.754397e-01 4.480217e-01 4.981790e-01 5.050339e-01 5.304048e-01 4.413706e-01 4.612458e-01 3.574472e-01 3.365729e-01 2.170736e-01
<GCONST> 1.023791e+02
<STATE> 4
<MEAN> 39
 -1.608021e+01 -5.677034e-01 1.132883e+00 3.339087e+00 4.007438e+00 1.561330e-01 5.511871e+00 3.300639e+00 3.917105e+00 -7.231881e-01 5.049423e+00 6.708941e-01 6.984098e+01 -4.119964e-04 -9.033456e-03 -1.096857e-02 -8.907342e-03 -5.787112e-03 6.769476e-03 -1.200896e-03 5.073577e-03 4.226407e-03 8.186269e-03 -2.520066e-03 -7.396004e-03 5.862337e-03 -5.829510e-04 5.440876e-04 -6.031370e-04 3.750849e-04 -1.896241e-03 1.039993e-04 -2.732696e-03 1.484477e-04 -1.274202e-03 9.477501e-04 -1.421306e-03 3.264162e-04 -6.121379e-04
<VARIANCE> 39
 4.352184e+00 1.204420e+01 1.452424e+01 1.584674e+01 1.895743e+01 2.546814e+01 1.866404e+01 3.094432e+01 2.059055e+01 2.153893e+01 1.917207e+01 1.377524e+01 1.004951e+01 3.937373e-01 8.036842e-01 1.200366e+00 1.553984e+00 1.884082e+00 1.855355e+00 2.013657e+00 2.229018e+00 1.946258e+00 2.024700e+00 1.771419e+00 1.441113e+00 2.865834e-01 8.367112e-02 1.707287e-01 2.565032e-01 3.343733e-01 4.028952e-01 3.941338e-01 4.334227e-01 4.710509e-01 4.091834e-01 4.265201e-01 3.841641e-01 3.086008e-01 6.111064e-02
<GCONST> 9.407008e+01
<TRANSP> 5
 0.000000e+00 1.000000e+00 0.000000e+00 0.000000e+00 0.000000e+00
 0.000000e+00 9.705802e-01 2.941987e-02 0.000000e+00 0.000000e+00
 0.000000e+00 0.000000e+00 9.923503e-01 7.649744e-03 0.000000e+00
 0.000000e+00 0.000000e+00 0.000000e+00 9.967247e-01 3.275268e-03
 0.000000e+00 0.000000e+00 0.000000e+00 0.000000e+00 0.000000e+00
<ENDHMM>
