~o
<STREAMINFO> 1 25
<VECSIZE> 25<NULLD><MFCC_E_D_N_Z><DIAGC>
~h "entrance_lock"
<BEGINHMM>
<NUMSTATES> 3
<STATE> 2
<NUMMIXES> 8
<MIXTURE> 1 1.035009e-01
<MEAN> 25
 1.689185e-01 1.216746e+00 7.616777e-01 8.360350e-01 1.896067e+00 2.146893e+00 3.155790e+00 6.230143e+00 3.443975e+00 2.509546e+00 2.264628e+00 1.012476e+00 2.048194e-02 2.220078e-01 2.408086e-01 2.806880e-01 -9.150265e-02 1.653207e-01 1.293249e-01 3.423146e-03 9.374821e-02 1.212759e-01 1.146076e-01 6.473194e-02 2.835344e-02
<VARIANCE> 25
 4.343776e+00 4.668038e+00 6.260951e+00 1.660470e+01 1.810705e+01 1.003093e+01 1.717299e+01 1.612992e+01 1.681405e+01 2.621841e+01 2.242235e+01 2.542891e+01 2.540810e-01 3.019114e-01 4.597048e-01 7.978719e-01 1.212285e+00 1.706708e+00 3.336278e+00 2.133030e+00 2.363939e+00 1.408036e+00 1.692487e+00 1.696484e+00 1.175208e-02
<GCONST> 7.379336e+01
<MIXTURE> 2 2.059788e-01
<MEAN> 25
 3.123845e-01 8.760697e-02 1.301423e+00 3.214713e+00 -3.550169e-01 1.184413e+00 1.241738e+00 6.754293e-02 -5.216332e-01 -5.605928e-01 1.151878e-01 2.182447e+00 3.931357e-02 3.779039e-02 1.772132e-02 2.715865e-02 1.100518e-02 -1.356390e-01 3.265248e-03 2.316103e-02 7.169958e-02 -4.194888e-02 -1.847150e-01 4.451221e-02 7.942976e-03
<VARIANCE> 25
 1.289999e+00 3.032094e+00 4.131120e+00 7.116534e+00 9.034980e+00 1.137420e+01 1.357474e+01 1.580286e+01 1.621240e+01 1.194722e+01 1.087367e+01 1.059785e+01 1.300588e-01 2.347639e-01 4.347003e-01 7.527077e-01 8.872579e-01 1.227342e+00 1.967224e+00 1.840894e+00 2.095903e+00 2.305823e+00 1.461941e+00 1.524811e+00 4.608499e-03
<GCONST> 6.446909e+01
<MIXTURE> 3 1.398235e-01
<MEAN> 25
 -3.300141e+00 -1.453856e+00 -1.011991e+00 -1.006090e+00 1.990667e+00 1.637398e+00 8.714123e-01 8.742882e-01 5.956557e-01 3.195800e-01 -9.848424e-01 -4.167677e-01 -3.014570e-02 -3.105047e-02 2.127128e-02 6.649050e-03 1.188850e-01 2.133936e-01 2.697415e-01 3.624744e-01 1.110708e-01 1.624864e-01 1.485112e-01 1.251205e-01 2.085140e-03
<VARIANCE> 25
 5.331700e+00 2.694662e+00 5.403164e+00 6.819084e+00 8.101335e+00 8.733091e+00 1.324018e+01 1.882395e+01 1.234518e+01 1.436120e+01 1.509102e+01 8.787719e+00 2.005760e-01 3.386584e-01 5.974539e-01 8.591700e-01 9.103583e-01 1.204253e+00 1.250031e+00 2.279486e+00 1.765557e+00 1.980704e+00 1.593091e+00 1.397231e+00 7.600931e-03
<GCONST> 6.701684e+01
<MIXTURE> 4 1.475206e-01
<MEAN> 25
 7.655755e-01 3.651057e-01 8.174369e-01 -1.593405e+00 -2.801749e+00 -8.446658e-01 -1.136577e+00 -3.105680e+00 -3.767777e+00 -3.120728e+00 -3.270310e+00 -1.788885e+00 -6.749694e-02 2.901695e-03 1.503623e-01 2.279380e-01 1.081549e-01 -8.327414e-02 -3.843839e-01 -7.135711e-01 -2.001447e-01 -2.691871e-02 1.517182e-01 2.205998e-01 -2.634411e-02
<VARIANCE> 25
 6.079616e+00 3.568352e+00 6.161971e+00 1.164596e+01 1.260211e+01 1.600784e+01 1.359912e+01 1.584379e+01 1.155808e+01 1.620718e+01 1.070157e+01 1.461508e+01 2.043682e-01 2.798356e-01 4.361836e-01 9.170664e-01 1.181260e+00 1.308987e+00 1.743857e+00 1.597753e+00 9.586987e-01 1.997637e+00 1.159051e+00 1.240662e+00 8.698506e-03
<GCONST> 6.821365e+01
<MIXTURE> 5 1.743817e-01
<MEAN> 25
 1.107177e+00 8.648676e-01 1.491299e+00 -1.355785e+00 -4.226291e+00 -2.771303e+00 -2.070518e+00 -8.029237e-01 -5.975669e-01 3.715206e-01 -6.150569e-02 1.719169e-01 -1.216374e-01 -1.597135e-01 -2.441644e-01 -8.491865e-02 1.889324e-01 3.187401e-01 4.484025e-01 4.297049e-01 8.599756e-02 8.154676e-02 3.852731e-02 -1.296195e-01 -4.602027e-02
<VARIANCE> 25
 2.977753e+00 6.020576e+00 7.002546e+00 1.428873e+01 1.038167e+01 8.643039e+00 1.432706e+01 1.880395e+01 1.611382e+01 1.687223e+01 1.088334e+01 1.216764e+01 1.088149e-01 2.599227e-01 5.112933e-01 9.545102e-01 9.427911e-01 1.247491e+00 1.634308e+00 1.754556e+00 2.020710e+00 1.488950e+00 1.466265e+00 1.828814e+00 4.773655e-03
<GCONST> 6.769946e+01
<MIXTURE> 6 8.132805e-02
<MEAN> 25
 -1.814154e-01 4.324870e-03 -9.911469e-02 -4.985381e+00 -5.251705e+00 -7.383852e+00 -7.224710e+00 -5.426280e+00 -4.577008e+00 -2.648264e+00 -3.551316e+00 -2.215070e+00 1.908921e-01 2.448744e-01 1.263476e-01 6.761152e-02 8.686588e-02 3.229314e-01 3.317280e-01 6.069467e-01 9.200176e-02 -2.983474e-01 -3.705972e-02 1.680737e-02 -2.583923e-01
<VARIANCE> 25
 7.058219e+00 7.980911e+00 1.564219e+01 1.503872e+01 2.276873e+01 2.102886e+01 1.090470e+01 2.269276e+01 1.794362e+01 2.298984e+01 1.308935e+01 1.245595e+01 4.252421e-01 4.334950e-01 9.565407e-01 1.427769e+00 1.330565e+00 1.621773e+00 1.694060e+00 1.831567e+00 2.084476e+00 1.576954e+00 1.679688e+00 1.665512e+00 3.130896e-02
<GCONST> 7.751463e+01
<MIXTURE> 7 6.069391e-02
<MEAN> 25
 -1.644343e+00 2.522647e-01 -3.679218e-01 -2.565592e+00 1.736323e-01 -1.486249e+00 7.780983e-01 2.351589e-01 -5.734869e-02 4.688743e-01 -8.730670e-01 -2.085829e-01 -1.354027e-01 -3.267306e-01 -4.533211e-01 -1.154592e+00 -1.313565e+00 -1.754564e+00 -1.241309e+00 -8.578424e-01 -4.303191e-01 -5.923975e-01 -6.040037e-01 -1.424258e-01 5.134245e-01
<VARIANCE> 25
 1.460308e+01 8.382210e+00 5.860803e+00 1.624838e+01 2.203012e+01 3.086535e+01 2.209680e+01 3.876939e+01 2.825756e+01 1.826126e+01 1.939687e+01 1.767249e+01 1.683656e+00 1.063491e+00 9.296578e-01 1.477381e+00 1.902823e+00 1.726394e+00 2.507698e+00 4.296317e+00 3.501146e+00 1.210526e+00 2.026755e+00 2.481440e+00 2.790619e-01
<GCONST> 8.691838e+01
<MIXTURE> 8 8.677248e-02
<MEAN> 25
 -3.907151e+00 -3.910129e+00 -4.092798e+00 -5.762801e+00 -1.342309e-01 -3.408158e+00 -2.393879e+00 1.072301e+00 2.010552e+00 2.707135e+00 1.719486e+00 7.568549e-01 1.805321e-01 -3.284303e-01 -1.756539e-01 -1.928339e-02 1.512686e-01 2.016824e-02 -1.380435e-01 -1.329345e-01 -1.837945e-01 1.430685e-01 9.890994e-02 -3.227558e-01 -1.273165e-02
<VARIANCE> 25
 8.562773e+00 2.286628e+01 1.638210e+01 1.151579e+01 1.517754e+01 1.378716e+01 2.009715e+01 2.101120e+01 2.574763e+01 1.475861e+01 2.353439e+01 2.121041e+01 5.289303e-01 1.352248e+00 1.023454e+00 9.231641e-01 1.683357e+00 1.674035e+00 2.357097e+00 2.189283e+00 1.974548e+00 1.517924e+00 2.294008e+00 2.001527e+00 1.393887e-01
<GCONST> 8.294276e+01
<TRANSP> 3
 0.000000e+00 1.000000e+00 0.000000e+00
 0.000000e+00 9.947698e-01 5.230299e-03
 0.000000e+00 0.000000e+00 0.000000e+00
<ENDHMM>
~o
<STREAMINFO> 1 25
<VECSIZE> 25<NULLD><MFCC_E_D_N_Z><DIAGC>
~h "entrance_open"
<BEGINHMM>
<NUMSTATES> 3
<STATE> 2
<NUMMIXES> 8
<MIXTURE> 1 1.991682e-01
<MEAN> 25
 -2.896633e+00 6.705031e-01 -5.377243e-01 2.755498e+00 3.586091e+00 2.808719e+00 4.521488e+00 2.755699e+00 4.524971e+00 4.639523e-01 1.358755e+00 1.350608e+00 -1.093760e-02 -1.635202e-01 -1.302964e-02 4.054260e-02 9.914802e-02 -2.278399e-01 -1.557418e-01 -1.948453e-01 5.153286e-02 1.490148e-01 5.093495e-02 -9.698036e-02 -3.685846e-03
<VARIANCE> 25
 6.001458e+00 9.398434e+00 6.301063e+00 8.397618e+00 1.287650e+01 1.233619e+01 1.415139e+01 2.786896e+01 1.467020e+01 2.029738e+01 1.179183e+01 1.490590e+01 2.060567e-01 4.867491e-01 4.572926e-01 9.174123e-01 1.161670e+00 1.205082e+00 1.190778e+00 2.076104e+00 1.477142e+00 2.111062e+00 1.705496e+00 1.692212e+00 1.103742e-02
<GCONST> 7.162288e+01
<MIXTURE> 2 3.780343e-01
<MEAN> 25
 -4.559907e+00 -1.776412e+00 2.129014e-01 -1.024513e+00 9.959507e-01 3.966487e-02 -6.740865e-01 -7.110034e-01 -1.578606e-01 -4.124812e-01 -1.255956e+00 3.116268e-01 -2.481064e-02 -1.333411e-02 3.281187e-03 -3.109129e-02 5.812842e-02 1.470899e-01 6.829416e-02 2.351953e-02 -2.830957e-02 -1.076794e-01 -7.092150e-02 1.340960e-01 -5.573110e-03
<VARIANCE> 25
 2.505219e+00 2.668232e+00 4.515184e+00 7.265519e+00 1.071015e+01 9.536838e+00 1.173005e+01 1.231144e+01 1.711633e+01 1.470565e+01 1.814142e+01 1.464068e+01 1.846003e-01 3.092355e-01 4.446459e-01 9.330907e-01 1.013448e+00 1.179065e+00 1.816533e+00 1.330753e+00 1.473999e+00 1.487503e+00 1.602727e+00 1.684978e+00 1.081178e-02
<GCONST> 6.661584e+01
<MIXTURE> 3 1.311159e-01
<MEAN> 25
 -2.353575e+00 -2.267132e-01 1.974044e-01 -2.707413e+00 -1.690303e+00 -4.211447e+00 -6.469507e+00 -4.972127e+00 -6.300867e+00 -1.178628e+00 7.067464e-01 2.025484e+00 -3.918477e-01 -4.177397e-01 1.338428e-01 2.421051e-01 2.923671e-01 4.769930e-01 5.029942e-01 6.870917e-01 7.596428e-01 4.793747e-01 1.067735e-01 -1.026009e-01 -5.672561e-02
<VARIANCE> 25
 3.454003e+00 4.323815e+00 6.260548e+00 1.302796e+01 7.541997e+00 9.723908e+00 1.941079e+01 1.273745e+01 2.123014e+01 2.115482e+01 1.130541e+01 1.720800e+01 1.616264e-01 3.067727e-01 6.057209e-01 1.015917e+00 1.771139e+00 1.222587e+00 2.559135e+00 1.597426e+00 1.985194e+00 2.381330e+00 2.230538e+00 1.939367e+00 2.514037e-02
<GCONST> 7.226105e+01
<MIXTURE> 4 8.601214e-02
<MEAN> 25
 -1.229590e+00 -1.272857e+00 1.117890e+00 -1.682421e+00 8.549319e-01 -6.814033e-01 -2.081470e+00 -3.228409e+00 -2.537455e+00 -7.119022e-01 -1.005774e+00 -9.976457e-01 3.779814e-01 2.400877e-01 6.840000e-03 -7.914127e-01 -1.123630e+00 -1.053931e+00 1.098899e-01 -8.057550e-01 -8.437231e-01 -7.554513e-01 -2.738672e-01 -1.479075e-01 4.897550e-01
<VARIANCE> 25
 2.194842e+01 9.959069e+00 1.198180e+01 9.655056e+00 1.248306e+01 2.036137e+01 2.540227e+01 2.024929e+01 3.345467e+01 2.104097e+01 3.269517e+01 2.263490e+01 2.998983e+00 2.038098e+00 1.263722e+00 1.797095e+00 2.396681e+00 2.276842e+00 1.974118e+00 2.232671e+00 5.509990e+00 4.056226e+00 3.395106e+00 1.774060e+00 3.463824e-01
<GCONST> 9.068227e+01
<MIXTURE> 5 2.949379e-02
<MEAN> 25
 -8.851854e+00 9.112232e+00 -7.599822e-02 5.777202e+00 -2.363580e+00 2.784584e+00 1.570456e+00 -1.128191e+01 -9.730763e-01 -1.202541e+01 -2.210186e+00 -4.939108e-01 4.829057e-01 1.329784e-03 -5.473805e-01 4.916452e-01 9.873445e-02 5.205783e-01 7.632796e-01 8.527961e-01 2.017844e-01 3.917694e-01 6.833559e-02 5.404666e-02 -2.169771e-01
<VARIANCE> 25
 3.862366e+00 2.630898e+00 1.299170e+01 5.573856e+00 3.327438e+00 1.716332e+01 8.901679e+00 1.262389e+01 6.473003e+00 3.371931e+01 1.865686e+01 6.975298e+00 1.948355e-01 5.366554e-01 1.330070e+00 8.813185e-01 1.134108e+00 1.437312e+00 2.296322e+00 8.754157e-01 1.321504e+00 6.784011e+00 3.507243e+00 9.506502e-01 8.504320e-02
<GCONST> 7.158978e+01
<MIXTURE> 6 4.392131e-02
<MEAN> 25
 6.296520e-01 -1.443112e+00 -3.018411e+00 -8.229589e+00 -6.688268e+00 -6.374747e+00 -4.000843e+00 -5.542155e+00 -2.005405e+00 -1.628605e+00 -5.744731e+00 -3.911278e+00 -2.329784e-01 3.941285e-01 4.040955e-01 5.905506e-01 4.432450e-01 1.754119e-01 -2.787057e-01 -7.637654e-02 -3.487489e-01 -1.948458e-01 2.544163e-01 -2.844605e-01 -1.810604e-01
<VARIANCE> 25
 5.134189e+00 4.965056e+00 1.059018e+01 1.436855e+01 1.186858e+01 2.075688e+01 1.302949e+01 2.109235e+01 1.958370e+01 7.553227e+00 6.125191e+00 1.099199e+01 8.690467e-01 1.011678e+00 2.553097e+00 2.586826e+00 1.121757e+00 8.889188e-01 1.773321e+00 1.461440e+00 2.977667e+00 1.310408e+00 4.809918e-01 1.251569e+00 5.956617e-02
<GCONST> 7.528112e+01
<MIXTURE> 7 1.188490e-01
<MEAN> 25
 -1.752140e-01 2.677489e+00 1.945436e+00 -2.688492e+00 -2.841625e+00 -3.540215e+00 -5.531396e+00 -3.884689e+00 -9.160879e+00 -6.080025e+00 -3.068191e+00 -1.167272e+00 2.068891e-02 2.529660e-01 -1.001352e-01 7.213008e-02 4.428382e-02 -2.610081e-01 -5.557169e-01 -6.919862e-01 -3.126724e-01 -1.451854e-01 -4.510498e-02 9.389897e-02 -7.525787e-02
<VARIANCE> 25
 2.525868e+00 3.320241e+00 7.076118e+00 1.143341e+01 1.313730e+01 1.687480e+01 2.245187e+01 1.341012e+01 1.780009e+01 1.362103e+01 1.115429e+01 1.127600e+01 3.102063e-01 4.400782e-01 4.612158e-01 9.389648e-01 1.097363e+00 1.878797e+00 1.600807e+00 8.787984e-01 1.678192e+00 2.090326e+00 1.838445e+00 2.413866e+00 3.215547e-02
<GCONST> 7.144547e+01
<MIXTURE> 8 1.340547e-02
<MEAN> 25
 4.404369e+00 -1.486420e+00 -4.180412e+00 -6.153378e+00 9.687082e-01 -1.406888e+00 -9.312965e+00 -8.413133e+00 -1.649949e+01 -6.224926e+00 8.958505e-01 -7.624464e+00 5.917205e-01 -1.325954e-01 -4.935862e-01 -1.053879e+00 6.772423e-01 4.348165e-01 8.275197e-03 1.301493e+00 2.567227e+00 1.072028e+00 4.995448e-01 1.602481e-01 -1.017220e-01
<VARIANCE> 25
 2.493565e+00 1.261377e+01 3.078268e+00 4.366164e+00 1.695745e+00 1.760286e+00 2.406615e+01 1.146963e+01 5.077222e+01 3.780139e+00 2.956479e+01 3.531223e+00 1.414409e+00 4.044290e-01 1.093369e+00 3.252085e-01 4.243430e-01 3.254909e-01 5.867366e+00 3.682419e+00 7.835238e+00 1.323827e+00 2.117076e+00 4.381366e+00 1.356933e-01
<GCONST> 7.068306e+01
<TRANSP> 3
 0.000000e+00 1.000000e+00 0.000000e+00
 0.000000e+00 9.892771e-01 1.072290e-02
 0.000000e+00 0.000000e+00 0.000000e+00
<ENDHMM>
~o
<STREAMINFO> 1 25
<VECSIZE> 25<NULLD><MFCC_E_D_N_Z><DIAGC>
~h "entrance_unlock"
<BEGINHMM>
<NUMSTATES> 3
<STATE> 2
<NUMMIXES> 8
<MIXTURE> 1 2.278474e-01
<MEAN> 25
 -2.227172e-01 4.872840e-01 5.850276e-01 2.456209e+00 9.136575e-01 1.812548e+00 2.783907e+00 2.841879e+00 1.869284e+00 5.792924e-01 8.630582e-01 1.553973e+00 5.338314e-03 6.862868e-02 9.674111e-02 1.305130e-01 1.587676e-02 -1.951346e-02 9.727436e-02 -9.973756e-03 8.369523e-02 5.615924e-02 -1.028834e-02 7.080066e-02 1.998573e-02
<VARIANCE> 25
 2.135584e+00 4.452279e+00 5.359886e+00 1.094103e+01 1.190471e+01 1.006850e+01 1.490441e+01 2.151665e+01 1.839666e+01 1.907643e+01 1.576977e+01 1.574231e+01 1.676512e-01 2.881199e-01 4.805088e-01 7.758774e-01 1.030439e+00 1.180430e+00 1.948684e+00 1.830797e+00 2.114439e+00 2.003506e+00 1.564562e+00 1.602926e+00 7.078168e-03
<GCONST> 6.906569e+01
<MIXTURE> 2 1.938649e-01
<MEAN> 25
 -4.716502e+00 -1.773375e+00 -3.587345e-01 -8.918478e-01 2.071576e+00 8.702126e-01 -2.607544e-02 -1.902286e-02 4.744986e-01 -1.869272e-01 -1.136701e+00 2.609114e-01 -5.554558e-02 -7.486171e-02 -7.984069e-04 4.163436e-03 2.875027e-02 8.874480e-02 -5.668838e-02 5.251104e-02 1.442834e-02 3.180442e-03 5.133411e-02 3.235410e-02 -4.499170e-03
<VARIANCE> 25
 2.157150e+00 2.812410e+00 5.929449e+00 7.871892e+00 9.773647e+00 1.130321e+01 1.455271e+01 1.772047e+01 1.885867e+01 1.469250e+01 1.610253e+01 1.361680e+01 1.949599e-01 3.340145e-01 4.935892e-01 8.969998e-01 1.064039e+00 1.245009e+00 1.638867e+00 2.101163e+00 1.676421e+00 1.752319e+00 1.600610e+00 1.398137e+00 9.174114e-03
<GCONST> 6.802804e+01
<MIXTURE> 3 5.922671e-02
<MEAN> 25
 -3.937234e+00 -3.492918e+00 -3.767178e+00 -5.672476e+00 4.736394e-01 -2.964562e+00 -1.509273e+00 2.370888e+00 2.482413e+00 3.217703e+00 2.144133e+00 7.344631e-01 1.787803e-01 -2.043333e-01 -1.333737e-01 -8.463623e-02 4.505387e-02 -1.262287e-01 -1.084803e-01 -4.760211e-02 -3.216382e-01 -1.379071e-01 -8.276026e-02 -2.449813e-01 -1.466872e-02
<VARIANCE> 25
 7.646201e+00 2.723850e+01 1.585240e+01 1.173545e+01 1.885305e+01 1.556110e+01 2.089453e+01 1.906782e+01 1.762543e+01 1.321037e+01 2.398849e+01 2.216445e+01 5.365769e-01 1.349427e+00 6.578217e-01 8.759085e-01 1.786797e+00 1.913784e+00 2.287977e+00 1.992508e+00 1.831550e+00 1.211556e+00 2.390040e+00 2.152519e+00 1.337740e-01
<GCONST> 8.220285e+01
<MIXTURE> 4 1.156952e-01
<MEAN> 25
 1.126593e+00 7.918901e-01 1.124568e+00 -1.550226e+00 -3.018704e+00 -1.303995e+00 -1.432104e+00 -2.140882e+00 -3.444484e+00 -1.921491e+00 -2.043959e+00 -9.329652e-01 -1.537420e-02 1.407166e-01 3.092485e-01 3.193218e-01 -2.357353e-01 -5.920365e-01 -9.627239e-01 -1.133538e+00 -6.658983e-01 -4.865670e-01 -6.072260e-02 2.254270e-01 -1.832688e-02
<VARIANCE> 25
 3.730270e+00 3.500205e+00 5.661946e+00 1.408727e+01 1.040439e+01 1.695981e+01 1.561141e+01 1.426380e+01 1.815614e+01 1.719698e+01 1.392185e+01 1.597509e+01 2.450555e-01 3.855520e-01 4.767191e-01 8.758805e-01 1.121895e+00 1.284654e+00 1.517034e+00 1.162306e+00 1.301605e+00 1.947863e+00 1.445098e+00 1.472654e+00 1.129342e-02
<GCONST> 6.952431e+01
<MIXTURE> 5 1.872987e-01
<MEAN> 25
 7.505298e-01 5.422316e-01 1.413153e+00 -6.613796e-01 -3.148510e+00 -1.529876e+00 -1.377213e+00 -1.429531e+00 -1.552086e+00 -5.464469e-01 -5.804044e-01 1.522382e-01 -9.709305e-02 -1.441652e-01 -2.482089e-01 -9.064134e-02 2.932537e-01 4.167241e-01 6.871468e-01 5.826125e-01 2.809695e-01 2.904743e-01 6.101583e-02 -3.004764e-02 -3.770107e-02
<VARIANCE> 25
 3.411431e+00 5.251852e+00 6.064294e+00 1.410539e+01 1.255563e+01 1.069354e+01 1.363830e+01 1.922342e+01 1.627339e+01 1.814115e+01 1.231170e+01 1.321599e+01 1.104695e-01 2.393454e-01 4.544501e-01 9.074104e-01 9.188204e-01 1.235111e+00 1.301671e+00 1.332261e+00 1.523626e+00 1.613966e+00 1.490543e+00 1.670262e+00 4.984437e-03
<GCONST> 6.719893e+01
<MIXTURE> 6 6.196457e-02
<MEAN> 25
 -3.925038e-01 -1.696551e+00 -3.140211e+00 -6.718786e+00 -4.038043e+00 -4.778698e+00 -5.547739e+00 -4.105054e+00 -3.930723e+00 -7.319406e-01 -2.033620e+00 -1.746731e+00 1.022421e-01 3.777432e-01 4.645879e-01 4.720340e-01 3.606128e-01 4.249960e-01 4.991888e-01 4.106661e-01 3.121463e-01 4.731414e-02 -8.120659e-02 1.342956e-01 -2.126044e-01
<VARIANCE> 25
 1.104291e+01 5.422841e+00 7.144405e+00 1.101916e+01 2.838351e+01 1.951218e+01 1.183495e+01 1.483345e+01 2.862822e+01 2.343058e+01 1.860762e+01 1.560684e+01 5.810928e-01 6.023632e-01 1.125153e+00 1.144298e+00 1.270455e+00 1.494688e+00 2.151693e+00 1.771445e+00 3.222205e+00 1.862807e+00 1.958743e+00 1.553403e+00 4.977381e-02
<GCONST> 7.915675e+01
<MIXTURE> 7 7.431918e-02
<MEAN> 25
 -2.405405e+00 1.046153e+00 2.191143e-01 -6.566693e-01 7.418527e-01 -2.470592e-03 7.261872e-01 -1.989963e+00 -3.865545e-01 -1.182133e+00 -5.781540e-01 -5.861245e-01 1.457548e-01 -2.879588e-01 -4.984558e-01 -1.030057e+00 -9.362672e-01 -1.208776e+00 -7.045228e-01 -6.418040e-01 -3.331169e-01 -1.724711e-01 -2.420974e-01 -2.129228e-01 4.487504e-01
<VARIANCE> 25
 2.260342e+01 1.874831e+01 1.094819e+01 2.022806e+01 2.130122e+01 2.988314e+01 2.577653e+01 4.939707e+01 3.603028e+01 3.917634e+01 2.732181e+01 1.970846e+01 2.081542e+00 1.344152e+00 1.194381e+00 1.729853e+00 2.458578e+00 2.413294e+00 2.944353e+00 3.606056e+00 4.010213e+00 3.259285e+00 2.530714e+00 2.551908e+00 3.268330e-01
<GCONST> 9.375797e+01
<MIXTURE> 8 7.978326e-02
<MEAN> 25
 -8.213823e-01 1.213675e+00 1.569152e+00 -2.621430e+00 -3.501438e+00 -6.372525e+00 -7.536951e+00 -6.027446e+00 -6.789091e+00 -4.598106e+00 -3.002397e+00 -1.013611e+00 -5.410480e-02 -1.101503e-01 -1.303336e-01 -1.023234e-01 1.567684e-01 3.937735e-01 1.596351e-01 4.090658e-01 3.073935e-01 -6.253051e-02 9.148887e-02 -1.621953e-01 -1.298180e-01
<VARIANCE> 25
 4.580245e+00 6.001667e+00 8.871422e+00 1.140616e+01 1.292685e+01 1.890812e+01 1.603989e+01 1.956813e+01 2.263986e+01 1.646109e+01 1.326329e+01 1.648769e+01 3.637813e-01 4.409429e-01 5.984881e-01 1.220823e+00 1.195318e+00 1.319414e+00 1.987435e+00 1.973836e+00 1.729792e+00 1.879951e+00 1.680055e+00 2.050951e+00 3.691969e-02
<GCONST> 7.522983e+01
<TRANSP> 3
 0.000000e+00 1.000000e+00 0.000000e+00
 0.000000e+00 9.932284e-01 6.771602e-03
 0.000000e+00 0.000000e+00 0.000000e+00
<ENDHMM>
~o
<STREAMINFO> 1 25
<VECSIZE> 25<NULLD><MFCC_E_D_N_Z><DIAGC>
~h "entrance_unlock"
<BEGINHMM>
<NUMSTATES> 3
<STATE> 2
<NUMMIXES> 8
<MIXTURE> 1 1.940062e-01
<MEAN> 25
 -7.289625e-02 -8.584630e-02 1.771230e-01 1.758600e+00 5.688281e-01 2.063009e+00 3.192499e+00 5.280480e+00 3.885676e+00 2.013256e+00 1.591177e+00 1.448449e+00 -6.383247e-03 1.681896e-01 1.980967e-01 1.437409e-01 1.289297e-01 3.711969e-01 4.234129e-01 2.706729e-01 1.383398e-01 1.871738e-01 1.778186e-01 1.378420e-01 2.305852e-02
<VARIANCE> 25
 1.227828e+00 3.907852e+00 3.833818e+00 1.175882e+01 1.061621e+01 1.096532e+01 1.760234e+01 1.592464e+01 1.443775e+01 2.017793e+01 1.599582e+01 1.650258e+01 1.792136e-01 2.410978e-01 4.689251e-01 9.127993e-01 9.802306e-01 1.166286e+00 2.597033e+00 1.914008e+00 1.964607e+00 1.644271e+00 1.680949e+00 1.876825e+00 7.105686e-03
<GCONST> 6.808875e+01
<MIXTURE> 2 3.838295e-01
<MEAN> 25
 5.292153e-01 2.295609e-01 1.386145e+00 3.017777e+00 -1.038331e+00 6.706076e-01 5.811839e-01 -5.932259e-01 -9.966366e-01 -1.012666e+00 6.365582e-02 2.125305e+00 1.250782e-02 -2.183971e-02 -5.331684e-02 8.663666e-02 -2.213556e-02 -1.674243e-01 -6.017501e-02 -2.505566e-02 3.514695e-02 9.178309e-02 -2.465625e-02 -2.611427e-02 -5.880285e-03
<VARIANCE> 25
 1.264253e+00 3.093273e+00 4.519965e+00 7.680995e+00 1.040293e+01 1.193204e+01 1.283231e+01 1.415659e+01 1.476962e+01 1.093090e+01 1.104684e+01 9.901164e+00 1.360947e-01 2.283843e-01 4.886016e-01 7.080898e-01 8.228639e-01 1.201304e+00 1.871766e+00 1.955567e+00 1.988695e+00 2.199712e+00 1.532702e+00 1.343355e+00 5.127917e-03
<GCONST> 6.433876e+01
<MIXTURE> 3 6.170353e-02
<MEAN> 25
 1.759580e+00 -4.525110e-01 5.287237e-01 -3.346011e+00 -2.438475e+00 -1.185450e+00 -2.959159e-01 4.399424e-01 -1.573377e+00 -2.562647e+00 -3.572305e+00 -3.739784e+00 7.977904e-02 -3.334391e-01 4.362719e-03 -1.834484e-01 -7.172248e-01 -1.159400e+00 -1.311918e+00 -6.902392e-01 -7.030874e-01 -1.075800e+00 -7.984099e-01 -1.830558e-01 1.002010e-01
<VARIANCE> 25
 1.915205e+00 4.234118e+00 5.620432e+00 1.000051e+01 1.465427e+01 1.835165e+01 2.303203e+01 2.258641e+01 1.813497e+01 1.598375e+01 1.367610e+01 9.169970e+00 3.579506e-01 5.327991e-01 1.056302e+00 2.158279e+00 9.241912e-01 1.103201e+00 1.898088e+00 2.810905e+00 1.548518e+00 1.009929e+00 1.602994e+00 1.812903e+00 3.129354e-02
<GCONST> 7.332915e+01
<MIXTURE> 4 2.016468e-01
<MEAN> 25
 9.981219e-01 -6.551549e-01 1.938689e+00 -2.836436e+00 -5.218197e+00 -2.039074e+00 -2.016374e+00 -2.038723e+00 -2.408655e+00 -3.426864e+00 -2.812019e+00 -1.216643e+00 -1.948951e-02 4.688083e-02 -3.046196e-02 -9.020891e-02 1.940310e-01 4.307379e-01 3.468966e-01 2.191302e-01 1.460502e-01 7.830470e-02 1.664606e-01 1.845100e-01 -4.392238e-02
<VARIANCE> 25
 1.813716e+00 3.165817e+00 8.628771e+00 1.425283e+01 7.363438e+00 1.846838e+01 1.804504e+01 2.857485e+01 1.510711e+01 1.583281e+01 1.130395e+01 1.356487e+01 1.440732e-01 2.598123e-01 4.749215e-01 1.065374e+00 8.879453e-01 1.118707e+00 1.583470e+00 2.201327e+00 1.563880e+00 1.457279e+00 9.120544e-01 1.806421e+00 4.740686e-03
<GCONST> 6.742162e+01
<MIXTURE> 5 5.922905e-02
<MEAN> 25
 -7.226242e-01 3.525113e+00 9.487486e-01 -1.403794e-01 4.359672e+00 1.735121e+00 2.640475e+00 7.127153e+00 3.137242e+00 3.706937e+00 4.058106e+00 3.503179e+00 -4.924844e-01 -5.127501e-02 -5.633952e-02 -4.848030e-01 -4.974425e-01 -7.352615e-01 -1.010200e+00 -8.900293e-01 -1.613167e-01 -3.166980e-01 -5.966761e-01 -3.195291e-02 2.199439e-01
<VARIANCE> 25
 1.457819e+01 2.603971e+00 9.535699e+00 2.568178e+01 1.886923e+01 1.505144e+01 1.513615e+01 1.449792e+01 1.902386e+01 1.073197e+01 2.382855e+01 1.252318e+01 1.232870e+00 1.065220e+00 5.892900e-01 1.652361e+00 1.690604e+00 2.100032e+00 2.575224e+00 3.567414e+00 4.893434e+00 7.397285e-01 1.240854e+00 1.364668e+00 1.077060e-01
<GCONST> 8.045728e+01
<MIXTURE> 6 2.781500e-02
<MEAN> 25
 -5.782043e+00 -9.839385e+00 -8.816873e+00 -5.214002e+00 -2.111766e+00 -4.317880e+00 -1.474943e+00 1.259297e+00 3.146210e+00 3.099974e+00 6.471686e+00 1.659918e+00 1.066961e-01 -1.398489e+00 -6.244848e-01 -2.673087e-01 4.753308e-02 -9.345390e-01 -1.531926e-01 -7.155450e-03 -8.750415e-01 2.056831e-01 1.926600e-01 1.160218e-01 2.889653e-01
<VARIANCE> 25
 3.753543e+00 3.509411e+01 1.382503e+01 8.901168e+00 5.309321e+00 2.316583e+01 1.854202e+01 1.478790e+01 1.974104e+01 1.703929e+01 1.527118e+01 1.252752e+01 5.859147e-01 2.109364e+00 1.477375e+00 1.051886e+00 1.300660e+00 7.874742e-01 2.222579e+00 1.095867e+00 9.989113e-01 1.940510e+00 1.503671e+00 1.765914e+00 2.200805e-01
<GCONST> 7.882992e+01
<MIXTURE> 7 4.735329e-02
<MEAN> 25
 -3.145752e+00 -3.897095e+00 -1.909708e+00 -5.464769e+00 2.869774e+00 -3.217062e+00 -1.873066e+00 4.066363e+00 2.276119e+00 3.406801e+00 2.374279e+00 -7.586949e-01 7.090560e-01 4.343519e-01 1.809017e-01 -1.909009e-02 4.189853e-01 2.948824e-01 2.910593e-01 7.900572e-02 -5.817672e-02 1.523839e-01 1.072726e-01 -4.096590e-01 -3.745911e-01
<VARIANCE> 25
 7.371956e+00 8.527816e+00 4.336862e+00 6.070116e+00 1.576906e+01 1.112621e+01 1.207370e+01 1.167772e+01 2.049434e+01 1.000562e+01 1.476906e+01 2.568476e+01 1.938234e-01 3.951499e-01 2.922179e-01 4.922878e-01 1.707239e+00 1.577084e+00 1.354258e+00 1.845820e+00 1.490986e+00 1.335889e+00 2.624983e+00 2.755606e+00 8.024462e-03
<GCONST> 6.997711e+01
<MIXTURE> 8 2.441668e-02
<MEAN> 25
 -5.005178e+00 -1.073829e+00 -1.684988e-01 -8.394426e+00 3.874662e-01 -5.617006e+00 -6.920912e+00 -3.079814e+00 3.675370e+00 1.220921e+00 -3.942660e+00 -2.434304e+00 -4.690601e-01 -1.137169e+00 -6.559991e-01 -4.207444e-01 -8.156958e-01 -2.584092e-01 -4.284714e-01 -6.894141e-01 9.468018e-02 -6.867442e-01 -1.674504e-01 -9.659387e-01 4.072253e-01
<VARIANCE> 25
 5.502869e+00 1.023175e+01 1.006390e+01 8.003432e+00 1.181024e+01 1.163515e+01 8.731503e+00 6.181994e+01 3.781636e+01 1.108651e+01 5.472574e+00 1.442109e+01 7.794203e-01 9.045452e-01 1.163382e+00 1.712838e+00 1.032346e+00 2.276700e+00 4.490702e+00 8.211691e+00 4.419002e+00 1.241275e+00 1.806744e+00 2.158660e+00 1.986960e-01
<GCONST> 8.223677e+01
<TRANSP> 3
 0.000000e+00 1.000000e+00 0.000000e+00
 0.000000e+00 9.944645e-01 5.535554e-03
 0.000000e+00 0.000000e+00 0.000000e+00
<ENDHMM>
