~o
<STREAMINFO> 1 25
<VECSIZE> 25<NULLD><MFCC_E_D_N_Z><DIAGC>
~h "entrance_close"
<BEGINHMM>
<NUMSTATES> 3
<STATE> 2
<NUMMIXES> 8
<MIXTURE> 1 1.245070e-01
<MEAN> 25
 7.562032e+00 6.126253e+00 4.076687e+00 2.325066e+00 -1.641320e+00 1.614873e+00 -2.319614e-01 6.407632e-01 2.002071e+00 4.328891e+00 5.332609e+00 4.181468e+00 -1.239901e-01 -2.662114e-02 4.569413e-02 5.182991e-02 -6.226330e-03 1.353166e-02 8.957410e-03 -2.252014e-03 4.167854e-02 1.010614e-01 6.495637e-02 4.085288e-02 -3.979917e-02
<VARIANCE> 25
 8.072373e+00 4.287359e+00 5.433636e+00 9.138448e+00 8.996408e+00 1.161548e+01 8.487231e+00 8.278845e+00 9.383974e+00 1.079164e+01 9.145207e+00 7.008225e+00 1.579059e-01 2.076388e-01 4.811356e-01 6.114129e-01 8.193769e-01 7.753109e-01 9.043962e-01 9.675897e-01 9.916204e-01 1.089165e+00 8.641581e-01 7.102026e-01 7.806601e-02
<GCONST> 6.288582e+01
<MIXTURE> 2 8.257109e-02
<MEAN> 25
 4.592201e+00 3.967611e+00 4.568460e+00 3.539879e+00 2.468090e+00 4.608978e+00 2.128367e+00 1.823232e+00 2.743903e+00 1.216702e+00 3.976081e-01 5.926470e-01 -9.774458e-02 -1.298715e-01 -5.819036e-02 -6.764758e-02 1.220627e-02 5.267049e-02 5.208490e-02 6.721471e-02 -3.694997e-02 1.276229e-01 7.298079e-02 1.248474e-01 -4.890835e-02
<VARIANCE> 25
 7.452414e+00 6.692760e+00 6.236728e+00 7.147739e+00 1.007156e+01 1.261892e+01 9.357425e+00 1.187372e+01 1.040267e+01 9.244713e+00 1.109043e+01 8.194436e+00 3.519995e-01 4.497410e-01 5.751812e-01 7.702922e-01 8.247889e-01 9.687853e-01 1.038152e+00 1.209578e+00 9.982692e-01 1.110117e+00 1.326081e+00 9.177026e-01 5.565249e-02
<GCONST> 6.704136e+01
<MIXTURE> 3 9.521623e-02
<MEAN> 25
 1.253251e+01 4.109969e+00 2.332070e+00 7.955338e-01 2.718004e+00 1.642235e+00 -1.744706e+00 -1.204744e+00 -3.008089e-01 -2.313879e+00 -9.441841e-01 6.939155e-01 4.306145e-03 7.028055e-02 7.505728e-02 1.212070e-01 1.935366e-02 4.597170e-02 5.849365e-02 1.472949e-01 1.363941e-01 -6.331737e-03 7.402500e-02 4.595779e-03 -3.339640e-02
<VARIANCE> 25
 7.148499e+00 2.570989e+00 4.932547e+00 7.402038e+00 7.017393e+00 1.164360e+01 9.121189e+00 1.581045e+01 1.604788e+01 1.242281e+01 1.181950e+01 8.673153e+00 6.065376e-01 3.157741e-01 6.122581e-01 7.443557e-01 1.074993e+00 1.290961e+00 1.205574e+00 1.522534e+00 2.046888e+00 1.333251e+00 1.547042e+00 1.045439e+00 7.312316e-02
<GCONST> 6.912085e+01
<MIXTURE> 4 1.337761e-01
<MEAN> 25
 6.662543e-01 1.249855e+00 -7.931596e-02 -1.652304e-01 1.414696e+00 1.293497e-01 1.055800e+00 2.619770e+00 1.614342e+00 1.496676e+00 1.192273e+00 2.216757e+00 -6.741721e-02 -1.880304e-02 3.686605e-02 -1.761153e-02 5.872744e-02 3.043315e-02 8.067577e-02 8.596874e-02 4.426833e-03 -2.617459e-02 -4.559846e-02 -6.686103e-02 -3.226830e-02
<VARIANCE> 25
 1.576396e+01 9.707885e+00 5.222431e+00 6.816761e+00 1.026925e+01 9.066061e+00 1.322571e+01 1.271601e+01 1.120614e+01 1.018753e+01 1.207418e+01 9.891332e+00 3.230791e-01 3.155845e-01 4.555482e-01 7.038095e-01 8.310340e-01 1.008497e+00 1.082777e+00 1.342424e+00 1.375627e+00 1.134405e+00 1.249020e+00 1.021161e+00 2.200796e-02
<GCONST> 6.737766e+01
<MIXTURE> 5 1.086265e-01
<MEAN> 25
 5.575785e+00 7.499567e-01 3.038318e+00 -3.160020e+00 5.494415e-02 -9.014770e-01 -4.535594e-02 2.694594e-01 -4.020914e-01 -9.032895e-01 -2.290702e+00 4.251655e-01 1.371828e-01 -1.610686e-02 1.729084e-01 7.701185e-02 -5.737054e-03 5.185017e-02 -2.343776e-02 1.046549e-01 1.604903e-01 4.930638e-02 -4.753368e-02 2.728859e-02 -1.270013e-01
<VARIANCE> 25
 4.839187e+00 2.972183e+00 5.826781e+00 8.218896e+00 7.888586e+00 1.117788e+01 1.095787e+01 1.633353e+01 1.547562e+01 1.296499e+01 1.098414e+01 1.099405e+01 2.091699e-01 2.113585e-01 3.596492e-01 6.467003e-01 8.144482e-01 1.058751e+00 1.287345e+00 1.254121e+00 1.116373e+00 1.236971e+00 1.305983e+00 1.272817e+00 1.845637e-02
<GCONST> 6.483597e+01
<MIXTURE> 6 1.890859e-01
<MEAN> 25
 3.792166e+00 2.432622e+00 -9.060091e-01 -1.552542e+00 7.655317e-01 -5.412690e-01 -1.076588e+00 -8.584663e-01 -8.784637e-01 -1.535888e+00 -1.290675e+00 -3.771698e-01 1.808445e-01 3.712709e-01 1.670810e-01 2.386166e-01 2.294834e-01 2.652069e-01 2.222600e-01 -4.326649e-02 -6.238065e-03 -3.376581e-03 8.496197e-02 8.873258e-02 -7.465114e-02
<VARIANCE> 25
 3.318861e+01 1.350026e+01 1.830801e+01 1.728108e+01 1.963885e+01 3.006621e+01 3.038617e+01 3.172260e+01 2.448970e+01 2.374751e+01 2.119210e+01 1.603695e+01 2.447485e+00 1.374094e+00 1.669212e+00 2.040383e+00 2.625453e+00 2.625401e+00 3.668984e+00 3.410217e+00 2.481840e+00 2.549350e+00 2.198384e+00 1.755612e+00 2.433376e-01
<GCONST> 9.193256e+01
<MIXTURE> 7 1.875105e-01
<MEAN> 25
 1.632841e+00 -6.133006e-01 -3.340367e+00 -3.806811e+00 -1.776420e+00 -2.832023e+00 -2.688799e+00 -2.214993e+00 -2.287432e+00 -2.209443e+00 -3.209188e+00 -8.878570e-01 5.739181e-01 1.828970e-01 1.491117e-01 1.316528e-01 3.682633e-02 -6.910891e-02 4.178518e-02 1.805485e-01 1.719371e-01 3.082206e-02 1.183519e-01 1.335125e-01 -1.726231e-01
<VARIANCE> 25
 1.962702e+01 9.814953e+00 9.940421e+00 1.190905e+01 1.341385e+01 1.080997e+01 1.118319e+01 1.245225e+01 8.748880e+00 1.048435e+01 1.149081e+01 1.042102e+01 9.364357e-01 7.906364e-01 9.859614e-01 1.448497e+00 1.415815e+00 1.304456e+00 1.197549e+00 1.494894e+00 1.456303e+00 1.397728e+00 1.153468e+00 1.232679e+00 1.553327e-01
<GCONST> 7.565104e+01
<MIXTURE> 8 7.870688e-02
<MEAN> 25
 1.999929e-01 -4.784048e-02 -2.095752e+00 -2.360903e+00 1.001996e+00 1.780782e-01 -4.281729e-01 -1.132234e+00 -2.194633e+00 -2.248019e-01 -2.476787e+00 -4.241618e-01 -1.330284e+00 -8.756889e-01 -9.432952e-01 -9.468740e-01 -6.827509e-01 -4.981712e-01 -7.420098e-01 -9.581892e-01 -7.535889e-01 -3.484079e-01 -5.416961e-01 -5.335676e-01 1.057330e+00
<VARIANCE> 25
 3.452963e+01 1.139843e+01 1.411200e+01 2.267131e+01 2.547221e+01 1.600990e+01 2.122213e+01 3.105808e+01 2.388779e+01 1.769033e+01 1.699131e+01 1.365871e+01 5.287828e+00 1.036547e+00 1.223630e+00 2.597132e+00 2.852484e+00 1.848331e+00 1.959568e+00 2.579443e+00 2.517546e+00 2.132777e+00 2.062927e+00 1.481661e+00 3.888313e-01
<GCONST> 8.967920e+01
<TRANSP> 3
 0.000000e+00 1.000000e+00 0.000000e+00
 0.000000e+00 9.941670e-01 5.833037e-03
 0.000000e+00 0.000000e+00 0.000000e+00
<ENDHMM>
~o
<STREAMINFO> 1 25
<VECSIZE> 25<NULLD><MFCC_E_D_N_Z><DIAGC>
~h "entrance_lock"
<BEGINHMM>
<NUMSTATES> 3
<STATE> 2
<NUMMIXES> 8
<MIXTURE> 1 1.466210e-01
<MEAN> 25
 3.563873e+00 2.126401e+00 3.459260e+00 2.214395e+00 2.054138e+00 5.747287e+00 5.072265e+00 2.591900e+00 8.993865e-01 9.046718e-01 -5.321532e-01 -1.618570e+00 -5.675776e-02 1.176015e-02 6.500954e-02 1.536587e-01 -1.401971e-01 1.231659e-02 -7.803206e-02 2.073943e-02 -7.764966e-02 -3.984674e-02 7.297732e-02 -3.121274e-02 -6.614505e-02
<VARIANCE> 25
 8.662283e+00 4.467192e+00 8.349689e+00 1.624695e+01 1.326411e+01 1.139389e+01 1.219070e+01 1.174620e+01 1.263641e+01 1.125740e+01 1.341755e+01 1.186468e+01 1.436681e-01 2.900631e-01 3.978076e-01 7.639500e-01 8.555630e-01 8.880871e-01 1.334810e+00 9.759123e-01 1.409382e+00 1.271446e+00 1.184001e+00 9.113652e-01 4.582543e-02
<GCONST> 6.772015e+01
<MIXTURE> 2 1.990753e-01
<MEAN> 25
 1.354513e+00 1.378922e+00 1.860947e+00 1.022124e-01 3.392705e+00 1.503276e+00 1.043242e+00 1.098832e+00 1.154806e+00 1.415726e+00 5.465890e-01 1.544252e+00 -8.150151e-02 9.581767e-02 1.592558e-01 2.427149e-01 2.334249e-01 1.084542e-01 1.286767e-01 1.068906e-01 2.861346e-01 2.802786e-01 1.188378e-01 5.786705e-02 2.402555e-02
<VARIANCE> 25
 2.786569e+01 1.298435e+01 8.694474e+00 1.415239e+01 1.228706e+01 1.905917e+01 1.840291e+01 1.373791e+01 1.730721e+01 1.896831e+01 1.347844e+01 1.361350e+01 9.237876e-01 7.205738e-01 1.040341e+00 1.050898e+00 1.457905e+00 1.712511e+00 1.707149e+00 1.850438e+00 1.669766e+00 1.425147e+00 1.277547e+00 9.979067e-01 5.262862e-02
<GCONST> 7.855819e+01
<MIXTURE> 3 1.193086e-01
<MEAN> 25
 -1.890682e-01 -3.517889e+00 -2.139923e+00 -6.894442e+00 -1.871520e+00 -5.611912e+00 -2.066585e+00 -2.149499e+00 6.891067e-02 -5.878714e-01 -1.082338e+00 1.264559e+00 1.912463e-01 3.264120e-01 1.190195e-01 2.862861e-01 2.428003e-02 5.501395e-02 -2.331758e-02 -3.164976e-02 -1.942052e-01 -1.309403e-01 -7.870031e-02 -8.175011e-02 8.857401e-03
<VARIANCE> 25
 2.096244e+01 2.285448e+01 1.251512e+01 1.764906e+01 1.953733e+01 1.545237e+01 2.348676e+01 1.746188e+01 1.613503e+01 1.755227e+01 1.642629e+01 1.446651e+01 1.112202e+00 1.065941e+00 1.037300e+00 1.652558e+00 1.629533e+00 1.854853e+00 2.124010e+00 1.519477e+00 1.631858e+00 1.890935e+00 1.951691e+00 1.426069e+00 1.109909e-01
<GCONST> 8.329888e+01
<MIXTURE> 4 9.839385e-02
<MEAN> 25
 2.224342e+00 -2.914222e+00 -1.325521e+00 -6.752893e+00 -3.180659e+00 1.549099e+00 2.722499e+00 8.672755e-01 3.927302e-01 -4.054847e+00 -3.327816e+00 -2.949330e-01 2.462992e-02 5.060022e-02 3.177493e-01 2.273240e-01 2.185881e-01 1.927587e-01 -9.230408e-02 -5.234227e-03 -9.253611e-02 1.400429e-01 1.060562e-01 -9.151877e-02 -1.492004e-01
<VARIANCE> 25
 8.805735e+00 6.671417e+00 1.025863e+01 7.943041e+00 1.487487e+01 1.094759e+01 1.987706e+01 1.219977e+01 1.288815e+01 1.554226e+01 1.037035e+01 1.376520e+01 1.165692e-01 2.626671e-01 4.483834e-01 7.309902e-01 9.711717e-01 8.047140e-01 1.075075e+00 8.297495e-01 1.038997e+00 1.257142e+00 1.273474e+00 1.279840e+00 1.348904e-02
<GCONST> 6.675265e+01
<MIXTURE> 5 1.842714e-01
<MEAN> 25
 -8.006976e-01 -5.136703e+00 -1.571169e-01 -4.258421e+00 3.764579e+00 8.267412e-01 6.477033e+00 1.851260e+00 1.952032e+00 1.436878e+00 -1.882571e+00 -6.465960e-01 1.004190e+00 5.453200e-01 -7.158806e-02 -6.622548e-03 4.499769e-02 3.892956e-01 -5.565698e-02 -6.215880e-02 -6.042482e-02 -9.152133e-02 -2.419139e-02 1.915507e-01 -3.942342e-01
<VARIANCE> 25
 1.794102e+01 2.950355e+01 1.144793e+01 1.249520e+01 1.697694e+01 1.817280e+01 1.995653e+01 2.420327e+01 1.844362e+01 1.672437e+01 1.415736e+01 1.696903e+01 4.934302e-01 6.458952e-01 7.505728e-01 8.604759e-01 1.307523e+00 1.382455e+00 1.624979e+00 1.431476e+00 1.461238e+00 1.632927e+00 1.409196e+00 1.252146e+00 5.266791e-02
<GCONST> 7.865601e+01
<MIXTURE> 6 6.600249e-02
<MEAN> 25
 -3.238569e+00 -7.107209e+00 -7.434969e+00 -9.548663e+00 -4.705345e+00 -3.021205e+00 2.348728e+00 2.983921e-01 -9.416327e-01 -3.382655e+00 -4.595465e+00 -2.488039e-01 1.132990e+00 6.060447e-01 2.687324e-01 2.097964e-02 8.203895e-02 3.573219e-01 2.287124e-01 -1.548906e-01 1.302529e-01 -6.936231e-02 -1.500237e-02 1.510571e-01 -5.462540e-01
<VARIANCE> 25
 1.700840e+01 1.062536e+01 1.585238e+01 5.435637e+00 1.646526e+01 1.548997e+01 1.711564e+01 1.175330e+01 1.536557e+01 1.533429e+01 1.401753e+01 1.330952e+01 2.581863e-01 2.123013e-01 3.572165e-01 6.091814e-01 7.696126e-01 7.968879e-01 6.898482e-01 1.001782e+00 1.354637e+00 1.120723e+00 1.036886e+00 1.121655e+00 2.152064e-02
<GCONST> 6.857927e+01
<MIXTURE> 7 1.495204e-01
<MEAN> 25
 -2.716581e+00 -3.611873e+00 -1.596426e-01 -3.766213e+00 2.729780e+00 1.036988e+00 3.820530e+00 2.970711e+00 2.423656e+00 1.745356e+00 -2.675402e-01 -2.602693e-01 -1.682738e+00 -1.352485e+00 -3.389437e-01 -6.924416e-01 -3.654881e-01 -8.611092e-01 2.742393e-02 1.616199e-01 1.835552e-01 -1.258310e-01 -8.994536e-02 -1.453088e-01 8.182620e-01
<VARIANCE> 25
 2.748903e+01 3.506664e+01 1.687316e+01 2.150462e+01 2.211139e+01 2.374774e+01 2.159155e+01 2.272470e+01 2.044165e+01 1.789750e+01 1.546185e+01 1.693413e+01 1.927954e+00 3.059771e+00 2.185365e+00 2.426104e+00 2.223882e+00 2.382409e+00 2.494109e+00 2.423526e+00 1.994681e+00 2.041096e+00 1.926224e+00 1.776497e+00 2.966045e-01
<GCONST> 9.096944e+01
<MIXTURE> 8 3.680688e-02
<MEAN> 25
 -1.046973e+01 -1.295804e+01 -7.166559e+00 -6.417211e+00 -7.056015e+00 -3.180031e+00 4.043710e+00 3.776401e+00 3.487171e+00 -2.733198e+00 -2.756367e+00 -2.571194e+00 -4.798941e-02 2.139799e-01 -6.910923e-01 -3.837541e-01 -1.912091e-01 -3.078389e-01 -3.025950e-01 -4.957281e-01 -8.259248e-01 -4.401760e-01 -5.056663e-01 -3.096759e-01 1.712604e-01
<VARIANCE> 25
 2.445580e+00 6.167940e+00 1.361754e+01 7.782982e+00 1.248007e+01 1.739567e+01 1.816915e+01 1.721587e+01 2.251214e+01 1.182722e+01 1.066050e+01 1.015024e+01 3.096998e-01 8.917727e-01 6.758985e-01 7.853987e-01 1.211973e+00 1.484572e+00 1.591553e+00 1.475596e+00 2.032528e+00 1.417737e+00 1.190236e+00 1.496408e+00 7.707432e-02
<GCONST> 7.331203e+01
<TRANSP> 3
 0.000000e+00 1.000000e+00 0.000000e+00
 0.000000e+00 9.951735e-01 4.826563e-03
 0.000000e+00 0.000000e+00 0.000000e+00
<ENDHMM>
~o
<STREAMINFO> 1 25
<VECSIZE> 25<NULLD><MFCC_E_D_N_Z><DIAGC>
~h "entrance_lock_inside"
<BEGINHMM>
<NUMSTATES> 3
<STATE> 2
<NUMMIXES> 8
<MIXTURE> 1 2.610803e-01
<MEAN> 25
 4.983961e+00 5.965412e+00 3.807162e+00 -2.683518e+00 -1.793386e+00 -3.332844e+00 -5.691400e+00 -3.080866e+00 1.086329e+00 7.472522e-01 2.060162e+00 5.128920e+00 -3.066735e-01 -8.381723e-02 6.943283e-02 -4.109724e-03 -1.199925e-02 -1.264306e-01 -1.791417e-01 -1.782327e-02 7.701635e-02 2.619870e-01 6.102493e-02 9.391651e-02 -6.359520e-02
<VARIANCE> 25
 5.145144e+00 1.978272e+00 4.650936e+00 4.949203e+00 8.351983e+00 8.560688e+00 6.797477e+00 7.002312e+00 8.267090e+00 8.435501e+00 9.046393e+00 7.228426e+00 5.163183e-01 2.770146e-01 3.685658e-01 4.130905e-01 7.002203e-01 1.033307e+00 1.248437e+00 8.968057e-01 1.003428e+00 9.250725e-01 1.265556e+00 8.694447e-01 2.599982e-02
<GCONST> 6.029501e+01
<MIXTURE> 2 1.485502e-01
<MEAN> 25
 4.759514e+00 5.430383e+00 -1.209748e+00 -6.172954e+00 -2.822419e+00 -4.660049e+00 -4.333371e+00 -2.855056e+00 -3.537134e+00 -4.284555e+00 -1.727654e+00 7.064999e-01 -4.814377e-01 4.054126e-01 7.005007e-01 7.243613e-01 5.039170e-01 2.332882e-01 4.233211e-01 3.500319e-01 -3.160642e-01 -8.891562e-02 2.821285e-01 2.561474e-01 -7.650431e-02
<VARIANCE> 25
 6.245258e+00 2.418825e+00 4.600096e+00 5.363379e+00 5.053573e+00 1.079782e+01 1.269341e+01 1.151342e+01 6.247080e+00 6.160547e+00 8.873245e+00 1.155022e+01 3.868899e-01 7.132230e-01 4.955335e-01 4.542389e-01 7.993270e-01 1.177562e+00 1.607513e+00 1.133487e+00 1.370021e+00 1.461368e+00 1.733604e+00 8.672695e-01 1.305771e-02
<GCONST> 6.365600e+01
<MIXTURE> 3 7.611097e-02
<MEAN> 25
 5.886116e+00 4.292275e+00 1.471169e+00 -1.923448e+00 6.328624e-01 -4.050981e-01 2.122364e-01 -1.162991e+00 1.575430e+00 -2.592235e+00 8.442500e-01 2.470354e+00 3.835884e-01 3.722462e-01 6.924093e-01 3.718837e-01 -4.156734e-01 -4.084134e-01 -9.987893e-01 -1.795451e-01 2.646904e-01 5.201492e-01 1.899091e-01 -1.162581e-02 -4.988712e-02
<VARIANCE> 25
 9.163928e+00 8.323051e+00 9.152406e+00 6.913414e+00 4.604873e+00 5.314744e+00 9.906127e+00 4.027515e+00 6.115939e+00 7.768150e+00 1.439885e+01 1.508453e+01 8.661518e-01 3.809593e-01 3.217706e-01 6.438019e-01 1.203755e+00 9.578969e-01 2.237234e+00 6.791496e-01 5.958352e-01 1.264564e+00 1.291021e+00 1.582914e+00 3.910874e-02
<GCONST> 6.562231e+01
<MIXTURE> 4 1.273082e-01
<MEAN> 25
 -4.761093e+00 2.522384e+00 7.546871e-01 -4.075815e-01 4.572232e+00 -1.761886e+00 5.446264e-03 2.843220e+00 1.374750e+00 2.195349e+00 2.638050e+00 2.996532e+00 -4.043050e-02 -7.172079e-02 2.527724e-02 -3.958183e-02 -1.136633e-01 -1.100085e-01 -2.309624e-01 3.329822e-02 -2.263454e-02 1.616505e-02 8.435147e-02 2.020152e-02 3.637595e-02
<VARIANCE> 25
 5.933185e+00 3.973181e+00 3.816376e+00 5.431893e+00 7.346622e+00 1.087231e+01 1.146668e+01 1.584491e+01 7.937329e+00 1.176292e+01 1.165827e+01 1.194227e+01 1.875321e-01 2.614066e-01 4.206642e-01 8.203530e-01 7.021481e-01 1.625244e+00 1.227831e+00 1.783858e+00 1.515937e+00 1.933165e+00 1.665952e+00 1.050061e+00 1.354981e-02
<GCONST> 6.536373e+01
<MIXTURE> 5 5.287650e-02
<MEAN> 25
 5.348284e-01 -5.032714e+00 -8.537210e+00 -1.292262e+01 -8.567746e+00 -7.260262e+00 -1.587583e-01 -1.525356e+00 -3.473811e+00 -4.667701e+00 -4.682832e+00 -5.322027e+00 1.114695e+00 -7.475994e-01 -5.032956e-01 -9.589007e-01 -5.583009e-01 -6.428779e-01 -8.994266e-02 -7.769130e-01 -7.037733e-01 -1.217517e-01 8.380509e-01 1.428311e-01 -3.685376e-02
<VARIANCE> 25
 5.241342e+00 3.097895e+00 2.905983e+00 4.103218e+00 4.861580e+00 1.158116e+01 6.569664e+00 1.744181e+01 4.000478e+00 1.041311e+01 8.489996e+00 4.604494e+00 8.809508e-01 1.440940e+00 4.593595e-01 9.013286e-01 1.153559e+00 4.791044e-01 1.447003e+00 7.180085e-01 6.582977e-01 9.024876e-01 1.562649e+00 6.949444e-01 4.999650e-01
<GCONST> 6.505075e+01
<MIXTURE> 6 8.999471e-02
<MEAN> 25
 2.895142e-01 1.645013e+00 -1.826834e-01 -4.045286e+00 -1.619900e+00 -3.380431e+00 -3.765988e+00 -2.319431e-01 2.252548e+00 5.585966e-02 5.859161e-01 7.664215e-01 -4.800422e-01 -1.583146e+00 -1.572428e+00 -2.226785e+00 -2.081261e+00 -9.627706e-01 -2.335378e-01 -3.893594e-01 -4.689949e-01 -9.201313e-01 -1.072453e+00 -1.320775e+00 8.728161e-01
<VARIANCE> 25
 4.388579e+00 1.643231e+01 3.301193e+01 2.417781e+01 1.885792e+01 1.211957e+01 2.728375e+01 1.800367e+01 1.322841e+01 1.415430e+01 2.445734e+01 1.880516e+01 1.088454e+00 7.081288e-01 2.839642e+00 7.543336e-01 1.261710e+00 1.717759e+00 3.511680e+00 2.508726e+00 2.096259e+00 1.981182e+00 1.760613e+00 6.714836e-01 2.383024e-01
<GCONST> 8.350732e+01
<MIXTURE> 7 4.046747e-02
<MEAN> 25
 2.275387e+00 -2.423114e+00 -2.194887e+00 -4.886190e+00 -8.473386e-01 -5.129550e+00 -3.814976e+00 1.303449e-01 -1.859812e+00 -2.376034e+00 -4.635469e+00 -2.488260e+00 3.684193e-01 -1.406159e+00 -1.223746e+00 3.208425e-02 3.571196e-01 -1.681018e-01 1.195810e+00 5.223624e-01 -6.277551e-01 -4.421550e-01 -8.735009e-01 -7.798468e-01 2.522612e-02
<VARIANCE> 25
 5.755847e+00 4.419257e+00 4.778202e+00 1.379900e+01 1.132855e+01 1.687323e+00 5.339369e+00 5.530774e+00 1.485647e+01 1.536498e+01 5.239647e+00 1.307199e+01 8.349931e-01 1.267630e+00 7.907224e-01 2.811428e+00 3.222912e+00 7.595017e-01 1.632503e+00 1.214417e+00 6.059787e-01 9.033418e-01 8.364779e-01 5.212640e-01 6.067463e-01
<GCONST> 6.986796e+01
<MIXTURE> 8 2.036116e-01
<MEAN> 25
 5.978842e+00 -6.540092e-01 -5.508810e+00 -9.926028e+00 -5.782350e+00 -5.261127e+00 -5.477601e+00 -2.527653e+00 -2.535955e+00 -3.058864e+00 -1.850409e+00 -5.069488e-01 4.359422e-01 1.035436e+00 4.771818e-01 3.515257e-01 2.461981e-01 3.457138e-01 -3.833819e-01 -1.837940e-01 1.493227e-01 1.176917e-01 2.089605e-02 2.143033e-01 -3.427610e-01
<VARIANCE> 25
 3.538392e+00 8.818977e+00 5.994249e+00 9.219769e+00 9.795374e+00 1.432608e+01 1.279388e+01 8.156904e+00 1.311425e+01 1.251643e+01 9.305010e+00 1.520459e+01 5.694816e-01 4.533903e-01 2.614292e-01 9.777419e-01 1.112289e+00 8.815006e-01 1.221694e+00 1.470382e+00 1.706389e+00 1.185997e+00 1.094265e+00 1.111377e+00 3.146361e-02
<GCONST> 6.833401e+01
<TRANSP> 3
 0.000000e+00 1.000000e+00 0.000000e+00
 0.000000e+00 9.755102e-01 2.448976e-02
 0.000000e+00 0.000000e+00 0.000000e+00
<ENDHMM>
~o
<STREAMINFO> 1 25
<VECSIZE> 25<NULLD><MFCC_E_D_N_Z><DIAGC>
~h "entrance_open"
<BEGINHMM>
<NUMSTATES> 3
<STATE> 2
<NUMMIXES> 8
<MIXTURE> 1 2.490478e-03
<MEAN> 25
 6.568286e+00 4.073344e-01 -1.671427e+00 3.527891e+00 3.147420e+00 9.127232e-01 -4.330273e+00 2.927987e+00 1.585296e+00 -4.013641e-01 9.389520e-02 -4.108743e+00 -1.794098e-01 -3.499080e-01 6.757150e-01 -4.192410e-01 -2.384690e-01 1.311088e+00 6.946824e-01 -3.181683e-01 -4.119950e-01 -8.842524e-01 -1.231314e+00 5.842023e-01 1.359284e+01
<VARIANCE> 25
 1.589383e+00 3.834744e+00 1.155304e+01 6.725023e+00 3.919370e+00 6.619872e+00 1.674768e+01 6.273283e-01 2.464410e+00 1.201016e+01 1.352352e-01 1.434318e+00 4.265898e-01 3.798140e-01 1.673712e+00 8.214514e-01 8.899759e-01 3.365184e+00 3.085420e+00 1.028169e+00 2.096378e+00 3.067478e-01 1.544803e-01 3.080187e-01 2.500000e+18
<GCONST> 9.908856e+01
<MIXTURE> 2 2.199834e-01
<MEAN> 25
 2.741641e+00 -1.246758e+00 -1.925056e+00 -2.885983e+00 -2.582436e+00 -4.333334e+00 -2.638510e+00 -1.915951e+00 -1.209861e+00 -1.059921e+00 -7.684771e-01 -3.941408e-01 -3.968588e-02 1.112153e-01 1.010119e-01 3.637536e-01 2.608491e-01 3.422818e-01 2.342619e-01 2.958373e-01 2.917261e-01 1.839560e-01 -2.012790e-02 1.086849e-01 -1.063541e-01
<VARIANCE> 25
 1.295802e+01 1.301562e+01 9.460742e+00 1.194488e+01 1.304894e+01 1.302604e+01 1.699474e+01 1.454834e+01 1.499642e+01 1.207952e+01 1.044386e+01 1.049995e+01 4.613955e-01 6.126330e-01 5.781963e-01 8.103052e-01 8.473949e-01 1.117572e+00 1.555267e+00 1.505364e+00 1.435272e+00 1.224558e+00 1.086492e+00 1.014221e+00 5.098543e-02
<GCONST> 7.280437e+01
<MIXTURE> 3 1.432595e-01
<MEAN> 25
 2.213762e+00 7.939247e-01 9.836296e-01 2.391745e+00 1.651187e+00 1.179252e+00 1.767529e+00 1.046906e+00 3.431412e-01 2.666779e-01 -4.518887e-01 -1.091400e+00 -1.459921e-01 2.204538e-03 1.608252e-01 1.490799e-01 1.011277e-01 -2.926531e-03 -2.443762e-02 3.942595e-03 1.324487e-01 3.245789e-01 1.157077e-01 3.815662e-02 -1.114243e-02
<VARIANCE> 25
 9.257366e+00 4.497240e+00 4.234731e+00 6.028823e+00 1.046282e+01 1.182051e+01 1.300623e+01 9.252517e+00 1.075126e+01 1.272172e+01 8.731454e+00 1.314842e+01 2.207419e-01 2.929583e-01 3.244280e-01 5.807911e-01 6.721563e-01 9.817333e-01 1.296544e+00 1.534962e+00 1.499505e+00 1.551633e+00 1.070575e+00 1.004178e+00 1.627351e-02
<GCONST> 6.484881e+01
<MIXTURE> 4 1.268176e-01
<MEAN> 25
 4.856791e+00 -3.759725e+00 -4.402648e+00 -3.956670e+00 -6.585754e-01 -3.288411e+00 -7.569657e-01 -1.220431e+00 -5.072278e-01 4.390225e-01 -1.873957e+00 -1.640549e+00 4.988771e-02 -3.537181e-01 -3.777095e-01 -6.098770e-01 -2.444263e-01 -3.192844e-01 -3.869020e-01 -2.322384e-01 -1.348891e-01 5.110712e-02 1.891471e-02 -2.921246e-01 3.215274e-01
<VARIANCE> 25
 3.460110e+01 2.226451e+01 1.777679e+01 2.921826e+01 2.622260e+01 2.900839e+01 2.886734e+01 1.953423e+01 2.939326e+01 2.076474e+01 1.904296e+01 1.484043e+01 1.457184e+00 3.175447e+00 2.695844e+00 2.834128e+00 2.247372e+00 2.206460e+00 2.102406e+00 2.316122e+00 3.353565e+00 2.192491e+00 2.617615e+00 2.386959e+00 1.036501e+00
<GCONST> 9.448638e+01
<MIXTURE> 5 9.727018e-02
<MEAN> 25
 8.037798e+00 -1.355128e+00 -2.348865e+00 9.881507e-01 3.418602e+00 1.985262e-01 -2.324735e+00 1.498813e+00 3.912875e+00 5.206573e+00 -9.721743e-01 -3.601482e+00 -1.188581e-01 1.912341e-02 -7.854737e-03 -1.321826e-01 -1.593476e-01 6.999840e-02 1.097225e-01 2.107096e-01 1.415229e-01 4.082075e-02 1.783853e-01 2.111624e-02 -2.756471e-02
<VARIANCE> 25
 3.949485e+00 4.025455e+00 3.993037e+00 4.727360e+00 8.646766e+00 9.145880e+00 1.114071e+01 1.066369e+01 1.261940e+01 1.260236e+01 1.118151e+01 8.930747e+00 1.140409e-01 2.170652e-01 4.374559e-01 7.297996e-01 1.206857e+00 1.109620e+00 1.199156e+00 1.573135e+00 1.685305e+00 1.729240e+00 1.580262e+00 1.461102e+00 6.275444e-02
<GCONST> 6.569598e+01
<MIXTURE> 6 2.259566e-01
<MEAN> 25
 3.001166e+00 -4.525015e-01 -1.660586e+00 -1.646189e+00 -9.035274e-02 -2.862939e-01 1.483052e+00 3.837538e+00 3.286326e+00 1.797412e+00 1.668646e-01 -6.562775e-01 -7.137947e-02 4.147989e-02 -5.213813e-02 -7.927778e-02 -5.185320e-02 4.511375e-02 7.825345e-02 9.921248e-02 3.430768e-03 -1.756485e-01 -8.233622e-02 1.951550e-02 -3.119787e-02
<VARIANCE> 25
 9.382272e+00 4.544284e+00 5.062180e+00 6.272992e+00 8.467781e+00 7.480400e+00 1.269577e+01 1.511419e+01 9.755067e+00 1.237809e+01 1.086661e+01 9.197342e+00 1.347290e-01 1.973250e-01 3.309897e-01 6.022325e-01 5.785464e-01 8.599860e-01 1.206851e+00 1.158727e+00 1.214204e+00 1.189563e+00 9.132917e-01 8.310069e-01 9.957691e-03
<GCONST> 6.184099e+01
<MIXTURE> 7 1.668178e-01
<MEAN> 25
 2.830233e+00 -1.853442e+00 -2.965841e-01 -5.962773e-01 5.065572e-01 3.107472e-01 8.381675e-01 1.649030e+00 2.739211e+00 1.939355e+00 -1.337054e-01 -4.302635e-01 2.149806e-01 1.174823e-01 -1.193158e-03 6.010487e-02 -8.576423e-03 -2.342829e-01 -1.260626e-01 -2.835761e-01 -3.401898e-01 -3.425203e-01 -5.697903e-02 -2.977592e-02 -9.106821e-02
<VARIANCE> 25
 1.706888e+01 1.272291e+01 1.193807e+01 1.674262e+01 1.225379e+01 1.586683e+01 1.365443e+01 1.303750e+01 1.396564e+01 2.004955e+01 1.405745e+01 1.299894e+01 1.661084e+00 1.391097e+00 1.347456e+00 1.465402e+00 1.596376e+00 2.322785e+00 2.004253e+00 2.007008e+00 2.651175e+00 2.616946e+00 1.324813e+00 1.404471e+00 4.022433e-01
<GCONST> 8.378764e+01
<MIXTURE> 8 1.740448e-02
<MEAN> 25
 1.159039e+01 6.822091e+00 1.442675e+00 5.515964e+00 5.974232e+00 5.119729e+00 2.392391e+00 5.283928e+00 4.084562e+00 3.694457e+00 3.907354e+00 5.005311e+00 3.025829e-01 -2.491207e-01 -7.003061e-02 -2.421158e-02 9.674495e-02 -3.234606e-02 1.058341e-02 -3.083430e-01 -3.819704e-01 1.229523e-01 1.134202e-01 1.928616e-01 7.280811e-02
<VARIANCE> 25
 6.260954e+00 1.561987e+00 2.760150e+00 1.050167e+00 9.216408e-01 1.521043e+00 1.614472e+00 1.785522e+00 2.633535e+00 1.189049e+00 1.606778e+00 2.215436e+00 2.690220e+00 2.698877e+00 3.918118e+00 2.374178e+00 2.670063e+00 2.485925e+00 3.009551e+00 2.665643e+00 2.520223e+00 2.123997e+00 1.668344e+00 2.092152e+00 8.701691e-01
<GCONST> 6.407543e+01
<TRANSP> 3
 0.000000e+00 1.000000e+00 0.000000e+00
 0.000000e+00 9.906601e-01 9.339959e-03
 0.000000e+00 0.000000e+00 0.000000e+00
<ENDHMM>
~o
<STREAMINFO> 1 25
<VECSIZE> 25<NULLD><MFCC_E_D_N_Z><DIAGC>
~h "entrance_unlock"
<BEGINHMM>
<NUMSTATES> 3
<STATE> 2
<NUMMIXES> 8
<MIXTURE> 1 1.827419e-01
<MEAN> 25
 3.494666e+00 2.238671e+00 2.648645e+00 2.010983e+00 1.037005e+00 2.952987e+00 1.461113e+00 3.094357e-02 5.676950e-01 7.354658e-01 8.842666e-01 6.980421e-02 -6.475215e-02 -3.865933e-02 1.973465e-02 1.267340e-01 -6.908415e-02 5.196036e-02 -2.219171e-02 8.551592e-02 3.855026e-04 5.868225e-02 1.052013e-01 -2.282088e-02 -5.168778e-02
<VARIANCE> 25
 8.586191e+00 7.615120e+00 9.712893e+00 1.120891e+01 1.086543e+01 1.113147e+01 1.208209e+01 1.148565e+01 1.153266e+01 1.330080e+01 1.302925e+01 9.591174e+00 1.502410e-01 2.611391e-01 3.745627e-01 6.214080e-01 8.265535e-01 1.016944e+00 9.554067e-01 8.655141e-01 1.058809e+00 1.124713e+00 1.137157e+00 8.047269e-01 2.549770e-02
<GCONST> 6.576367e+01
<MIXTURE> 2 1.537722e-01
<MEAN> 25
 2.615060e+00 -7.262759e-01 -9.126672e-01 -4.583714e+00 -3.071059e-01 -1.475662e+00 1.208557e+00 -3.023169e-01 5.308576e-01 1.345493e-01 -1.118936e+00 3.378360e-02 4.194630e-01 3.478539e-01 1.263796e-01 2.195558e-01 -1.839865e-01 1.657220e-01 -3.629701e-01 -1.539468e-01 -8.037267e-02 -1.145884e-01 4.083311e-02 -4.616426e-03 -2.351408e-01
<VARIANCE> 25
 1.053688e+01 1.107911e+01 1.041015e+01 1.248871e+01 1.637343e+01 1.509360e+01 1.412134e+01 1.540696e+01 1.353153e+01 1.451313e+01 1.284702e+01 1.360267e+01 2.770157e-01 4.165015e-01 5.642380e-01 7.337519e-01 9.073352e-01 9.904939e-01 1.035949e+00 1.007707e+00 9.890714e-01 1.139684e+00 1.112108e+00 9.725475e-01 2.535505e-02
<GCONST> 7.032857e+01
<MIXTURE> 3 1.438610e-01
<MEAN> 25
 1.156373e+00 -6.713138e-01 -2.367289e+00 -5.946064e+00 -3.459907e+00 -5.047763e+00 -1.854776e+00 -2.789186e+00 -2.203710e+00 -1.479344e+00 -1.229481e+00 -4.054878e-01 -2.217992e-01 -1.748587e-02 2.202861e-01 1.392626e-01 1.487467e-01 5.171651e-02 1.999724e-01 1.334585e-01 7.243870e-02 9.948271e-03 9.351080e-02 2.733945e-03 4.136135e-02
<VARIANCE> 25
 1.813697e+01 1.153094e+01 8.959398e+00 1.376314e+01 1.278617e+01 1.799506e+01 1.630768e+01 1.698793e+01 1.722088e+01 1.750235e+01 1.317860e+01 1.108060e+01 5.673575e-01 6.489552e-01 8.097979e-01 1.252343e+00 1.235984e+00 1.445665e+00 1.867743e+00 1.803497e+00 1.747923e+00 1.797174e+00 1.616495e+00 1.188249e+00 6.309894e-02
<GCONST> 7.770358e+01
<MIXTURE> 4 1.606765e-01
<MEAN> 25
 4.007313e+00 2.813570e+00 1.639505e+00 -3.189040e-02 2.327769e+00 1.137210e+00 2.342319e+00 1.620357e+00 4.728614e-02 6.295448e-01 -3.254430e-01 4.701516e-02 -2.418053e-01 5.438527e-02 7.917684e-02 1.222784e-01 1.697487e-01 2.286054e-01 2.974460e-01 2.646314e-01 2.021741e-01 1.979612e-01 1.533378e-01 -8.135571e-02 1.174787e-01
<VARIANCE> 25
 1.732453e+01 1.198083e+01 9.728481e+00 1.593412e+01 1.805849e+01 1.576471e+01 1.966059e+01 1.601118e+01 1.478086e+01 1.635044e+01 1.502335e+01 1.327761e+01 1.901056e+00 1.403993e+00 1.269304e+00 1.574195e+00 2.026477e+00 2.008952e+00 1.795874e+00 1.697840e+00 1.911974e+00 1.905904e+00 1.702301e+00 1.567552e+00 1.159736e-01
<GCONST> 8.282536e+01
<MIXTURE> 5 1.062139e-01
<MEAN> 25
 -1.176790e+00 -4.644592e+00 -6.591160e+00 -9.598123e+00 -4.928504e+00 -6.399723e+00 -4.082692e-01 -1.678574e+00 -1.447200e+00 -1.547003e+00 -3.361860e+00 -1.042283e+00 1.072974e+00 5.207306e-01 1.800370e-01 1.206791e-01 2.302481e-01 3.266231e-01 -3.276812e-02 -1.904597e-01 1.392696e-01 9.034590e-02 6.847197e-02 2.439843e-01 -4.731429e-01
<VARIANCE> 25
 1.810951e+01 1.027805e+01 1.112339e+01 1.204568e+01 2.026313e+01 1.726828e+01 2.076365e+01 1.921304e+01 1.971964e+01 1.610863e+01 1.327227e+01 9.373260e+00 3.058232e-01 3.867065e-01 5.613397e-01 9.059001e-01 1.061743e+00 1.000064e+00 1.196015e+00 1.164512e+00 1.407640e+00 1.378040e+00 1.039351e+00 7.486083e-01 2.919018e-02
<GCONST> 7.296000e+01
<MIXTURE> 6 1.015810e-01
<MEAN> 25
 -3.987978e+00 -6.135397e+00 1.738631e-02 -6.634073e+00 2.831386e+00 -3.663832e+00 3.973292e+00 -2.192331e-01 1.057232e-01 2.533867e-01 -3.039820e+00 -6.948768e-01 1.044939e+00 4.532461e-01 6.983414e-02 2.510264e-01 2.256524e-01 2.596430e-01 3.913355e-02 -2.258018e-01 -2.191961e-01 -4.032816e-02 -4.045453e-01 9.657323e-02 -3.845451e-01
<VARIANCE> 25
 1.481810e+01 1.519817e+01 9.736125e+00 1.429446e+01 9.873944e+00 1.644239e+01 1.488099e+01 1.725904e+01 1.781446e+01 1.639538e+01 1.591683e+01 1.545491e+01 7.657973e-01 9.502803e-01 7.405311e-01 7.602894e-01 8.260693e-01 1.423524e+00 1.605264e+00 1.266071e+00 1.659929e+00 1.787423e+00 1.882526e+00 1.370400e+00 1.084242e-01
<GCONST> 7.791272e+01
<MIXTURE> 7 1.210199e-01
<MEAN> 25
 -3.893624e+00 -4.538501e+00 -2.387044e+00 -5.636880e+00 -4.732680e-01 -2.472052e+00 2.273757e+00 2.033095e+00 7.593158e-01 -1.620687e-01 -2.374100e-01 -1.428265e+00 -1.718716e+00 -1.219325e+00 -6.711438e-01 -1.052277e+00 -4.177079e-01 -1.314614e+00 -1.982357e-01 -9.988143e-02 -2.098146e-01 -1.853889e-01 -2.066612e-01 -2.012832e-01 9.608468e-01
<VARIANCE> 25
 2.507159e+01 3.137263e+01 2.264866e+01 2.341293e+01 2.824009e+01 2.336005e+01 1.994770e+01 2.388236e+01 2.218371e+01 1.883084e+01 1.711711e+01 1.519192e+01 1.556470e+00 2.923092e+00 1.747645e+00 2.610014e+00 2.253881e+00 2.594659e+00 2.332318e+00 2.505788e+00 2.478360e+00 2.295950e+00 1.571080e+00 1.858259e+00 2.957996e-01
<GCONST> 9.129803e+01
<MIXTURE> 8 3.013358e-02
<MEAN> 25
 -2.499461e+00 -1.287818e+01 -5.070193e+00 -3.900665e+00 -8.569493e-01 2.363326e-01 8.637138e+00 6.818507e+00 5.612086e+00 1.603245e+00 -4.030922e+00 -6.526432e-01 5.409468e-01 7.952646e-03 -4.805261e-01 -4.502608e-01 -2.792405e-01 3.384419e-01 1.168151e-01 3.291254e-02 7.807823e-02 -2.846504e-01 -2.511990e-01 1.623258e-01 -1.972024e-01
<VARIANCE> 25
 1.965644e+01 3.892245e+01 1.680144e+01 1.983873e+01 2.564283e+01 1.850270e+01 1.164605e+01 1.610354e+01 1.588025e+01 2.264163e+01 1.674997e+01 1.509857e+01 8.230072e-01 1.113745e+00 6.187173e-01 7.249539e-01 9.926913e-01 1.445958e+00 1.118715e+00 1.460983e+00 1.518900e+00 1.325806e+00 1.543393e+00 7.238684e-01 1.022812e-01
<GCONST> 7.970477e+01
<TRANSP> 3
 0.000000e+00 1.000000e+00 0.000000e+00
 0.000000e+00 9.963536e-01 3.646432e-03
 0.000000e+00 0.000000e+00 0.000000e+00
<ENDHMM>
~o
<STREAMINFO> 1 25
<VECSIZE> 25<NULLD><MFCC_E_D_N_Z><DIAGC>
~h "entrance_unlock_inside"
<BEGINHMM>
<NUMSTATES> 3
<STATE> 2
<NUMMIXES> 8
<MIXTURE> 1 1.465599e-01
<MEAN> 25
 -1.755128e-01 2.038850e+00 1.143810e+00 4.419185e+00 1.380736e+00 3.681068e+00 4.341384e+00 9.480320e-01 -7.566726e-01 -1.786425e-01 -8.318799e-01 -3.482908e+00 9.519070e-03 -3.546574e-02 1.500549e-04 -1.000383e-02 1.438643e-01 6.367408e-02 7.799138e-02 1.438452e-01 1.482029e-02 -2.594326e-01 -6.129652e-02 1.204354e-03 7.287197e-03
<VARIANCE> 25
 1.261505e+00 1.683033e+00 2.562957e+00 5.718728e+00 6.042360e+00 8.987276e+00 8.987596e+00 8.035805e+00 8.275072e+00 7.499878e+00 9.276693e+00 1.174413e+01 1.085190e-01 3.081896e-01 3.546902e-01 4.266130e-01 5.593952e-01 6.729492e-01 1.014983e+00 7.610753e-01 1.297734e+00 1.319849e+00 1.219338e+00 2.168519e+00 1.573599e-02
<GCONST> 5.731538e+01
<MIXTURE> 2 3.138945e-01
<MEAN> 25
 4.042200e+00 1.099771e+00 -1.448629e+00 -6.021178e+00 -5.354478e+00 -3.508874e+00 -2.628260e+00 -3.220391e+00 -1.522672e+00 -1.660959e+00 -1.859783e+00 -1.801049e+00 9.520773e-02 1.795249e-01 4.751360e-01 4.432334e-01 1.827928e-01 3.508129e-01 -1.780220e-01 1.087782e-02 9.153900e-02 -5.532018e-02 9.189884e-02 1.466973e-02 -2.455935e-01
<VARIANCE> 25
 2.862894e+00 4.188175e+00 7.756381e+00 8.053321e+00 8.350530e+00 1.390747e+01 1.360879e+01 1.418223e+01 1.402004e+01 1.338716e+01 1.187810e+01 1.183622e+01 2.364203e-01 3.445448e-01 4.563375e-01 6.603733e-01 1.070041e+00 9.736990e-01 8.802830e-01 1.719210e+00 1.623660e+00 1.139166e+00 9.368922e-01 1.180428e+00 2.334345e-02
<GCONST> 6.647021e+01
<MIXTURE> 3 1.048994e-01
<MEAN> 25
 -7.451221e-01 -5.497603e-01 -2.600362e+00 -3.138816e+00 -2.393029e+00 -1.152620e+00 -1.286256e-01 -2.350095e+00 9.355957e-01 5.120606e-01 2.436511e+00 2.776756e+00 2.145472e-01 -2.832480e-01 -2.236693e-01 1.395701e-01 9.444147e-03 -1.678128e-01 2.916068e-02 -3.885836e-02 7.733276e-02 -8.065662e-02 2.505916e-02 3.558645e-01 1.151696e-02
<VARIANCE> 25
 4.191749e+00 8.945023e+00 7.707131e+00 3.744415e+00 4.551362e+00 6.983957e+00 8.087707e+00 4.471608e+00 1.008197e+01 1.113604e+01 1.264093e+01 7.450960e+00 1.098894e-01 7.221750e-01 5.609259e-01 7.768232e-01 4.954327e-01 7.286809e-01 7.101004e-01 5.424247e-01 1.163371e+00 9.085454e-01 1.734703e+00 1.757197e+00 2.505824e-02
<GCONST> 6.139296e+01
<MIXTURE> 4 1.797029e-01
<MEAN> 25
 -1.480474e+00 -3.607990e+00 -6.048551e+00 -1.050137e+01 -8.083650e+00 -6.534791e+00 6.333676e-01 9.827646e-01 -1.477275e+00 2.071651e-01 -2.379591e+00 -1.354598e+00 1.399678e+00 5.204242e-01 2.362787e-01 5.793640e-03 1.577709e-01 -3.866734e-02 -5.463026e-02 -4.373131e-01 4.754764e-02 3.085298e-02 1.425439e-01 1.553838e-02 -6.425389e-01
<VARIANCE> 25
 9.875716e+00 4.555011e+00 5.779548e+00 6.345653e+00 4.917056e+00 7.684865e+00 9.075762e+00 9.395224e+00 1.314030e+01 1.273875e+01 1.016978e+01 1.190676e+01 1.898649e-01 5.719110e-01 4.200021e-01 1.341410e+00 5.755510e-01 8.117166e-01 7.659177e-01 1.023757e+00 1.259195e+00 6.430827e-01 9.776319e-01 1.004064e+00 3.096080e-02
<GCONST> 6.384713e+01
<MIXTURE> 5 1.555240e-01
<MEAN> 25
 -5.703489e+00 -3.440397e+00 -7.106460e+00 -6.240358e+00 -6.827937e+00 -4.506653e+00 1.289737e+00 -1.195332e+00 1.276354e+00 -1.460234e+00 -1.180976e+00 -1.395290e+00 -7.827753e-01 1.433648e-02 3.303345e-02 -3.660524e-01 -3.873725e-01 -4.317526e-01 -2.108926e-02 1.081275e+00 1.355621e-02 4.825197e-01 -4.588403e-01 -2.985449e-01 8.231574e-01
<VARIANCE> 25
 1.212861e+01 3.668119e+00 6.385567e+00 8.994620e+00 7.644833e+00 6.866708e+00 7.518490e+00 1.376093e+01 1.357745e+01 1.203472e+01 1.394576e+01 1.007496e+01 9.465270e-01 8.906915e-01 7.353817e-01 9.195626e-01 1.087561e+00 1.645898e+00 1.335674e+00 1.692125e+00 2.159512e+00 1.168452e+00 1.398924e+00 1.390433e+00 1.890798e-01
<GCONST> 7.319518e+01
<MIXTURE> 6 6.726373e-02
<MEAN> 25
 -1.747773e+00 -4.360120e+00 -3.951736e+00 -3.343777e+00 -3.067604e+00 -3.552926e+00 4.488330e-01 -2.583437e+00 6.347598e-01 -2.501094e+00 -1.629050e+00 -4.994375e-01 -1.891484e-01 -1.090181e+00 -1.403700e+00 -1.482571e+00 -1.864052e+00 -1.369267e+00 -5.529978e-01 -7.031502e-01 -1.060121e+00 -1.031722e+00 -1.105569e+00 -2.448253e-01 1.010310e+00
<VARIANCE> 25
 1.020054e+00 9.373557e+00 8.592897e+00 1.244725e+01 1.587763e+01 1.463347e+01 1.561683e+01 1.953449e+01 1.927498e+01 1.178385e+01 5.764746e+00 6.279125e+00 5.511416e-01 1.421515e+00 1.076722e+00 4.922593e-01 1.186698e+00 4.897729e-01 1.523760e+00 2.979969e+00 1.562887e+00 1.891916e+00 1.442434e+00 7.897296e-01 2.165094e-01
<GCONST> 7.283624e+01
<MIXTURE> 7 2.250928e-02
<MEAN> 25
 -8.353117e-01 -5.927974e+00 -7.985828e+00 -9.326547e+00 -8.581624e+00 -7.074103e+00 -1.404928e+00 -2.578235e+00 -3.174275e+00 -9.283942e+00 -7.997129e+00 -1.806665e+00 3.415079e-01 8.156911e-01 2.554328e-03 -5.249949e-01 -8.166606e-01 -1.275662e-01 -3.482339e-01 -1.629050e+00 -4.077475e-01 -1.482867e-01 6.202076e-01 -4.351861e-01 1.134617e-01
<VARIANCE> 25
 3.600422e+00 7.277719e+00 1.697444e+00 1.066648e+01 1.565754e+00 3.959892e+00 6.583015e+00 1.500939e+01 6.679604e+00 1.449102e+01 9.410096e+00 7.597069e+00 6.825752e-01 3.616886e-01 4.860672e-01 3.269397e-01 7.913179e-01 6.799065e-01 3.988602e-01 9.962776e-01 8.607916e-01 1.012582e+00 2.031847e+00 7.494013e-01 3.219136e-01
<GCONST> 6.173755e+01
<MIXTURE> 8 9.646326e-03
<MEAN> 25
 -2.185329e+00 -3.262649e+00 -7.061507e+00 -8.943018e+00 -1.535081e+01 -1.378334e+01 -4.908218e+00 -9.523046e+00 -4.883733e+00 -5.235337e+00 -2.086567e+00 -1.941626e+00 -8.118895e-01 -1.218753e-01 6.379243e-01 -7.257528e-01 -4.261166e-01 8.619270e-01 -3.023591e-01 1.541603e+00 -8.283154e-01 1.642849e+00 7.006233e-01 9.399829e-01 7.858364e-01
<VARIANCE> 25
 8.142643e+00 5.879873e+00 3.110135e+00 4.044019e+00 1.963455e+00 2.702136e+01 3.294630e+00 6.402727e-01 3.747972e+00 1.071016e+01 3.115758e+00 7.383813e+00 5.369447e-01 7.739021e-01 4.630335e-01 3.391882e-01 7.734984e-02 2.969709e-02 2.359576e+00 2.553418e-01 1.915117e+00 2.398253e+00 1.618139e+00 3.339244e-01 5.201177e-02
<GCONST> 5.253397e+01
<TRANSP> 3
 0.000000e+00 1.000000e+00 0.000000e+00
 0.000000e+00 9.678455e-01 3.215449e-02
 0.000000e+00 0.000000e+00 0.000000e+00
<ENDHMM>
~o
<STREAMINFO> 1 25
<VECSIZE> 25<NULLD><MFCC_E_D_N_Z><DIAGC>
~h "entrance_walking"
<BEGINHMM>
<NUMSTATES> 3
<STATE> 2
<NUMMIXES> 8
<MIXTURE> 1 2.122993e-01
<MEAN> 25
 -1.883029e+00 1.153413e+00 1.850617e+00 3.131585e+00 2.509124e+00 2.733237e+00 2.717690e+00 1.444246e+00 1.173996e-01 5.278096e-01 -1.178505e-01 -1.209641e+00 1.001487e-02 -8.481281e-02 -1.512134e-01 -2.413686e-01 -3.575290e-01 -3.962856e-01 -3.239059e-01 -3.111520e-01 -3.040677e-01 -2.747210e-01 -1.933655e-01 -6.492588e-02 -5.395952e-02
<VARIANCE> 25
 4.584785e+00 2.567632e+00 3.825098e+00 5.693853e+00 9.078392e+00 8.857533e+00 1.034113e+01 8.752049e+00 9.533999e+00 1.030493e+01 1.012245e+01 1.082487e+01 1.116987e-01 1.858706e-01 3.328677e-01 4.877370e-01 6.372292e-01 7.801303e-01 1.087100e+00 1.047833e+00 1.011013e+00 1.263884e+00 1.187160e+00 9.327325e-01 7.402281e-03
<GCONST> 5.885007e+01
<MIXTURE> 2 1.746180e-01
<MEAN> 25
 -1.993560e+00 1.240038e+00 1.748545e+00 3.219692e+00 2.672461e+00 2.335298e+00 2.417713e+00 1.570860e+00 1.140444e+00 1.939426e+00 1.196262e+00 -2.819336e-01 -5.754350e-02 4.012756e-02 2.184735e-01 3.368430e-01 4.747885e-01 5.847018e-01 5.974860e-01 4.243738e-01 3.091268e-01 3.093095e-01 2.280956e-01 -7.811689e-03 4.728107e-02
<VARIANCE> 25
 5.731076e+00 3.479500e+00 3.976528e+00 6.775267e+00 9.403191e+00 1.125707e+01 1.110533e+01 1.044674e+01 9.937884e+00 8.662827e+00 9.232124e+00 1.085538e+01 1.547614e-01 2.316176e-01 3.826799e-01 5.011835e-01 6.786033e-01 7.818747e-01 9.251881e-01 9.469805e-01 1.020998e+00 1.124670e+00 1.213960e+00 1.123001e+00 1.196059e-02
<GCONST> 6.098804e+01
<MIXTURE> 3 1.233763e-01
<MEAN> 25
 -2.905662e+00 -8.569976e-01 -1.795734e+00 -7.742348e-01 1.445831e+00 1.243361e-01 -8.156831e-01 -4.850864e-01 3.636036e-01 9.392522e-01 1.901053e+00 2.381218e+00 2.491756e-02 7.699055e-02 1.422382e-01 1.186708e-01 4.436724e-02 1.288076e-01 1.808651e-01 2.332701e-01 9.414521e-02 9.432416e-02 9.265792e-02 6.780133e-03 -4.983070e-02
<VARIANCE> 25
 1.060467e+01 6.125475e+00 6.840688e+00 9.735400e+00 1.055080e+01 1.575452e+01 1.377798e+01 1.532269e+01 1.128416e+01 1.417170e+01 9.507554e+00 9.168527e+00 2.392342e-01 3.885775e-01 7.335336e-01 8.190219e-01 9.213109e-01 1.223711e+00 1.154260e+00 1.444543e+00 1.243529e+00 1.550510e+00 1.261370e+00 1.310374e+00 2.897733e-02
<GCONST> 6.969147e+01
<MIXTURE> 4 1.263538e-01
<MEAN> 25
 -2.523383e+00 1.303596e+00 1.437377e+00 2.398788e+00 2.342804e+00 -7.078432e-02 -7.681353e-01 -1.702933e+00 -2.539052e+00 -2.688304e+00 -2.574881e+00 -1.387809e+00 -2.188310e-01 -7.087413e-02 4.877950e-02 2.070279e-01 2.704365e-01 3.637676e-01 3.019651e-01 2.500395e-01 2.368246e-01 1.931803e-01 8.016957e-02 1.520307e-02 -1.390348e-02
<VARIANCE> 25
 7.117774e+00 5.802130e+00 6.441164e+00 7.020194e+00 8.211672e+00 1.097523e+01 1.186815e+01 1.150161e+01 9.257322e+00 7.620889e+00 8.375173e+00 8.588467e+00 2.898493e-01 4.234707e-01 5.817359e-01 6.422970e-01 7.546349e-01 9.382288e-01 1.274541e+00 1.277679e+00 1.168672e+00 1.470619e+00 1.075433e+00 1.193952e+00 2.087829e-02
<GCONST> 6.541153e+01
<MIXTURE> 5 1.055808e-01
<MEAN> 25
 9.763162e-01 2.980079e+00 8.269767e-01 -1.343269e+00 -2.630436e+00 -5.014908e+00 -3.970963e+00 -2.922947e+00 -1.497947e+00 -8.813608e-02 -1.271565e-01 1.381537e+00 -5.837805e-01 6.526839e-02 4.310723e-01 6.663402e-01 5.914478e-01 4.674972e-01 4.092836e-01 2.931546e-01 1.609443e-01 2.433401e-01 1.997999e-01 7.025467e-02 -8.357248e-02
<VARIANCE> 25
 7.235844e+00 5.755810e+00 8.096932e+00 1.396468e+01 1.221703e+01 1.119899e+01 1.153421e+01 1.173625e+01 1.199181e+01 1.145128e+01 1.065549e+01 9.380220e+00 4.911009e-01 4.357607e-01 6.365569e-01 7.284362e-01 1.076546e+00 1.088036e+00 1.165475e+00 1.081129e+00 1.439514e+00 1.460816e+00 1.251049e+00 9.649994e-01 1.951793e-02
<GCONST> 6.883204e+01
<MIXTURE> 6 1.142216e-01
<MEAN> 25
 -4.105670e+00 1.244002e+00 1.499270e+00 3.201471e+00 3.487680e+00 3.776355e-01 9.627904e-01 1.360370e+00 7.195047e-01 1.710757e-01 9.903838e-02 2.035182e-01 3.183445e-01 1.211052e-02 -2.482983e-01 -4.388382e-01 -4.249330e-01 -5.700334e-01 -4.498332e-01 -3.175344e-01 -9.137531e-02 -1.147748e-01 1.227019e-02 2.239836e-03 7.124519e-02
<VARIANCE> 25
 1.241215e+01 9.003853e+00 9.739160e+00 9.420342e+00 1.125264e+01 1.597437e+01 1.906315e+01 1.549524e+01 1.303655e+01 1.521983e+01 1.343134e+01 1.304498e+01 1.593965e+00 1.346344e+00 1.266508e+00 1.397332e+00 1.710014e+00 1.942665e+00 1.995477e+00 2.008655e+00 1.631718e+00 1.900293e+00 1.729208e+00 1.419483e+00 1.710460e-01
<GCONST> 8.070563e+01
<MIXTURE> 7 8.414649e-02
<MEAN> 25
 3.325593e+00 3.847323e-02 -3.043786e+00 -3.585765e+00 -2.504727e+00 -7.097075e+00 -6.300346e+00 -4.644992e+00 -3.893189e+00 -4.082725e+00 -3.120452e+00 -3.472821e-01 -2.408960e-01 4.809716e-01 4.556642e-01 4.412830e-01 1.059033e-01 3.804722e-01 4.697539e-02 9.177034e-03 1.684350e-01 -1.317138e-02 -5.301470e-02 1.839742e-01 -1.992048e-01
<VARIANCE> 25
 1.064947e+01 2.007146e+01 1.592345e+01 1.602961e+01 1.510426e+01 1.928115e+01 1.745052e+01 1.717365e+01 1.396031e+01 1.468967e+01 1.364743e+01 1.351630e+01 6.742876e-01 1.312934e+00 9.545060e-01 1.137138e+00 1.187259e+00 1.553802e+00 1.767496e+00 1.528994e+00 1.378156e+00 1.473961e+00 1.059743e+00 1.138953e+00 9.664848e-02
<GCONST> 7.889842e+01
<MIXTURE> 8 5.940366e-02
<MEAN> 25
 1.436146e+00 -5.194684e-01 -1.987677e+00 -2.710987e+00 -1.610107e+00 -5.105026e+00 -3.149859e+00 -1.482243e+00 -1.051800e+00 -9.329536e-01 -6.648033e-01 -2.196653e-01 1.378036e+00 -6.315391e-01 -1.410906e+00 -1.784414e+00 -1.123046e+00 -1.718730e+00 -1.561829e+00 -1.152146e+00 -7.621716e-01 -6.245106e-01 -4.868172e-01 -1.126829e-02 4.325116e-01
<VARIANCE> 25
 1.454195e+01 2.282638e+01 2.204572e+01 2.670056e+01 1.743819e+01 2.958313e+01 2.331081e+01 2.567426e+01 1.983041e+01 1.690353e+01 1.624967e+01 1.520417e+01 1.227442e+00 1.984791e+00 1.983331e+00 2.036860e+00 1.800689e+00 2.181672e+00 2.355842e+00 2.082703e+00 1.911600e+00 1.711943e+00 1.846205e+00 2.032091e+00 1.770706e-01
<GCONST> 8.811636e+01
<TRANSP> 3
 0.000000e+00 1.000000e+00 0.000000e+00
 0.000000e+00 9.982630e-01 1.737002e-03
 0.000000e+00 0.000000e+00 0.000000e+00
<ENDHMM>
~o
<STREAMINFO> 1 25
<VECSIZE> 25<NULLD><MFCC_E_D_N_Z><DIAGC>
~h "outdoor"
<BEGINHMM>
<NUMSTATES> 3
<STATE> 2
<NUMMIXES> 8
<MIXTURE> 1 1.501338e-01
<MEAN> 25
 1.244110e+00 2.766384e-01 -6.370415e-01 5.798910e-01 1.230632e+00 1.592292e+00 2.491555e+00 3.540408e+00 2.364803e+00 1.962548e+00 1.575986e+00 1.208966e+00 -6.033821e-02 -2.438065e-02 4.953663e-02 7.608148e-02 7.534435e-02 1.420956e-03 2.180857e-02 -2.324802e-02 -6.441849e-02 -8.127769e-02 -6.373802e-02 -3.894170e-02 -2.776304e-02
<VARIANCE> 25
 9.218665e+00 8.195475e+00 5.723571e+00 8.350079e+00 9.089205e+00 8.797912e+00 9.931563e+00 1.069415e+01 1.084204e+01 1.060327e+01 1.079080e+01 1.122727e+01 2.471984e-01 3.523972e-01 4.677572e-01 7.907568e-01 7.060954e-01 8.371424e-01 1.047578e+00 1.288519e+00 1.428662e+00 1.314281e+00 1.162348e+00 1.139322e+00 2.158158e-02
<GCONST> 6.614130e+01
<MIXTURE> 2 2.037154e-01
<MEAN> 25
 6.115082e-01 -1.480088e+00 -1.664948e+00 -9.103691e-02 -1.804338e-01 -1.387479e+00 -1.514647e+00 -7.818356e-01 -5.477365e-01 -1.445319e+00 -2.592074e-01 5.902606e-01 3.853526e-02 -8.367799e-04 5.253978e-04 -1.595108e-01 -3.590604e-01 -4.875598e-01 -4.872831e-01 -4.395290e-01 -3.878016e-01 -1.782469e-01 3.373399e-02 7.531472e-02 -3.076307e-02
<VARIANCE> 25
 3.650177e+00 4.385535e+00 4.465015e+00 5.866748e+00 9.151419e+00 8.947822e+00 9.397626e+00 1.085850e+01 1.071080e+01 1.243470e+01 1.157848e+01 1.036965e+01 1.058679e-01 2.253146e-01 3.434294e-01 5.731669e-01 6.391518e-01 7.200142e-01 7.908142e-01 1.042431e+00 1.142425e+00 1.214570e+00 1.277221e+00 1.007337e+00 7.518354e-03
<GCONST> 6.005482e+01
<MIXTURE> 3 1.471602e-01
<MEAN> 25
 -3.055015e+00 -6.555950e-01 -2.810828e+00 -1.093466e+00 -3.327876e-01 -3.214077e+00 -3.123466e+00 -1.448733e+00 -8.615145e-01 -1.950407e+00 1.627516e-01 1.039354e+00 7.066102e-02 1.109528e-01 3.490975e-02 1.361579e-01 1.563333e-01 6.957384e-02 1.325473e-01 -1.052482e-01 -5.536101e-02 -5.847798e-03 -1.196297e-01 -1.123475e-01 -4.800642e-02
<VARIANCE> 25
 1.030216e+01 7.728354e+00 8.189179e+00 7.370866e+00 1.063135e+01 1.478527e+01 1.185619e+01 1.859744e+01 1.715627e+01 1.776613e+01 1.454201e+01 1.609948e+01 5.980836e-01 5.349617e-01 6.358163e-01 7.885187e-01 9.457561e-01 1.260883e+00 1.295537e+00 1.280348e+00 1.273749e+00 1.487238e+00 1.364851e+00 1.183346e+00 7.399429e-02
<GCONST> 7.341990e+01
<MIXTURE> 4 1.560933e-01
<MEAN> 25
 5.460570e-01 -1.326595e+00 -1.808728e+00 -2.996733e-01 -4.411281e-01 -1.512484e+00 -1.908325e+00 -1.278995e+00 -6.367279e-01 -7.380628e-01 5.229743e-01 9.787210e-01 -5.664419e-02 -3.029300e-02 3.933354e-02 3.000656e-01 5.023662e-01 7.390478e-01 7.591528e-01 6.733671e-01 5.580174e-01 3.758504e-01 9.544914e-02 7.344492e-02 -2.855634e-03
<VARIANCE> 25
 3.697339e+00 4.491842e+00 4.016651e+00 5.894942e+00 8.097070e+00 8.705091e+00 1.015455e+01 1.124528e+01 1.070718e+01 9.403475e+00 9.029243e+00 9.703129e+00 1.237292e-01 2.728823e-01 3.440937e-01 5.624040e-01 7.502301e-01 7.243682e-01 7.152702e-01 9.713246e-01 1.202213e+00 1.241014e+00 1.041559e+00 9.815187e-01 9.033507e-03
<GCONST> 5.971009e+01
<MIXTURE> 5 7.905829e-02
<MEAN> 25
 -1.537699e-01 -2.865473e+00 -5.722950e+00 -5.974420e+00 -4.221311e+00 -4.004027e+00 -8.813846e-01 5.335344e-01 2.124393e+00 6.200414e-01 3.973417e-01 1.674210e-01 1.670270e-01 9.480771e-02 1.341232e-01 1.458634e-01 4.700683e-02 3.208735e-02 1.089948e-02 2.232345e-01 1.097169e-01 1.494181e-01 2.200511e-01 1.421184e-01 -1.238788e-01
<VARIANCE> 25
 1.925190e+01 5.185897e+00 9.739414e+00 9.637201e+00 8.809309e+00 1.202461e+01 2.308115e+01 1.813340e+01 1.390917e+01 1.524884e+01 1.850651e+01 1.599914e+01 2.137084e-01 2.623537e-01 4.097276e-01 6.395744e-01 7.842188e-01 1.012106e+00 1.167262e+00 1.340218e+00 1.277668e+00 1.226860e+00 1.390384e+00 1.230022e+00 2.191432e-02
<GCONST> 7.000107e+01
<MIXTURE> 6 1.005215e-01
<MEAN> 25
 3.137695e+00 -2.127841e+00 -2.444998e+00 -5.208144e+00 -5.453819e+00 -6.049147e+00 -5.191603e+00 -3.507782e+00 -2.222776e+00 -3.123596e+00 -1.300154e+00 -7.337731e-01 4.375176e-03 6.594341e-02 8.817949e-02 1.443621e-01 9.994854e-02 1.506742e-01 8.687616e-02 1.060496e-01 1.036719e-01 6.020444e-02 2.923862e-02 8.587066e-02 -8.878964e-02
<VARIANCE> 25
 4.858551e+00 6.035212e+00 5.831934e+00 7.109946e+00 7.871250e+00 1.042381e+01 1.052625e+01 1.033845e+01 1.126193e+01 1.307580e+01 1.187799e+01 1.116219e+01 1.933692e-01 2.923256e-01 4.028519e-01 5.992233e-01 6.927413e-01 9.168123e-01 1.055955e+00 1.148381e+00 1.235741e+00 1.122150e+00 9.847112e-01 7.945805e-01 9.506622e-03
<GCONST> 6.289688e+01
<MIXTURE> 7 4.972094e-02
<MEAN> 25
 1.199972e+00 -4.434896e+00 -5.453526e+00 -1.039019e+01 -1.093638e+01 -1.018019e+01 -7.470678e+00 -4.911983e+00 -2.786849e+00 -3.947771e+00 -1.288971e+00 -1.075082e+00 2.876832e-01 1.047994e-01 2.798046e-01 2.087990e-01 1.908874e-01 3.284070e-02 -3.759576e-02 -1.200667e-01 7.519287e-03 1.973192e-02 1.211512e-01 8.235395e-03 -1.910326e-01
<VARIANCE> 25
 5.168306e+00 4.247547e+00 8.811823e+00 6.728126e+00 9.105716e+00 7.392776e+00 1.179862e+01 1.572626e+01 1.127085e+01 1.501495e+01 1.040282e+01 1.354421e+01 2.772148e-01 2.793303e-01 3.665307e-01 5.938159e-01 9.482294e-01 1.033260e+00 1.389841e+00 1.573990e+00 9.212302e-01 1.202829e+00 1.173197e+00 1.079109e+00 3.444840e-02
<GCONST> 6.627962e+01
<MIXTURE> 8 1.135967e-01
<MEAN> 25
 -1.199370e+00 -1.949254e+00 -3.620171e+00 -3.172928e+00 -1.830839e+00 -2.642244e+00 -2.610679e+00 -1.382006e+00 -8.407145e-01 -1.762398e+00 -8.498423e-01 -1.988907e-01 -3.207967e-01 -2.475922e-01 -4.214285e-01 -7.294677e-01 -5.488027e-01 -4.127138e-01 -4.688208e-01 -1.434965e-01 -1.292069e-01 -2.585661e-01 -1.567234e-01 -1.682376e-01 4.323160e-01
<VARIANCE> 25
 1.921733e+01 1.026964e+01 1.680951e+01 1.710565e+01 2.226062e+01 2.403146e+01 2.178956e+01 2.569996e+01 1.905324e+01 1.643054e+01 1.914538e+01 1.614371e+01 1.728060e+00 1.226940e+00 1.690171e+00 1.663458e+00 1.860915e+00 2.295222e+00 2.265026e+00 3.068845e+00 2.257127e+00 1.939604e+00 1.742906e+00 1.619695e+00 2.279526e-01
<GCONST> 8.719515e+01
<TRANSP> 3
 0.000000e+00 1.000000e+00 0.000000e+00
 0.000000e+00 9.959420e-01 4.058061e-03
 0.000000e+00 0.000000e+00 0.000000e+00
<ENDHMM>
~o
<STREAMINFO> 1 25
<VECSIZE> 25<NULLD><MFCC_E_D_N_Z><DIAGC>
~h "shoes_off"
<BEGINHMM>
<NUMSTATES> 3
<STATE> 2
<NUMMIXES> 8
<MIXTURE> 1 2.379125e-01
<MEAN> 25
 -4.322247e+00 9.769271e-01 2.536878e+00 3.085242e+00 4.213771e+00 9.066397e-01 2.431607e+00 2.978388e+00 1.348709e+00 8.417223e-02 -2.498277e-01 1.085190e+00 -5.580102e-02 2.391000e-02 9.441079e-02 1.697214e-01 1.714450e-01 3.028058e-01 2.776639e-01 1.212257e-01 1.484327e-01 1.066473e-01 1.134858e-01 6.914813e-02 7.109171e-03
<VARIANCE> 25
 4.021884e+00 3.396889e+00 4.665621e+00 6.342279e+00 7.881286e+00 8.447956e+00 1.083919e+01 9.977503e+00 1.069318e+01 1.077779e+01 1.002347e+01 1.056393e+01 1.430012e-01 2.751172e-01 4.764434e-01 5.487041e-01 8.027631e-01 9.560214e-01 1.090232e+00 1.064843e+00 1.287100e+00 1.213670e+00 1.138398e+00 1.024019e+00 1.077846e-02
<GCONST> 6.161705e+01
<MIXTURE> 2 1.488198e-01
<MEAN> 25
 -4.634116e+00 -2.547374e-01 1.077353e+00 1.957250e+00 2.919499e+00 -1.483312e+00 -5.187302e-01 9.065949e-01 3.525159e-01 -2.312185e+00 -1.935758e+00 1.882898e-01 2.653920e-04 -2.280758e-01 -3.723805e-01 -4.255143e-01 -5.100503e-01 -7.893990e-01 -6.499563e-01 -3.276258e-01 -2.566903e-01 -3.044716e-01 -3.259951e-01 -1.666556e-01 3.290741e-02
<VARIANCE> 25
 5.249486e+00 6.614328e+00 6.521552e+00 8.152913e+00 8.050450e+00 1.268352e+01 1.148241e+01 1.536351e+01 1.371817e+01 1.031032e+01 1.129193e+01 1.096555e+01 4.616527e-01 5.060197e-01 7.153617e-01 8.279241e-01 8.208166e-01 1.094968e+00 1.033557e+00 1.705615e+00 1.742534e+00 1.949438e+00 1.485712e+00 1.462869e+00 4.581598e-02
<GCONST> 7.043568e+01
<MIXTURE> 3 1.472626e-01
<MEAN> 25
 -4.133784e+00 4.706612e-01 9.079682e-01 -4.320175e-02 2.396001e+00 -6.647834e-01 2.265019e-01 7.785700e-01 3.473000e+00 4.738607e+00 3.952542e+00 4.348461e+00 1.927824e-02 -1.141303e-01 -3.152199e-01 -3.733279e-01 -3.283349e-01 -3.267482e-01 -2.728890e-01 -2.429984e-01 -7.186624e-02 2.186917e-02 -2.226542e-04 -8.678873e-02 1.951765e-03
<VARIANCE> 25
 4.782634e+00 5.648670e+00 1.012713e+01 1.004349e+01 9.399607e+00 1.010261e+01 1.313038e+01 1.354995e+01 1.187906e+01 9.712181e+00 7.353522e+00 1.052283e+01 1.711858e-01 3.273468e-01 5.815978e-01 5.994275e-01 7.737820e-01 1.032785e+00 1.396793e+00 1.152349e+00 1.375661e+00 1.865363e+00 1.315169e+00 1.084750e+00 1.706077e-02
<GCONST> 6.624014e+01
<MIXTURE> 4 1.148915e-01
<MEAN> 25
 -3.303091e+00 6.606829e-01 -4.248245e-01 -1.421938e+00 6.351618e-01 -3.061256e+00 -1.585576e+00 1.051938e+00 2.619234e+00 2.918663e+00 2.136365e+00 2.537067e+00 -2.955974e-01 3.132323e-01 7.494675e-01 8.323054e-01 7.921412e-01 8.776857e-01 7.726140e-01 6.320215e-01 1.806560e-01 8.900527e-02 1.217156e-01 1.044812e-01 -6.894252e-02
<VARIANCE> 25
 9.963070e+00 9.353029e+00 1.123466e+01 1.446802e+01 1.228150e+01 1.320952e+01 1.741339e+01 1.586471e+01 1.229727e+01 1.612731e+01 1.287572e+01 1.248169e+01 5.618511e-01 8.383437e-01 9.023002e-01 7.880185e-01 1.072811e+00 7.641868e-01 8.908249e-01 1.662117e+00 1.180471e+00 1.618840e+00 1.384264e+00 1.218289e+00 5.602602e-02
<GCONST> 7.404056e+01
<MIXTURE> 5 1.374237e-01
<MEAN> 25
 -2.471023e+00 2.078408e+00 2.394764e+00 1.012565e+00 1.178030e+00 -3.311480e+00 -3.122176e+00 -1.784488e+00 -1.761356e+00 -1.896868e+00 -1.244695e+00 1.235734e+00 -3.122779e-01 -2.228566e-01 1.030750e-01 3.292067e-01 6.022508e-01 7.416204e-01 7.007713e-01 4.818293e-01 2.867508e-01 2.726227e-01 2.720678e-01 2.005240e-01 -5.219268e-02
<VARIANCE> 25
 7.521500e+00 6.672898e+00 5.564231e+00 8.465981e+00 9.650462e+00 8.086873e+00 1.047567e+01 8.299732e+00 8.573665e+00 1.174772e+01 1.315999e+01 1.247910e+01 2.760685e-01 2.985487e-01 4.659930e-01 7.551876e-01 9.202372e-01 9.935393e-01 1.186407e+00 1.333640e+00 1.423200e+00 1.373254e+00 1.132105e+00 1.185067e+00 2.112778e-02
<GCONST> 6.618699e+01
<MIXTURE> 6 7.221203e-02
<MEAN> 25
 -2.035376e-01 4.036004e-01 -1.788293e+00 -5.169167e+00 -3.584313e+00 -6.615412e+00 -5.506926e+00 -2.182585e+00 -1.178030e-01 -1.482333e+00 -1.633461e+00 8.629484e-01 2.318904e-01 3.307573e-01 1.772203e-05 -1.727888e-01 -4.110452e-01 -4.877325e-01 -2.167110e-01 -1.327925e-01 -3.252472e-02 -1.287418e-01 -1.939223e-01 -8.649499e-02 -7.115214e-02
<VARIANCE> 25
 1.552907e+01 1.566542e+01 1.171698e+01 7.858207e+00 1.043537e+01 1.931990e+01 1.526133e+01 2.362877e+01 1.556686e+01 1.771164e+01 1.455363e+01 1.644187e+01 5.340924e-01 5.660883e-01 9.566261e-01 8.960714e-01 8.664487e-01 1.090326e+00 1.205743e+00 1.183866e+00 1.505436e+00 1.653570e+00 1.333852e+00 1.211774e+00 4.922870e-02
<GCONST> 7.558450e+01
<MIXTURE> 7 6.771683e-02
<MEAN> 25
 -1.194685e+00 -1.885836e+00 -2.559718e+00 -2.908777e+00 -5.672909e-01 -4.343331e+00 -3.678820e+00 -1.355057e-01 2.166786e-01 -1.472322e+00 -1.384396e+00 -8.637106e-02 1.614150e+00 -9.018238e-01 -1.325549e+00 -1.365552e+00 -1.420002e+00 -1.484863e+00 -1.604578e+00 -1.004250e+00 -5.558633e-01 -7.586224e-01 -7.847197e-01 -5.920097e-01 5.053077e-01
<VARIANCE> 25
 2.684817e+01 2.264716e+01 2.718753e+01 2.551983e+01 2.478144e+01 2.744387e+01 2.354856e+01 2.264274e+01 2.007981e+01 2.956378e+01 2.159678e+01 1.456033e+01 2.160645e+00 2.929688e+00 2.441552e+00 2.309434e+00 2.034515e+00 2.676027e+00 2.084111e+00 2.135753e+00 2.037524e+00 1.898725e+00 1.624842e+00 1.437119e+00 2.231987e-01
<GCONST> 9.130161e+01
<MIXTURE> 8 7.376087e-02
<MEAN> 25
 2.721492e+00 -2.657289e-01 -2.149320e+00 -2.632727e+00 -3.153851e+00 -8.524692e+00 -8.018308e+00 -5.251937e+00 -4.263413e+00 -4.329236e+00 -3.952171e+00 -1.321362e+00 -6.326409e-01 8.492333e-01 8.017374e-01 6.734679e-01 6.057935e-01 4.859914e-01 2.766062e-01 4.465551e-02 -3.318791e-02 3.217999e-01 4.637661e-01 3.595356e-01 -3.193384e-01
<VARIANCE> 25
 1.234125e+01 2.837716e+01 2.190140e+01 1.371336e+01 1.304869e+01 1.422831e+01 1.207687e+01 1.783926e+01 1.997699e+01 1.860482e+01 1.661756e+01 1.198267e+01 6.204225e-01 1.267159e+00 1.197732e+00 1.140848e+00 1.037314e+00 9.057944e-01 1.231174e+00 2.318008e+00 1.793182e+00 1.762161e+00 1.509606e+00 1.037949e+00 9.515635e-02
<GCONST> 7.962431e+01
<TRANSP> 3
 0.000000e+00 1.000000e+00 0.000000e+00
 0.000000e+00 9.981456e-01 1.854357e-03
 0.000000e+00 0.000000e+00 0.000000e+00
<ENDHMM>
~o
<STREAMINFO> 1 25
<VECSIZE> 25<NULLD><MFCC_E_D_N_Z><DIAGC>
~h "shoes_on"
<BEGINHMM>
<NUMSTATES> 3
<STATE> 2
<NUMMIXES> 8
<MIXTURE> 1 1.166314e-01
<MEAN> 25
 4.642629e-01 1.839754e+00 1.655133e+00 3.575573e+00 1.059396e+00 3.536535e+00 3.495754e+00 1.379897e+00 -3.274545e-01 1.100804e+00 8.567945e-01 -2.095685e+00 -1.331235e-02 -9.013764e-04 3.022395e-02 7.534491e-02 4.708783e-02 4.257897e-02 6.263334e-03 -2.525767e-02 7.507621e-02 9.077968e-02 4.060948e-02 9.937631e-03 -1.336270e-02
<VARIANCE> 25
 6.310956e+00 2.233933e+00 4.070624e+00 9.364393e+00 7.663383e+00 8.071594e+00 9.989573e+00 1.087867e+01 1.119846e+01 1.114169e+01 1.039999e+01 1.044486e+01 1.284513e-01 2.116152e-01 4.137460e-01 5.504658e-01 8.675929e-01 8.115262e-01 1.184553e+00 1.196390e+00 1.212007e+00 1.201054e+00 1.191616e+00 1.032809e+00 1.506594e-02
<GCONST> 6.186207e+01
<MIXTURE> 2 1.262870e-01
<MEAN> 25
 -2.956254e+00 -4.330245e-01 -1.245360e+00 -2.293190e+00 -1.220934e+00 -2.587430e+00 1.004990e-01 1.483405e+00 2.040376e+00 2.474092e+00 1.917459e+00 1.504194e+00 -3.618816e-02 1.129831e-02 6.940180e-02 -2.686041e-03 -4.650080e-02 -1.964905e-01 -3.279204e-01 -2.076756e-01 -1.785421e-01 -6.169028e-02 1.219267e-02 4.857681e-02 -9.550627e-03
<VARIANCE> 25
 5.642261e+00 3.336194e+00 4.268127e+00 6.091697e+00 9.250815e+00 1.223390e+01 1.227720e+01 9.766263e+00 1.252345e+01 1.473422e+01 1.084383e+01 9.547412e+00 1.933879e-01 2.593728e-01 4.933854e-01 7.692124e-01 9.962810e-01 8.175430e-01 1.025373e+00 1.118405e+00 1.394040e+00 1.250931e+00 1.191896e+00 1.004787e+00 1.212218e-02
<GCONST> 6.380746e+01
<MIXTURE> 3 2.220567e-01
<MEAN> 25
 -4.420744e+00 -3.816302e-02 1.033059e+00 1.986499e+00 3.212900e+00 3.059575e-01 7.597992e-01 8.221548e-01 4.217030e-02 -2.671020e-01 -6.160064e-02 5.578643e-01 -3.996900e-02 -6.427273e-02 -1.249238e-01 -6.259622e-02 -1.675759e-02 2.877555e-02 8.865552e-02 5.510035e-02 6.890636e-04 -4.247135e-02 -5.502041e-02 -9.000236e-02 -7.014890e-03
<VARIANCE> 25
 4.265028e+00 2.640145e+00 4.093115e+00 5.266692e+00 6.051614e+00 9.273837e+00 8.975101e+00 9.046242e+00 1.141246e+01 1.128053e+01 1.052652e+01 9.054805e+00 1.871008e-01 2.935190e-01 4.058812e-01 6.560661e-01 8.425741e-01 1.184741e+00 1.451208e+00 1.220087e+00 1.368778e+00 1.472306e+00 1.372895e+00 1.135918e+00 1.189144e-02
<GCONST> 6.233583e+01
<MIXTURE> 4 1.436636e-01
<MEAN> 25
 -2.167101e+00 7.468091e-01 2.544870e-01 -1.185087e+00 -8.302466e-01 -3.866249e+00 -3.144621e+00 -2.306018e+00 -1.485939e+00 -2.935318e-02 9.204131e-01 1.388628e+00 -2.771670e-01 -5.087437e-02 3.368249e-01 6.249931e-01 6.645055e-01 8.347870e-01 7.188996e-01 4.859893e-01 3.646201e-01 1.147872e-01 9.570615e-02 7.345970e-02 -6.608678e-02
<VARIANCE> 25
 8.523970e+00 3.563002e+00 4.735658e+00 8.483869e+00 9.160453e+00 1.229262e+01 1.126263e+01 9.469090e+00 1.145528e+01 1.457180e+01 1.243374e+01 1.218586e+01 4.115946e-01 3.254586e-01 4.857816e-01 7.644717e-01 9.101448e-01 9.598461e-01 1.141452e+00 1.079608e+00 1.268077e+00 1.215771e+00 1.117590e+00 1.145982e+00 2.913537e-02
<GCONST> 6.680283e+01
<MIXTURE> 5 1.219258e-01
<MEAN> 25
 -1.951072e+00 -2.991261e-01 -3.159668e-01 -3.470428e-01 2.068887e+00 -2.210891e-01 9.255596e-01 1.488253e+00 1.901671e+00 1.547166e+00 8.902940e-01 1.032833e+00 6.358868e-02 -1.799808e-01 -3.151821e-01 -3.842733e-01 -3.217121e-01 -5.680557e-01 -4.222607e-01 -2.689209e-01 -1.624748e-01 -6.810360e-02 -1.226742e-01 -1.522775e-01 1.585984e-01
<VARIANCE> 25
 2.886490e+01 1.165310e+01 9.463017e+00 1.743505e+01 1.345971e+01 1.653601e+01 2.122513e+01 1.852209e+01 1.728319e+01 1.318213e+01 1.327997e+01 1.575127e+01 1.373209e+00 1.122115e+00 1.245255e+00 1.866146e+00 1.672403e+00 1.993694e+00 2.233446e+00 1.854614e+00 2.202375e+00 1.782673e+00 1.797867e+00 1.544959e+00 1.944021e-01
<GCONST> 8.367464e+01
<MIXTURE> 6 7.384534e-02
<MEAN> 25
 -5.262558e-01 -2.782895e+00 -3.189574e+00 -5.273943e+00 -5.285385e-01 -9.914975e-01 5.788620e-01 -1.102367e+00 -1.237103e+00 -1.902394e+00 -2.100237e+00 -4.557506e-01 3.689110e-01 3.569486e-01 2.122761e-01 9.768325e-02 -5.405075e-02 3.180285e-01 2.719893e-01 1.941526e-01 7.504553e-02 7.046403e-02 7.776995e-02 1.193452e-01 -1.968715e-01
<VARIANCE> 25
 2.132852e+01 1.156394e+01 1.016245e+01 2.469957e+01 2.303196e+01 1.027811e+01 1.588625e+01 1.366308e+01 1.279824e+01 1.225192e+01 1.138120e+01 1.012542e+01 4.717126e-01 4.813269e-01 6.406021e-01 6.885053e-01 7.660286e-01 1.097381e+00 1.180340e+00 1.200259e+00 1.289852e+00 1.243424e+00 1.241598e+00 1.022524e+00 6.937824e-02
<GCONST> 7.354587e+01
<MIXTURE> 7 6.190360e-02
<MEAN> 25
 -1.320045e-01 -3.385686e+00 -4.715302e+00 -6.178807e+00 -4.004754e+00 -6.167351e+00 -4.262911e+00 -3.301881e+00 -2.368045e+00 -1.609612e+00 -1.800889e+00 -1.170282e+00 9.369814e-01 -6.308413e-01 -1.305913e+00 -1.751321e+00 -1.408166e+00 -1.572028e+00 -1.079875e+00 -9.011081e-01 -7.785462e-01 -5.868903e-01 -7.057253e-01 -4.929393e-01 7.318155e-01
<VARIANCE> 25
 3.284836e+01 3.457393e+01 1.865929e+01 2.433898e+01 2.944222e+01 3.120956e+01 3.446286e+01 3.227290e+01 3.039227e+01 2.602747e+01 1.868142e+01 1.282919e+01 3.369984e+00 2.342771e+00 1.516636e+00 2.051609e+00 2.724437e+00 2.908031e+00 2.904635e+00 3.195099e+00 2.852975e+00 1.839162e+00 1.730235e+00 1.368199e+00 4.529681e-01
<GCONST> 9.431671e+01
<MIXTURE> 8 1.336865e-01
<MEAN> 25
 2.005003e+00 -1.411127e+00 -4.740834e+00 -7.124918e+00 -5.679849e+00 -7.992136e+00 -5.782997e+00 -4.344934e+00 -3.174109e+00 -2.533403e+00 -1.691105e+00 2.260421e-02 -2.630573e-01 3.840709e-01 4.949003e-01 4.578049e-01 2.808252e-01 3.247919e-01 1.547078e-01 9.853178e-02 1.316713e-01 2.061818e-01 3.572240e-01 2.872340e-01 -2.796129e-01
<VARIANCE> 25
 1.002973e+01 1.279866e+01 1.129424e+01 1.563935e+01 1.474956e+01 1.646464e+01 1.661978e+01 1.651080e+01 2.155066e+01 1.859419e+01 1.727060e+01 1.232249e+01 9.526531e-01 9.292830e-01 1.017098e+00 1.172680e+00 1.276281e+00 1.515584e+00 1.433261e+00 1.719732e+00 1.943057e+00 1.253432e+00 1.284105e+00 1.217377e+00 9.752712e-02
<GCONST> 7.906219e+01
<TRANSP> 3
 0.000000e+00 1.000000e+00 0.000000e+00
 0.000000e+00 9.971299e-01 2.870149e-03
 0.000000e+00 0.000000e+00 0.000000e+00
<ENDHMM>
~o
<STREAMINFO> 1 25
<VECSIZE> 25<NULLD><MFCC_E_D_N_Z><DIAGC>
~h "walking"
<BEGINHMM>
<NUMSTATES> 3
<STATE> 2
<NUMMIXES> 8
<MIXTURE> 1 1.867168e-01
<MEAN> 25
 -3.127912e-01 1.701740e+00 1.918915e+00 4.824769e+00 1.470036e+00 4.155938e+00 3.804729e+00 1.857546e+00 -6.437789e-01 9.962329e-01 7.217813e-01 -2.404201e+00 3.094956e-02 8.720420e-02 1.085720e-01 1.193716e-01 1.079900e-01 1.940481e-01 1.859802e-01 2.180916e-01 2.498017e-01 2.203091e-01 1.565066e-01 8.613402e-02 4.371442e-02
<VARIANCE> 25
 1.178442e+00 2.369769e+00 2.994211e+00 4.663231e+00 5.546141e+00 6.232167e+00 9.137331e+00 9.919273e+00 1.007754e+01 9.860407e+00 1.004489e+01 9.139682e+00 1.165061e-01 2.024707e-01 3.509440e-01 4.949854e-01 7.111006e-01 7.826467e-01 1.087477e+00 1.037485e+00 9.979920e-01 1.118643e+00 1.214552e+00 1.050746e+00 1.195670e-02
<GCONST> 5.674333e+01
<MIXTURE> 2 1.444557e-01
<MEAN> 25
 5.453401e-01 3.127555e-01 1.417520e+00 1.307806e+00 -1.739021e+00 1.538050e+00 -6.052370e-01 -3.309628e-01 8.322843e-01 2.066627e+00 2.484552e+00 9.029269e-01 3.124173e-02 1.391701e-01 2.369274e-01 3.609099e-01 2.606950e-01 3.729959e-01 5.119003e-01 4.137537e-01 4.058556e-01 3.440990e-01 2.935544e-01 1.063503e-01 3.854462e-02
<VARIANCE> 25
 1.390843e+00 3.378660e+00 3.860878e+00 5.607027e+00 5.870749e+00 7.233098e+00 9.182012e+00 8.171539e+00 9.967432e+00 6.533565e+00 8.869466e+00 8.776302e+00 8.947755e-02 1.706618e-01 3.399339e-01 4.953463e-01 7.553161e-01 8.221555e-01 1.059734e+00 8.511388e-01 1.212915e+00 1.022471e+00 1.089464e+00 9.890180e-01 5.555604e-03
<GCONST> 5.572074e+01
<MIXTURE> 3 1.085384e-01
<MEAN> 25
 2.164500e-01 -5.745698e-02 1.242191e+00 1.897860e+00 -5.751154e-01 2.315521e+00 -4.485722e-01 -1.899464e+00 -2.714081e+00 -2.116787e+00 -1.416861e+00 -1.154791e+00 3.062398e-02 9.471802e-02 2.018187e-01 2.855961e-01 1.303107e-01 1.791074e-01 2.519674e-01 1.602994e-01 3.350848e-02 1.124839e-01 1.391225e-01 3.997199e-02 1.635604e-02
<VARIANCE> 25
 1.518411e+00 2.798869e+00 3.895093e+00 6.531931e+00 8.352462e+00 6.896970e+00 8.899269e+00 9.594336e+00 9.662560e+00 8.022940e+00 7.128111e+00 8.716836e+00 7.583845e-02 1.773324e-01 2.428512e-01 3.941407e-01 5.933420e-01 8.750624e-01 8.033466e-01 1.025209e+00 1.214529e+00 1.141870e+00 9.700117e-01 9.320815e-01 4.651164e-03
<GCONST> 5.496172e+01
<MIXTURE> 4 1.233381e-01
<MEAN> 25
 9.009206e-01 -1.099854e+00 -2.075333e-01 -3.414422e+00 -2.524642e+00 -1.808576e+00 -4.167615e+00 -2.697310e+00 -1.902817e+00 -6.343589e-01 1.966725e+00 2.739915e+00 8.073976e-02 1.174621e-01 5.422810e-02 7.726885e-02 -4.430237e-02 9.685635e-02 1.063529e-01 1.350657e-01 2.237556e-02 6.374373e-02 2.495483e-02 -5.127967e-02 -9.103151e-02
<VARIANCE> 25
 3.917341e+00 4.524781e+00 7.757601e+00 1.076347e+01 1.634447e+01 1.432227e+01 1.115896e+01 1.406694e+01 1.585032e+01 1.507660e+01 1.192627e+01 1.060937e+01 9.531604e-02 1.951431e-01 4.438752e-01 6.988460e-01 9.584813e-01 1.226719e+00 1.139114e+00 1.238242e+00 1.353865e+00 1.371959e+00 1.149970e+00 9.395690e-01 8.030969e-03
<GCONST> 6.529826e+01
<MIXTURE> 5 1.231314e-01
<MEAN> 25
 -4.564198e+00 -1.245837e-01 1.437829e+00 2.734267e+00 2.952383e+00 2.252907e-01 -7.686585e-01 1.647095e+00 1.135596e+00 -1.306824e+00 -4.528421e-01 1.226659e-01 -5.291390e-02 -1.068550e-01 -1.782781e-02 1.082085e-02 8.907493e-02 1.239233e-01 1.086372e-01 1.338498e-01 5.256388e-02 1.089500e-01 6.481316e-02 7.648465e-03 -1.826602e-02
<VARIANCE> 25
 5.683730e+00 6.740637e+00 7.229318e+00 8.546532e+00 9.339747e+00 1.820839e+01 1.255695e+01 1.410635e+01 1.557422e+01 1.444872e+01 1.392776e+01 1.160842e+01 2.517343e-01 2.513176e-01 4.593349e-01 5.897242e-01 8.554071e-01 1.058623e+00 1.263608e+00 1.240224e+00 1.260265e+00 1.544702e+00 1.259804e+00 1.348726e+00 1.959863e-02
<GCONST> 6.807880e+01
<MIXTURE> 6 2.017115e-01
<MEAN> 25
 1.012974e-01 7.864132e-01 1.636368e+00 2.606830e+00 -3.168170e-01 2.632464e+00 7.226937e-01 4.525245e-02 -2.054079e-01 6.563545e-01 9.273773e-01 -6.866655e-01 -6.763820e-02 -1.540600e-01 -3.158405e-01 -3.228711e-01 -2.894404e-01 -4.480660e-01 -4.879707e-01 -4.921916e-01 -4.978539e-01 -4.716051e-01 -4.901980e-01 -2.996509e-01 -9.689195e-02
<VARIANCE> 25
 1.399042e+00 3.345232e+00 3.687394e+00 6.681473e+00 7.306150e+00 7.942946e+00 1.140352e+01 1.012364e+01 1.121563e+01 9.275802e+00 1.010973e+01 1.060495e+01 8.545496e-02 1.860704e-01 2.862484e-01 4.596822e-01 7.475586e-01 7.007844e-01 8.875555e-01 9.287005e-01 1.076762e+00 1.023899e+00 1.008953e+00 8.992917e-01 5.315641e-03
<GCONST> 5.657780e+01
<MIXTURE> 7 4.778289e-02
<MEAN> 25
 -3.633023e-01 -3.186805e-02 3.103150e-02 -9.525093e-01 -2.921929e+00 -5.610742e+00 -6.884439e+00 -3.877572e+00 -1.897660e+00 -3.567109e+00 -3.183325e+00 -5.308611e-01 -3.778841e-01 1.449329e-01 4.638565e-01 4.515535e-01 4.442740e-01 4.943544e-01 4.542947e-01 3.035262e-01 -3.296505e-02 2.122477e-01 2.914387e-01 2.136951e-01 -1.142742e-01
<VARIANCE> 25
 1.839834e+01 2.365892e+01 1.274829e+01 1.615632e+01 1.774448e+01 2.060073e+01 1.927101e+01 1.661790e+01 2.442987e+01 1.578130e+01 2.608448e+01 1.836361e+01 8.614626e-01 1.195896e+00 7.897756e-01 1.058301e+00 1.412866e+00 1.684655e+00 1.707529e+00 1.636487e+00 1.878289e+00 1.514263e+00 1.851895e+00 1.491181e+00 1.090966e-01
<GCONST> 8.273821e+01
<MIXTURE> 8 6.432506e-02
<MEAN> 25
 -9.033933e-01 -7.491193e-01 -3.423951e-01 2.005922e-01 -1.093450e-01 -9.545868e-01 -1.618782e+00 -9.191011e-01 -6.492975e-01 -1.293425e+00 -2.841302e-01 5.112909e-01 2.779584e-01 -3.882542e-01 -6.480761e-01 -1.139076e+00 -6.463293e-01 -1.125398e+00 -1.176510e+00 -9.638199e-01 -2.463281e-01 -6.178764e-01 -2.044979e-01 2.970915e-01 3.521816e-01
<VARIANCE> 25
 1.158142e+01 1.285823e+01 1.387328e+01 1.991745e+01 1.542872e+01 2.325122e+01 1.726661e+01 2.169716e+01 1.965649e+01 1.717250e+01 1.796522e+01 1.296003e+01 1.834298e+00 1.980640e+00 1.299143e+00 1.564804e+00 1.770980e+00 1.925471e+00 1.887053e+00 2.227695e+00 2.741590e+00 1.649483e+00 2.075312e+00 2.032539e+00 2.385668e-01
<GCONST> 8.582996e+01
<TRANSP> 3
 0.000000e+00 1.000000e+00 0.000000e+00
 0.000000e+00 9.980690e-01 1.931007e-03
 0.000000e+00 0.000000e+00 0.000000e+00
<ENDHMM>
