~o
<STREAMINFO> 1 39
<VECSIZE> 39<NULLD><MFCC_D_A_0><DIAGC>
~h "entrance_lock"
<BEGINHMM>
<NUMSTATES> 5
<STATE> 2
<MEAN> 39
 -8.193358e+00 3.801415e-01 4.301072e+00 -5.289055e-01 3.112216e+00 3.144994e+00 7.974612e+00 4.299906e+00 4.679969e+00 4.476063e+00 2.397887e+00 1.169201e+00 6.841342e+01 -7.322492e-02 -6.651903e-02 -6.097548e-02 -5.431110e-02 -4.066459e-02 -3.278594e-02 2.823242e-02 3.664275e-02 2.152151e-02 -5.505403e-03 -1.959203e-02 -1.906185e-02 2.061602e-01 3.451645e-03 -1.260872e-02 -1.016991e-02 -1.316337e-02 -1.918094e-02 -1.705063e-02 -1.438200e-02 -1.103901e-02 7.382551e-04 -1.089620e-02 -1.561217e-02 -5.811064e-03 1.900772e-02
<VARIANCE> 39
 3.063018e+01 3.823439e+01 1.861984e+01 2.715308e+01 1.376456e+01 2.513128e+01 2.071892e+01 1.968056e+01 1.720139e+01 1.713402e+01 1.423256e+01 1.150159e+01 5.213035e+01 1.843814e+00 1.513143e+00 1.170306e+00 1.321151e+00 1.348415e+00 1.822580e+00 1.808313e+00 1.568190e+00 1.664573e+00 1.929103e+00 1.390869e+00 1.216274e+00 2.840302e+00 3.550859e-01 2.371104e-01 2.134683e-01 2.470466e-01 2.414883e-01 3.612887e-01 3.517037e-01 3.192042e-01 3.327697e-01 3.862677e-01 2.888075e-01 2.518299e-01 4.720429e-01
<GCONST> 1.022367e+02
<STATE> 3
<MEAN> 39
 -1.067907e+01 -2.621246e+00 -9.780351e-02 -5.629524e+00 -2.759954e+00 -1.659893e-01 6.806663e+00 2.576088e+00 3.204532e+00 1.854962e+00 1.322317e-01 -2.074315e-01 7.455647e+01 1.229262e-01 1.286987e-01 4.605339e-02 -3.248798e-02 3.490717e-02 2.229718e-02 1.337902e-02 -5.117211e-02 -6.374462e-02 -6.297046e-02 -6.233561e-02 -4.353084e-03 -3.573901e-02 8.892577e-03 3.308983e-02 2.499992e-02 2.813356e-02 2.935092e-02 3.241219e-02 1.530634e-02 8.544111e-03 5.517779e-03 1.693744e-02 2.193401e-02 1.320398e-02 -5.769570e-02
<VARIANCE> 39
 2.627924e+01 2.640812e+01 2.005054e+01 1.315129e+01 2.536155e+01 2.113469e+01 2.200818e+01 2.014500e+01 2.039701e+01 1.941823e+01 1.586894e+01 1.266469e+01 6.684194e+01 1.576701e+00 9.312964e-01 1.014357e+00 1.287717e+00 1.550477e+00 1.527762e+00 1.739467e+00 1.741371e+00 1.645424e+00 1.569956e+00 1.590477e+00 1.232288e+00 2.637640e+00 2.778556e-01 1.564261e-01 1.825937e-01 2.477504e-01 3.100831e-01 3.121832e-01 3.558837e-01 3.501182e-01 3.312699e-01 3.152951e-01 3.248903e-01 2.506770e-01 4.111641e-01
<GCONST> 1.005688e+02
<STATE> 4
<MEAN> 39
 -6.575099e+00 2.686486e+00 5.077726e+00 1.726880e-01 1.048386e-01 2.792706e+00 6.031250e+00 2.610875e+00 3.590265e+00 3.012578e+00 2.074119e+00 5.794747e-01 6.374707e+01 1.100361e-02 1.196560e-02 3.513818e-02 8.049704e-02 -2.215484e-02 2.855551e-02 -4.317641e-02 1.864140e-02 1.696637e-02 2.999440e-02 3.502746e-02 -7.212982e-04 -1.603900e-01 -1.078471e-02 -1.148655e-02 -7.637833e-03 -1.266348e-02 -7.579605e-03 -1.328160e-02 -2.851055e-03 -2.829700e-03 2.433092e-04 1.565027e-03 3.557565e-04 -8.200935e-03 1.869913e-02
<VARIANCE> 39
 1.525750e+01 8.796447e+00 1.220707e+01 1.932124e+01 1.832972e+01 2.282951e+01 2.213800e+01 1.960380e+01 1.637988e+01 1.467686e+01 1.286919e+01 1.120288e+01 4.684499e+01 7.980472e-01 5.262312e-01 6.551483e-01 9.596971e-01 1.216275e+00 1.427710e+00 1.406299e+00 1.363301e+00 1.504816e+00 1.266106e+00 1.292986e+00 9.517664e-01 1.121488e+00 1.501545e-01 9.502532e-02 1.185835e-01 1.868282e-01 2.348847e-01 2.623960e-01 2.753965e-01 2.662259e-01 3.113594e-01 2.530558e-01 2.766391e-01 1.955178e-01 1.655177e-01
<GCONST> 8.857181e+01
<TRANSP> 5
 0.000000e+00 1.000000e+00 0.000000e+00 0.000000e+00 0.000000e+00
 0.000000e+00 9.836684e-01 1.633153e-02 0.000000e+00 0.000000e+00
 0.000000e+00 0.000000e+00 9.809498e-01 1.905021e-02 0.000000e+00
 0.000000e+00 0.000000e+00 0.000000e+00 9.852815e-01 1.471850e-02
 0.000000e+00 0.000000e+00 0.000000e+00 0.000000e+00 0.000000e+00
<ENDHMM>
~o
<STREAMINFO> 1 39
<VECSIZE> 39<NULLD><MFCC_D_A_0><DIAGC>
~h "entrance_open"
<BEGINHMM>
<NUMSTATES> 5
<STATE> 2
<MEAN> 39
 -4.717509e+00 8.316429e-01 2.404174e+00 -8.878756e-01 -1.335618e+00 2.828857e-01 4.899063e+00 1.763840e+00 3.621483e+00 3.317286e+00 2.295111e+00 8.347821e-01 6.526115e+01 9.980878e-02 -2.334069e-02 -3.505364e-02 1.502978e-02 6.392016e-02 -1.311658e-02 -6.466850e-02 2.567019e-04 3.841136e-02 9.659634e-02 8.004513e-03 -3.213381e-02 6.258303e-03 9.609163e-03 1.290294e-02 2.396912e-03 2.662156e-02 1.211876e-02 2.284691e-02 4.746474e-03 1.886681e-02 1.785214e-02 8.058957e-03 -1.051159e-02 1.655714e-03 -2.303640e-02
<VARIANCE> 39
 1.678231e+01 1.116316e+01 1.848670e+01 2.460019e+01 1.817093e+01 2.412111e+01 1.870981e+01 2.117083e+01 2.200476e+01 1.986034e+01 1.325863e+01 1.218880e+01 3.692968e+01 1.256487e+00 1.196836e+00 1.585966e+00 1.639198e+00 1.424362e+00 1.487355e+00 1.616058e+00 1.842976e+00 2.518366e+00 2.015131e+00 1.741976e+00 1.229536e+00 4.572487e+00 2.494157e-01 2.416881e-01 2.575787e-01 2.782505e-01 2.902689e-01 2.518929e-01 3.095467e-01 3.633167e-01 5.027860e-01 4.053817e-01 3.762330e-01 2.538080e-01 9.996547e-01
<GCONST> 1.027954e+02
<STATE> 3
<MEAN> 39
 -2.362571e+00 1.231773e+00 2.190696e+00 3.096186e+00 1.609363e+00 3.407816e+00 3.330308e+00 3.347227e+00 5.794784e+00 6.722571e+00 1.637469e+00 -1.088721e+00 6.142721e+01 -2.642589e-01 7.387457e-02 1.458574e-01 1.192677e-01 5.781798e-02 2.544029e-01 1.490035e-01 -2.903106e-02 1.711243e-02 6.293396e-02 2.142115e-01 8.449237e-02 -1.095186e-01 -5.166836e-02 6.291057e-03 2.010646e-02 -1.162295e-02 -2.688369e-02 -6.322548e-02 -3.370774e-02 -5.563908e-02 -2.294307e-02 -3.870744e-02 2.214805e-02 -6.160797e-03 -3.929875e-04
<VARIANCE> 39
 9.740622e+00 4.636039e+00 7.457280e+00 5.962750e+00 8.516497e+00 1.308430e+01 8.640907e+00 1.210970e+01 1.580536e+01 2.229043e+01 1.366166e+01 1.153457e+01 3.480160e+01 4.527024e-01 5.332109e-01 8.074600e-01 4.743887e-01 8.257151e-01 1.159598e+00 8.172074e-01 1.632545e+00 1.961141e+00 2.882077e+00 1.872186e+00 1.184088e+00 4.702159e+00 1.081538e-01 1.040749e-01 1.606673e-01 8.154169e-02 1.697980e-01 2.126271e-01 1.375189e-01 2.993510e-01 3.911327e-01 6.253494e-01 4.573426e-01 2.307086e-01 9.726319e-01
<GCONST> 8.604195e+01
<STATE> 4
<MEAN> 39
 -6.554746e+00 1.838342e+00 2.040527e+00 -3.378648e-01 -4.467021e-01 1.387326e+00 3.996357e+00 3.671008e+00 5.181890e+00 4.596665e+00 2.435178e+00 3.379499e-02 6.261105e+01 -5.319680e-02 1.579277e-02 -6.271269e-02 -6.676717e-02 -5.161086e-02 -4.085024e-02 3.090263e-02 1.950122e-02 -2.912947e-02 -7.439532e-02 -3.106164e-02 1.458477e-02 -2.838778e-02 5.766392e-03 -4.341412e-03 -6.161882e-03 -1.407960e-02 5.069204e-03 1.467984e-02 8.469812e-03 3.564073e-03 -1.126368e-02 -7.905605e-04 -5.491490e-03 6.170874e-03 7.384224e-03
<VARIANCE> 39
 9.210649e+00 6.846737e+00 5.721934e+00 8.405821e+00 1.236143e+01 1.519108e+01 1.617353e+01 1.820466e+01 1.897993e+01 1.353045e+01 9.164685e+00 9.128972e+00 3.953050e+00 2.954714e-01 4.542903e-01 5.309976e-01 7.705197e-01 8.162102e-01 1.301915e+00 1.480492e+00 1.490996e+00 1.376738e+00 1.323614e+00 9.704711e-01 1.061303e+00 3.245676e-01 5.964237e-02 9.639695e-02 1.025621e-01 1.569027e-01 1.643697e-01 2.534077e-01 3.094884e-01 3.160225e-01 2.713761e-01 2.872131e-01 1.981677e-01 2.223855e-01 6.636718e-02
<GCONST> 7.624200e+01
<TRANSP> 5
 0.000000e+00 1.000000e+00 0.000000e+00 0.000000e+00 0.000000e+00
 0.000000e+00 9.766887e-01 2.331125e-02 0.000000e+00 0.000000e+00
 0.000000e+00 0.000000e+00 9.173447e-01 8.265531e-02 0.000000e+00
 0.000000e+00 0.000000e+00 0.000000e+00 9.838719e-01 1.612809e-02
 0.000000e+00 0.000000e+00 0.000000e+00 0.000000e+00 0.000000e+00
<ENDHMM>
~o
<STREAMINFO> 1 39
<VECSIZE> 39<NULLD><MFCC_D_A_0><DIAGC>
~h "entrance_close"
<BEGINHMM>
<NUMSTATES> 5
<STATE> 2
<MEAN> 39
 -4.795360e+00 3.228402e+00 5.080675e+00 -3.273405e-02 -1.251955e-01 2.616776e+00 4.275268e+00 3.003718e+00 3.403640e+00 3.778313e+00 1.834693e+00 2.043086e+00 6.520798e+01 4.639732e-02 2.281642e-02 2.044753e-02 -2.291476e-02 7.641851e-03 2.439520e-02 -1.958336e-02 -2.619152e-02 1.167565e-02 4.428369e-03 3.956322e-03 -1.074822e-02 6.626290e-04 1.073060e-02 -1.517462e-02 -1.019325e-02 -1.954851e-02 5.641703e-03 -5.086394e-03 -6.940432e-03 -2.950458e-03 -3.019407e-02 -1.047825e-02 6.729699e-03 -1.074033e-02 2.390807e-02
<VARIANCE> 39
 1.156525e+01 6.911953e+00 9.707119e+00 1.274790e+01 9.207903e+00 1.548650e+01 1.289489e+01 1.303797e+01 1.492277e+01 1.121208e+01 1.232913e+01 9.170999e+00 5.292559e+01 6.398514e-01 4.909893e-01 5.268832e-01 1.005879e+00 8.710001e-01 1.142928e+00 1.488876e+00 1.327309e+00 1.247461e+00 1.078902e+00 1.361061e+00 1.227619e+00 1.215636e+00 1.153721e-01 9.865569e-02 1.046856e-01 2.146672e-01 1.931115e-01 2.378836e-01 3.117951e-01 2.748111e-01 2.387116e-01 2.272449e-01 2.819112e-01 2.656913e-01 2.170517e-01
<GCONST> 8.382558e+01
<STATE> 3
<MEAN> 39
 -4.698025e+00 3.301806e+00 2.349338e+00 -1.109280e+00 3.859513e-01 1.092936e+00 2.650237e+00 9.848272e-01 2.151929e+00 1.892819e+00 8.232460e-01 3.931025e-01 7.502831e+01 7.665838e-02 4.035296e-02 3.569186e-02 2.484432e-02 4.236621e-02 4.005746e-03 -1.521744e-02 -8.144788e-04 1.545764e-02 -1.114877e-02 -6.684389e-03 4.288134e-03 5.545929e-02 -4.473343e-03 1.046489e-02 8.341216e-03 1.889794e-02 -4.855273e-04 1.216103e-02 1.130251e-02 1.455625e-02 2.890388e-02 4.395703e-03 7.103096e-03 9.532478e-03 -2.757996e-02
<VARIANCE> 39
 2.771386e+01 1.038872e+01 1.717786e+01 1.540855e+01 1.927444e+01 1.783423e+01 1.596950e+01 1.917974e+01 1.628692e+01 1.815827e+01 1.290133e+01 1.336823e+01 7.042788e+01 2.136555e+00 1.059071e+00 1.366504e+00 1.654860e+00 2.344892e+00 2.013344e+00 1.983496e+00 2.109580e+00 2.104794e+00 2.165920e+00 1.554471e+00 1.587687e+00 4.231781e+00 3.957559e-01 2.198928e-01 2.696062e-01 3.284588e-01 4.805269e-01 4.066547e-01 4.309740e-01 4.134241e-01 4.496543e-01 4.834466e-01 3.387145e-01 3.406351e-01 6.725771e-01
<GCONST> 1.057505e+02
<STATE> 4
<MEAN> 39
 -2.090513e+00 6.667695e+00 7.855315e+00 3.933962e+00 1.289292e+00 5.087503e+00 4.322499e+00 3.035758e+00 6.015289e+00 5.874014e+00 5.721515e+00 3.620909e+00 5.976545e+01 -1.269015e-01 -1.449825e-02 8.073304e-03 2.311074e-02 -9.954253e-03 2.419644e-02 1.188993e-02 1.943250e-02 -9.506956e-03 3.436389e-02 6.471633e-02 4.121905e-02 -7.403213e-02 -6.332983e-03 -2.642008e-03 -5.506034e-03 -6.712088e-03 -1.681908e-03 -7.614079e-03 -7.664104e-03 -7.587475e-03 -1.989754e-02 2.419529e-03 -5.098755e-03 -2.397979e-03 1.499473e-02
<VARIANCE> 39
 1.556294e+01 4.178379e+00 5.975674e+00 7.840108e+00 1.109700e+01 1.191562e+01 1.006638e+01 9.214920e+00 1.092380e+01 1.531744e+01 1.435401e+01 1.075417e+01 1.253569e+01 3.311962e-01 2.536664e-01 4.639980e-01 5.682511e-01 8.255331e-01 8.339161e-01 8.602085e-01 1.020151e+00 1.059872e+00 1.211754e+00 1.101344e+00 8.639417e-01 2.134643e-01 6.788357e-02 4.955301e-02 9.987006e-02 1.141187e-01 1.705097e-01 1.696573e-01 1.758666e-01 2.148836e-01 2.357560e-01 2.458619e-01 2.357759e-01 1.730838e-01 4.292120e-02
<GCONST> 6.996086e+01
<TRANSP> 5
 0.000000e+00 1.000000e+00 0.000000e+00 0.000000e+00 0.000000e+00
 0.000000e+00 9.837997e-01 1.620028e-02 0.000000e+00 0.000000e+00
 0.000000e+00 0.000000e+00 9.888370e-01 1.116302e-02 0.000000e+00
 0.000000e+00 0.000000e+00 0.000000e+00 9.866828e-01 1.331728e-02
 0.000000e+00 0.000000e+00 0.000000e+00 0.000000e+00 0.000000e+00
<ENDHMM>
~o
<STREAMINFO> 1 39
<VECSIZE> 39<NULLD><MFCC_D_A_0><DIAGC>
~h "entrance_walking"
<BEGINHMM>
<NUMSTATES> 5
<STATE> 2
<MEAN> 39
 -8.300731e+00 1.611917e+00 5.343277e+00 2.013762e+00 -7.687841e-01 3.789232e+00 2.970754e+00 4.888731e-01 3.241335e+00 3.052261e+00 2.843725e+00 1.540392e+00 5.730436e+01 -5.200154e-03 4.044146e-03 4.984890e-03 7.573949e-04 -2.975397e-03 2.359981e-03 1.000969e-03 3.523971e-03 1.316031e-03 2.179745e-03 1.067691e-03 -4.434786e-03 -7.274102e-03 -2.825840e-04 -5.139309e-04 -2.870093e-04 1.186556e-03 2.211071e-05 -1.747267e-03 -4.730737e-04 -5.906387e-04 1.045169e-04 -5.294958e-04 -1.035435e-04 -5.467835e-04 5.210780e-04
<VARIANCE> 39
 3.133847e+00 5.700363e+00 5.457465e+00 9.620708e+00 1.165436e+01 1.389685e+01 1.290036e+01 1.172011e+01 1.328821e+01 1.212612e+01 1.182262e+01 1.129798e+01 5.842234e+00 1.779359e-01 3.197582e-01 4.699550e-01 6.754043e-01 8.594218e-01 1.128282e+00 1.199796e+00 1.205426e+00 1.381873e+00 1.254397e+00 1.288367e+00 1.102688e+00 2.507985e-01 3.237686e-02 6.379979e-02 9.746186e-02 1.391586e-01 1.793332e-01 2.363559e-01 2.500131e-01 2.547691e-01 2.987419e-01 2.664001e-01 2.772040e-01 2.315254e-01 4.188387e-02
<GCONST> 7.136384e+01
<STATE> 3
<MEAN> 39
 -9.130270e+00 3.382134e+00 3.601157e+00 1.479694e+00 7.009467e-01 -6.018382e-01 1.683093e+00 5.216122e-01 2.151355e+00 2.605584e+00 1.632337e+00 1.523462e+00 6.248113e+01 -1.565757e-02 -2.169662e-02 -1.084932e-02 -1.138596e-02 2.565735e-02 -1.756479e-02 7.346932e-03 1.029169e-02 1.134060e-02 4.001382e-03 -4.701016e-03 1.242264e-02 4.807787e-02 -1.879538e-03 -3.913948e-03 2.268534e-03 4.018900e-03 2.180431e-03 4.869837e-03 5.727784e-03 4.312079e-03 -3.002040e-03 -6.962867e-04 5.646864e-03 3.346092e-03 -9.770391e-04
<VARIANCE> 39
 1.568941e+01 1.114859e+01 1.256694e+01 1.889061e+01 1.602985e+01 2.277285e+01 1.747664e+01 1.565395e+01 1.649475e+01 1.726861e+01 1.363772e+01 1.147257e+01 2.016215e+01 1.057248e+00 9.098902e-01 1.056666e+00 1.348361e+00 1.258823e+00 1.857262e+00 1.619316e+00 1.512495e+00 1.580265e+00 1.537228e+00 1.386318e+00 1.282546e+00 1.287280e+00 1.618706e-01 1.704897e-01 2.148742e-01 2.582496e-01 2.517822e-01 3.538789e-01 3.303631e-01 3.113675e-01 3.265041e-01 3.118080e-01 2.860584e-01 2.747208e-01 2.224698e-01
<GCONST> 9.380219e+01
<STATE> 4
<MEAN> 39
 -1.171816e+01 2.442118e+00 3.924670e+00 3.083310e+00 3.709672e+00 3.132410e+00 5.224238e+00 2.817980e+00 3.660306e+00 4.290199e+00 3.264094e+00 1.623284e+00 6.079898e+01 -2.504975e-03 -7.181036e-03 -2.716693e-03 5.163590e-03 -1.266401e-02 -2.983860e-03 1.958271e-03 1.269713e-02 3.155858e-03 1.361683e-02 1.910395e-02 1.063647e-02 -6.567322e-03 2.266575e-03 -1.757719e-03 -5.044562e-03 -4.807039e-03 8.538582e-04 1.768591e-03 -2.025317e-03 -4.193805e-03 -4.978262e-03 2.306191e-04 -3.195048e-03 -1.809310e-03 2.850063e-03
<VARIANCE> 39
 5.295285e+00 5.150971e+00 7.740487e+00 1.142465e+01 1.176679e+01 1.314880e+01 1.350615e+01 1.299018e+01 1.256295e+01 1.261183e+01 1.109669e+01 1.356568e+01 9.458403e+00 3.088104e-01 4.448409e-01 6.978502e-01 8.755649e-01 1.060379e+00 1.205233e+00 1.327150e+00 1.271264e+00 1.215625e+00 1.373532e+00 1.246454e+00 1.257048e+00 3.772364e-01 6.080412e-02 9.237748e-02 1.462349e-01 1.715600e-01 2.216541e-01 2.452518e-01 2.733333e-01 2.681029e-01 2.540387e-01 2.930103e-01 2.642737e-01 2.700557e-01 7.367410e-02
<GCONST> 7.803965e+01
<TRANSP> 5
 0.000000e+00 1.000000e+00 0.000000e+00 0.000000e+00 0.000000e+00
 0.000000e+00 9.966691e-01 3.330905e-03 0.000000e+00 0.000000e+00
 0.000000e+00 0.000000e+00 9.925922e-01 7.407817e-03 0.000000e+00
 0.000000e+00 0.000000e+00 0.000000e+00 9.938183e-01 6.181720e-03
 0.000000e+00 0.000000e+00 0.000000e+00 0.000000e+00 0.000000e+00
<ENDHMM>
~o
<STREAMINFO> 1 39
<VECSIZE> 39<NULLD><MFCC_D_A_0><DIAGC>
~h "outdoor"
<BEGINHMM>
<NUMSTATES> 5
<STATE> 2
<MEAN> 39
 -8.915708e+00 1.481078e+00 2.220848e+00 5.548416e-01 -1.225810e+00 1.113857e+00 1.727835e+00 8.739102e-02 3.133409e+00 2.703463e+00 2.786694e+00 1.260360e+00 6.103199e+01 -8.076804e-03 -1.550837e-02 2.040422e-02 1.222077e-02 -1.377888e-03 1.175214e-02 -8.424777e-04 -2.283637e-02 -1.215056e-02 -1.531020e-02 3.780707e-03 6.660815e-03 -1.152233e-02 -1.055893e-02 -8.696321e-03 -1.112283e-02 -4.933178e-03 -1.173347e-02 -3.836549e-03 2.665576e-03 -5.908980e-04 1.803211e-03 -2.037077e-03 5.439746e-03 4.675462e-04 1.519738e-02
<VARIANCE> 39
 5.366314e+00 5.352324e+00 7.374712e+00 7.874279e+00 9.671132e+00 1.264615e+01 1.452240e+01 1.351992e+01 1.270128e+01 1.424491e+01 1.228806e+01 9.660148e+00 7.250062e+00 3.998513e-01 5.249116e-01 5.852185e-01 7.783847e-01 9.552409e-01 1.291299e+00 1.437028e+00 1.559620e+00 1.399839e+00 1.329915e+00 1.354100e+00 1.005627e+00 3.560275e-01 7.182323e-02 9.858462e-02 1.203278e-01 1.754744e-01 2.089689e-01 2.772596e-01 2.973576e-01 3.364622e-01 2.921518e-01 2.758727e-01 2.898375e-01 2.048161e-01 7.109937e-02
<GCONST> 7.776080e+01
<STATE> 3
<MEAN> 39
 -8.259780e+00 -1.759537e+00 -1.298558e+00 -5.467346e+00 -6.231220e+00 -4.489374e+00 1.637933e+00 -5.542578e-01 2.657818e+00 1.577127e+00 1.508303e+00 -5.411209e-01 6.964463e+01 8.452847e-02 -2.510269e-02 -3.649987e-02 -9.937342e-02 -5.224144e-02 -8.104853e-02 -3.415442e-02 5.339616e-02 3.535049e-02 4.028236e-02 1.383690e-02 2.386835e-03 4.774604e-02 1.162671e-02 1.851071e-02 2.750694e-02 2.069516e-02 1.920061e-02 3.390100e-03 -7.887798e-03 7.931444e-03 3.452632e-03 7.906377e-03 5.547775e-04 2.267875e-03 -3.515397e-02
<VARIANCE> 39
 1.258611e+01 4.365519e+00 1.182491e+01 8.860674e+00 1.449525e+01 2.282977e+01 2.737951e+01 2.140091e+01 2.118747e+01 2.194687e+01 1.691734e+01 1.501435e+01 3.311501e+01 4.649031e-01 3.998635e-01 1.048655e+00 8.568428e-01 9.039476e-01 1.428099e+00 1.706830e+00 2.198340e+00 1.186166e+00 1.280613e+00 1.554714e+00 1.381087e+00 1.889013e+00 9.306274e-02 7.315736e-02 1.853598e-01 1.587043e-01 1.640255e-01 2.692494e-01 3.598834e-01 4.420303e-01 2.379669e-01 2.565007e-01 3.099891e-01 2.820173e-01 2.759257e-01
<GCONST> 8.930141e+01
<STATE> 4
<MEAN> 39
 -7.755501e+00 1.209934e+00 2.516585e+00 -1.254289e-01 -1.554019e+00 1.494668e+00 2.908015e+00 2.156447e+00 3.088253e+00 2.897352e+00 2.812934e+00 1.731700e+00 6.036565e+01 -1.852163e-02 1.106747e-02 1.329648e-02 4.025080e-02 2.460181e-02 2.590631e-02 2.153817e-02 1.278242e-02 5.585033e-03 2.121588e-03 -1.418318e-02 8.386646e-03 -1.874714e-02 1.831373e-03 6.916845e-04 -6.866874e-04 -2.261321e-03 -2.424206e-03 -3.758240e-03 -6.070188e-03 -1.015616e-02 2.637760e-03 9.063344e-04 -3.937662e-03 -1.622754e-03 5.195461e-03
<VARIANCE> 39
 1.055664e+01 6.298153e+00 7.841916e+00 8.854191e+00 1.164479e+01 1.296997e+01 1.376274e+01 1.486695e+01 1.457339e+01 1.490092e+01 1.285031e+01 1.131203e+01 5.356243e+00 3.087911e-01 3.821437e-01 5.226281e-01 7.224201e-01 9.430628e-01 1.072847e+00 1.199657e+00 1.373195e+00 1.426873e+00 1.366098e+00 1.324579e+00 1.153149e+00 1.988179e-01 5.608912e-02 7.295015e-02 9.860245e-02 1.489646e-01 1.906871e-01 2.254791e-01 2.455047e-01 2.766410e-01 2.955443e-01 2.914887e-01 2.824925e-01 2.331235e-01 3.236175e-02
<GCONST> 7.520839e+01
<TRANSP> 5
 0.000000e+00 1.000000e+00 0.000000e+00 0.000000e+00 0.000000e+00
 0.000000e+00 9.862323e-01 1.376767e-02 0.000000e+00 0.000000e+00
 0.000000e+00 0.000000e+00 9.790515e-01 2.094852e-02 0.000000e+00
 0.000000e+00 0.000000e+00 0.000000e+00 9.931709e-01 6.829179e-03
 0.000000e+00 0.000000e+00 0.000000e+00 0.000000e+00 0.000000e+00
<ENDHMM>
~o
<STREAMINFO> 1 39
<VECSIZE> 39<NULLD><MFCC_D_A_0><DIAGC>
~h "shoes_off"
<BEGINHMM>
<NUMSTATES> 5
<STATE> 2
<MEAN> 39
 -1.206516e+01 3.400803e+00 5.073158e+00 7.823336e-01 1.775424e+00 2.366655e+00 3.859623e+00 3.358274e+00 5.841381e+00 6.854358e+00 4.914639e+00 3.230495e+00 6.510994e+01 -4.421623e-02 -5.084907e-02 -8.104150e-02 -1.014609e-02 3.491828e-03 -1.415187e-02 4.436610e-02 3.590202e-02 3.228203e-02 -8.294136e-03 2.213151e-02 6.288014e-02 -4.006841e-02 6.642866e-03 -1.786598e-03 -6.821968e-03 1.673794e-03 -7.582536e-03 -5.542714e-03 -9.068169e-03 -3.150549e-03 -1.671964e-02 -1.519489e-02 6.239437e-03 1.722024e-03 3.655016e-03
<VARIANCE> 39
 5.282720e+00 7.508314e+00 9.520000e+00 1.471696e+01 1.219872e+01 1.019215e+01 1.630624e+01 1.195041e+01 1.124741e+01 1.410436e+01 1.313095e+01 1.259676e+01 9.008144e+00 1.709792e-01 5.991544e-01 8.555139e-01 1.170432e+00 8.352141e-01 1.160498e+00 1.195844e+00 1.100710e+00 1.244813e+00 1.798320e+00 1.361282e+00 1.110045e+00 4.138968e-01 3.328826e-02 1.465730e-01 1.758367e-01 2.177759e-01 1.558203e-01 2.565762e-01 2.575134e-01 2.055016e-01 2.560842e-01 3.627588e-01 2.629877e-01 2.270226e-01 8.262985e-02
<GCONST> 7.863983e+01
<STATE> 3
<MEAN> 39
 -1.229361e+01 6.590236e-01 2.475423e+00 1.966603e-01 1.841197e+00 1.863850e-01 3.237941e+00 1.977232e+00 3.742175e+00 3.125379e+00 3.407762e+00 1.791787e+00 6.522198e+01 4.262559e-02 3.538153e-02 4.346325e-02 4.884460e-02 2.917290e-02 1.719854e-02 5.255090e-02 2.474315e-02 -6.249848e-03 -2.531249e-02 2.155079e-04 -1.044756e-02 -1.310732e-02 -1.516218e-03 1.213368e-02 6.911646e-03 1.581199e-02 1.021149e-02 3.789586e-03 9.360115e-03 1.357468e-03 1.077509e-02 1.796297e-02 2.391078e-03 1.055085e-03 -1.944879e-02
<VARIANCE> 39
 1.303678e+01 1.669534e+01 1.487641e+01 1.472145e+01 1.254447e+01 1.677404e+01 1.807116e+01 1.807828e+01 1.351009e+01 1.803860e+01 1.295387e+01 9.751619e+00 2.492724e+01 6.955251e-01 1.367804e+00 1.489080e+00 1.157613e+00 1.152871e+00 1.608177e+00 1.495364e+00 2.009220e+00 1.368832e+00 2.132225e+00 1.745616e+00 1.275473e+00 1.869857e+00 1.112884e-01 2.277037e-01 3.009703e-01 2.241743e-01 2.464551e-01 3.270305e-01 2.917256e-01 4.233788e-01 2.724120e-01 4.478298e-01 3.871779e-01 2.750685e-01 3.587643e-01
<GCONST> 9.549800e+01
<STATE> 4
<MEAN> 39
 -1.060463e+01 2.384070e+00 5.901424e+00 3.916653e+00 1.964419e+00 2.573219e+00 4.120895e+00 2.544680e+00 4.134428e+00 2.720874e+00 2.210186e+00 2.482229e+00 5.913105e+01 -1.594566e-02 -2.764214e-02 -9.190560e-03 -1.656927e-03 -5.123516e-04 1.093006e-02 -3.125218e-02 -1.932721e-02 4.842082e-03 -1.075769e-02 8.807682e-04 -2.887329e-03 -2.077874e-02 -1.005225e-04 1.976103e-03 -4.976966e-03 -6.122054e-03 8.077170e-04 2.106498e-03 -3.047392e-03 4.691274e-03 -1.680578e-03 -2.858620e-03 7.574728e-03 5.921089e-03 4.727221e-03
<VARIANCE> 39
 5.412117e+00 5.776393e+00 7.848310e+00 8.442511e+00 1.068768e+01 1.545121e+01 1.563734e+01 1.206031e+01 1.227310e+01 1.384655e+01 1.342074e+01 9.784077e+00 6.024285e+00 3.391906e-01 4.255106e-01 8.145068e-01 7.174074e-01 8.760780e-01 1.656044e+00 1.601885e+00 1.495842e+00 1.480374e+00 1.324019e+00 1.177278e+00 1.059271e+00 3.273470e-01 6.013562e-02 9.072212e-02 1.663540e-01 1.458051e-01 1.786940e-01 3.537732e-01 3.345932e-01 3.313828e-01 3.231669e-01 2.670654e-01 2.366630e-01 2.262479e-01 5.597755e-02
<GCONST> 7.786781e+01
<TRANSP> 5
 0.000000e+00 1.000000e+00 0.000000e+00 0.000000e+00 0.000000e+00
 0.000000e+00 9.910597e-01 8.940319e-03 0.000000e+00 0.000000e+00
 0.000000e+00 0.000000e+00 9.930829e-01 6.917080e-03 0.000000e+00
 0.000000e+00 0.000000e+00 0.000000e+00 9.961327e-01 3.867313e-03
 0.000000e+00 0.000000e+00 0.000000e+00 0.000000e+00 0.000000e+00
<ENDHMM>
~o
<STREAMINFO> 1 39
<VECSIZE> 39<NULLD><MFCC_D_A_0><DIAGC>
~h "shoes_on"
<BEGINHMM>
<NUMSTATES> 5
<STATE> 2
<MEAN> 39
 -1.201959e+01 1.828993e+00 3.392808e+00 -2.555352e-01 -2.737319e-02 6.290774e-01 3.019983e+00 1.853796e+00 3.471547e+00 4.936043e+00 3.262048e+00 2.863716e+00 6.218196e+01 -4.384378e-03 -5.329677e-03 3.105181e-03 -1.210424e-02 3.463937e-03 4.916028e-02 9.517196e-03 -2.985562e-02 -4.104206e-02 -1.240180e-02 -1.793769e-02 -1.403386e-02 -2.223036e-02 7.487484e-03 -2.632468e-03 -1.154518e-03 -3.333674e-03 -6.931568e-03 -9.710670e-03 -3.305796e-03 -5.046118e-03 -2.619398e-03 -1.001709e-02 -1.313523e-03 1.340788e-03 9.055620e-03
<VARIANCE> 39
 7.001217e+00 3.514397e+00 8.523834e+00 1.530884e+01 1.594238e+01 1.706292e+01 1.881941e+01 1.428284e+01 1.509121e+01 1.541142e+01 1.242146e+01 1.133204e+01 1.058219e+01 5.962987e-01 4.020838e-01 7.679894e-01 1.130586e+00 1.590991e+00 1.585976e+00 1.737101e+00 1.650553e+00 1.894428e+00 1.590602e+00 1.430156e+00 1.144550e+00 4.617863e-01 1.264125e-01 8.805058e-02 1.524681e-01 2.179566e-01 3.407997e-01 3.518092e-01 4.021527e-01 3.532374e-01 4.043359e-01 3.577897e-01 3.019970e-01 2.314419e-01 8.872300e-02
<GCONST> 8.594814e+01
<STATE> 3
<MEAN> 39
 -8.702722e+00 1.275597e+00 1.992841e+00 -2.320921e+00 -2.705303e+00 -2.579571e+00 -3.849790e-01 2.465028e-01 9.293130e-01 7.332048e-01 1.402917e+00 1.689123e+00 6.543545e+01 5.626961e-02 -7.495878e-03 -3.892478e-02 -9.670534e-02 -7.783163e-02 -7.808974e-02 -8.249440e-02 -4.371705e-02 1.967153e-02 6.385834e-03 2.722919e-02 -2.019889e-02 1.084479e-01 -3.126727e-02 8.431586e-03 3.156898e-02 4.786818e-02 3.290176e-02 2.398359e-02 3.247064e-02 3.210794e-02 1.703340e-02 2.267455e-02 -5.542023e-03 -1.127053e-02 -4.555420e-02
<VARIANCE> 39
 1.752212e+01 1.042390e+01 1.738066e+01 2.920959e+01 2.742039e+01 2.464396e+01 2.144112e+01 1.661411e+01 1.628413e+01 2.028004e+01 1.630948e+01 1.005040e+01 3.602631e+01 1.402430e+00 1.080742e+00 1.561795e+00 2.295215e+00 1.974226e+00 2.266054e+00 1.944553e+00 1.756616e+00 1.530039e+00 1.639294e+00 1.302377e+00 1.181127e+00 2.795706e+00 2.470699e-01 2.081873e-01 3.031807e-01 4.401613e-01 3.117012e-01 3.839156e-01 3.421590e-01 3.318104e-01 2.872919e-01 3.017975e-01 2.610933e-01 2.574593e-01 5.073466e-01
<GCONST> 1.016831e+02
<STATE> 4
<MEAN> 39
 -1.121083e+01 1.842809e+00 3.536738e+00 2.603490e-01 -3.017834e-01 5.470094e-02 2.145806e+00 9.725250e-01 2.628523e+00 3.171557e+00 2.987124e+00 2.393606e+00 6.189792e+01 -4.419181e-03 -3.356537e-03 6.253561e-03 1.919302e-02 8.113203e-03 8.581615e-03 1.802121e-02 2.780557e-03 -3.379615e-03 1.827986e-03 2.255250e-03 3.433248e-03 -1.660525e-02 2.695656e-03 3.087194e-04 -5.298128e-03 -6.070495e-03 -4.449958e-03 -3.925553e-03 -5.514965e-03 -3.664264e-03 -1.102657e-03 -3.258908e-03 1.541992e-03 3.674648e-04 7.620192e-03
<VARIANCE> 39
 8.669009e+00 4.072210e+00 7.857012e+00 1.243167e+01 1.356076e+01 1.756152e+01 1.481816e+01 1.563891e+01 1.522817e+01 1.252233e+01 1.146420e+01 1.025640e+01 1.519369e+01 5.206335e-01 3.830078e-01 6.640615e-01 1.046117e+00 1.135394e+00 1.475350e+00 1.485457e+00 1.510815e+00 1.660435e+00 1.343038e+00 1.364722e+00 1.172886e+00 1.021393e+00 9.726189e-02 7.949604e-02 1.313601e-01 1.999405e-01 2.228458e-01 2.925780e-01 3.106906e-01 3.093682e-01 3.525861e-01 2.841723e-01 2.906429e-01 2.491091e-01 1.815462e-01
<GCONST> 8.391428e+01
<TRANSP> 5
 0.000000e+00 1.000000e+00 0.000000e+00 0.000000e+00 0.000000e+00
 0.000000e+00 9.898955e-01 1.010447e-02 0.000000e+00 0.000000e+00
 0.000000e+00 0.000000e+00 9.794013e-01 2.059870e-02 0.000000e+00
 0.000000e+00 0.000000e+00 0.000000e+00 9.963369e-01 3.663177e-03
 0.000000e+00 0.000000e+00 0.000000e+00 0.000000e+00 0.000000e+00
<ENDHMM>
~o
<STREAMINFO> 1 39
<VECSIZE> 39<NULLD><MFCC_D_A_0><DIAGC>
~h "silence"
<BEGINHMM>
<NUMSTATES> 5
<STATE> 2
<MEAN> 39
 -3.163867e+01 1.252628e+01 -3.904726e+00 2.978566e+00 -9.694871e+00 1.138961e+01 -3.902430e+00 5.330504e-01 -2.411346e-01 -2.356308e+00 2.541995e+00 -7.384242e-01 2.064337e+01 -2.717980e-04 -3.457852e-05 -3.182600e-04 -6.538789e-04 8.660904e-04 7.170867e-04 -3.292890e-03 5.491089e-03 2.712413e-03 -1.911748e-03 -2.506659e-03 -2.873212e-03 -2.442712e-03 -9.638741e-04 -9.865671e-04 -1.507494e-03 -5.259071e-04 -8.694054e-04 -8.631336e-04 1.343833e-03 -1.635353e-04 -1.236161e-03 -1.167608e-03 1.774416e-04 -3.703792e-04 -3.242950e-04
<VARIANCE> 39
 1.038029e+01 1.709927e+00 1.696814e+01 8.007554e+00 2.558928e+01 5.415140e+00 4.460619e+01 1.283272e+01 4.450834e+00 8.368928e+00 1.299681e+01 3.152584e+00 2.035762e+01 9.722040e-02 9.038754e-02 2.068381e-01 1.724965e-01 2.596397e-01 3.348947e-01 3.555639e-01 3.874132e-01 4.563120e-01 3.925979e-01 3.657547e-01 3.290155e-01 3.913779e-02 1.868478e-02 1.726371e-02 4.076078e-02 3.375661e-02 5.427681e-02 6.553762e-02 7.150809e-02 7.741333e-02 9.405199e-02 7.841682e-02 7.449805e-02 6.618273e-02 7.301550e-03
<GCONST> 4.091581e+01
<STATE> 3
<MEAN> 39
 -1.059552e+01 4.611682e+00 -2.348990e+00 -1.842155e+00 -6.127358e+00 -3.763507e+00 -5.017598e+00 -2.919560e+00 -2.025151e+00 -1.242601e+00 -8.079366e-01 -5.500019e-01 4.723958e+01 1.388467e-03 -4.904328e-03 -1.224269e-03 4.786824e-03 -6.541412e-03 -2.452896e-03 5.096531e-03 6.630749e-03 -1.064826e-02 -1.954843e-03 1.955227e-03 -2.488150e-03 -3.090605e-03 5.247837e-04 -3.316716e-04 1.024275e-03 1.484823e-03 2.688953e-04 3.189968e-03 1.752880e-03 -4.616929e-03 -4.792921e-03 4.011337e-04 2.038715e-03 1.964712e-03 1.275423e-03
<VARIANCE> 39
 3.794459e+00 4.465857e+00 5.336231e+00 8.753536e+00 1.014015e+01 1.087014e+01 1.231400e+01 1.270888e+01 1.324966e+01 1.297742e+01 1.103956e+01 8.713953e+00 2.148936e+00 1.448339e-01 2.923221e-01 4.504076e-01 6.038807e-01 8.093002e-01 9.354584e-01 1.229226e+00 1.278306e+00 1.321540e+00 1.394735e+00 1.230735e+00 9.169148e-01 8.264839e-02 2.897586e-02 5.681728e-02 9.209448e-02 1.223080e-01 1.656651e-01 1.926305e-01 2.601776e-01 2.653764e-01 2.679881e-01 2.924277e-01 2.545635e-01 1.817865e-01 1.574585e-02
<GCONST> 6.575033e+01
<STATE> 4
<MEAN> 39
 -1.050700e+01 6.008833e+00 1.421004e+00 6.581350e+00 1.034069e+00 4.227748e+00 3.956540e-01 2.085062e+00 8.767914e-01 1.740606e+00 1.711977e+00 1.585788e+00 4.755669e+01 8.407259e-03 -2.612753e-03 -5.020676e-03 -1.154038e-02 -4.376060e-03 -1.048193e-03 -2.099374e-04 8.296788e-04 -8.979137e-03 1.172862e-03 4.230147e-03 3.627989e-03 1.193869e-02 3.426134e-04 1.980635e-04 -4.502627e-04 -1.103890e-03 -9.714462e-04 -2.022509e-03 -1.813487e-03 -2.507706e-04 8.602040e-05 3.408848e-03 -1.493511e-04 7.719181e-04 4.203879e-04
<VARIANCE> 39
 6.796045e+00 9.922799e+00 2.913067e+01 1.127396e+01 2.815682e+01 1.983308e+01 2.993251e+01 1.822407e+01 2.001234e+01 1.634544e+01 1.293338e+01 1.116282e+01 8.983090e+01 2.408281e-01 4.473639e-01 9.666247e-01 7.341822e-01 1.004712e+00 1.280876e+00 1.395834e+00 1.429893e+00 1.335361e+00 1.295666e+00 1.228710e+00 1.111967e+00 3.864160e-01 4.490060e-02 9.119642e-02 2.017049e-01 1.490939e-01 2.036632e-01 2.383965e-01 2.739904e-01 2.845103e-01 2.684427e-01 2.622933e-01 2.518730e-01 2.324384e-01 7.019684e-02
<GCONST> 8.512519e+01
<TRANSP> 5
 0.000000e+00 1.000000e+00 0.000000e+00 0.000000e+00 0.000000e+00
 0.000000e+00 9.887315e-01 1.126852e-02 0.000000e+00 0.000000e+00
 0.000000e+00 0.000000e+00 9.914161e-01 8.583929e-03 0.000000e+00
 0.000000e+00 0.000000e+00 0.000000e+00 9.927104e-01 7.289662e-03
 0.000000e+00 0.000000e+00 0.000000e+00 0.000000e+00 0.000000e+00
<ENDHMM>
